-0.555878773147,-0.332602471193,0.405844404098,0.0652151872232,-0.758981933486,-0.510786912512,-0.681385290861,0.103416699056,0.657323115941,0.124267270738,0.464046149287,-0.451124774695,-0.462410349422,0.144845992299,0.576872375313,0.0894561891147,-0.486627924799,0.82539677465,-0.517833411451,0.816951991148,0.536406642084,0.808298246288,-0.510833869247,0.121241999048,0.23920727178,-0.818734742924,1.14059150199,-1.03138292997,0.696507523375,0.420833443225,0.533055669868,-0.104561917002,-0.56177168019,-0.575453765987,0.916003722616,0.833685877519,-0.212688806818,-0.966026168155,-0.186896332927,-0.699747215611,-0.650835423122,-0.0265078032975,0.0505715439801,-0.433316395382,-0.532372845623,0.833516779528,-0.61930000883,-0.65667142529,0.0569933754025,-0.758419536179,0.309430642844,0.239934004952,0.0628512903247,-0.162467834793,0.339786632856,-0.0492834475158,0.694602032616,0.966410205828,0.934261994239,-0.0719811653068,0.314752336976,0.166582070598,-1.18777708212,1.51738829955,0.261979103591,0.211591283865,0.537755996646,-0.605906466497,0.430473670316,-0.809313798554,-0.471022428543,1.1259070976,0.501034582046,-0.0813733059778,0.500149959615,-0.561931372722,-0.515694793564,-0.397363604628,0.618089248293,-1.13019799074,-0.302914645705,0.325707450947,0.181226098812,-0.587496511195,-0.522983780775,-0.318583317575,-0.249045721121,-0.229091041659,-0.832000786558,0.588694170511,0.6293115806,-0.313346782809,0.268697371547,0.310757088846,0.597245780772,0.785565057579,0.552003112643,-0.742108514054,-0.509448961993,-0.147750562749,0.865965840465,-0.0848974683761,-0.584974262888,0.098153157119,-0.871967180059,-0.423072636944,0.900163760096,0.883685228583,0.579142298727,-0.0199635833736,-0.788466312621,0.794781178339,-0.356391991717,-0.292426590333,-0.558459894008,-0.619491765936,1.18060594817,0.180861578898,0.251191171718,-1.12560519181,-1.10213241646,-0.979417904033,0.493291925101,-0.569917408193,0.288244835607,-0.689117075535,0.412691592049,0.660888385294,0.912671164074,-0.310831409538,0.218462246373,0.415787108901,0.276570928669,0.85539988782,0.709714547385,0.650515163341,0.0336579454084,0.760675997349,0.00318415730452,-0.581609088338,0.281725952867,0.96919679388,-0.0629693580507,0.695583935809,0.206341256203,0.957758128447,0.794261803669,-0.25588579041,-0.322127574723,-0.4508621377,-0.920145360567,-0.27713164772,-0.852727897725,-0.158351265869,-0.453859419229,0.984302643379,0.34904991884,0.307085458901,0.227427629859,-0.817767662941,1.19819215771,0.929314805105,0.913556966006,-0.232896201559,0.0558978980093,-0.98263635708,0.819387596926,-0.31793767807,0.59571426841,0.941725267272,-0.926257168092,0.251944194653,0.191770642388,-1.04588987297,-0.784044844321,0.153421264442,-0.992373751564,0.511315554875,-0.140029720106,1.48371537212,-0.623216115112,-0.556690863191,0.674684092087,-0.477895511754,0.393128513295,-0.00857636764026,-0.611878242335,-0.182806419945,0.769512263167,-1.17655369452,0.766003010634,0.708198443599,0.220034911751,-0.694882536751,0.6313298436,-0.498993560004,0.0700890770489,-0.336083498105,0.158471694241,0.101402099735,-0.0141249890555,0.965332604318,0.223934545066,0.0492347674416,0.3809948576,-0.863321417729,0.388427811168,-0.729777688637,0.308358206823,0.263365366861,-0.108544431829,-0.400831385835,0.43674294366,0.0923900470837,-0.752626327928,1.02939536032,-0.372792041689,1.13414295859,0.721489101146,-0.749865017984,0.552990696858,-0.686109502345,0.669496294885,-0.358923040156,0.44117823252,-0.570137370101,0.325008708109,0.344075006898,0.834339826749,-0.109389939937,0.388120218724,0.20303392838,1.55185787759,0.697594058035,0.298904801173,0.443305745357,-0.373112226532,-0.627606176179,0.129204789235,-0.0168777224938,-0.193233796917,-0.96914906754,-0.263523359074,1.13914821823,0.256556053183,-0.440843449548,-0.747888899885,0.668447744063,0.210620406989,0.310861775619,-0.54100878628,-0.0961875447075,-0.500713563101,0.366946632978,-0.636911439593,-0.240000764133,0.234754878392,0.821556577182,-0.539483676803,0.278165834356,0.490045532194,0.0684577792167,-0.0523124443728,0.444928919988,0.214553661243,0.0363120730029,-0.0590890436061,0.0335825031318,-0.175452446655,1.27390977834,0.118582585871,0.190794932965,0.419990529492,-0.305148225059,0.879620042362,0.440353083992,0.262708462665,0.594793558409,0.368234990338,-0.864882866868,-0.757001141601,0.0935662441353,-0.438145008394,0.713328093341,0.404201878493,-0.760529066327,-0.481576344352,-0.8351047131,0.818936140535,0.333834747016,-0.587186250814,0.717538340471,-0.463245878867,0.600094655714,-0.65075682964,-0.574211349953,0.633441064633,0.626096481691,0.808749980351,-0.303205032834,1.01365425478,-0.0162475069555,-0.0983750731682,0.37342957351,-0.508758337794,0.648274646459,0.494879866242,-0.339646770485,-0.399994586675,0.396674004509,-0.009674908687,0.778673604917,0.784167980856,0.135914325426,0.282345752725,0.558212072355,1.17673619322,0.939479699107,0.579111132294,-0.588196348485,-0.584736617653,-0.532714344798,0.49331301745,0.291520309648,-0.219299055367,0.0223116892032,0.123981831118,-0.426755511843,0.338274469086,0.936734748266,-0.22225346668,-0.0680880223613,0.0363207011382,0.610907992117,0.510560303408,-1.07958285794,0.670295336326,0.135844154031,-0.465939264303,-0.799942682656,0.600132329838,-1.28519322599,-0.482621085422,-0.00925566720889,-0.533631336866,0.326288530659,-0.26135316503,0.455247064119,-0.364812959882,-0.173136276917,0.164286629309,-0.457947692633,0.267032952479,-0.995064758677,-0.236545426219,-0.448264917153,0.207046422075,0.585887814628,0.51036435053,0.436407591401,0.331679647352,-0.353897518815,-0.604456671814,0.927990730249,-0.0460555814561,-0.519365628718,-1.05802129554,0.742058209256,0.280025980965,0.386916117026,0.475588280499,-1.02735004361,-0.752747828515,0.746749491121,-0.718005456814,0.183649567313,0.511808109518,-0.838105007035,-0.732638855878,-0.117250307058,-0.223134577335,0.390492635003,-0.619866682386,-0.28260883053,0.611369033111,-0.227555497663,0.742064739548,0.862580267289,1.05549988819,0.621492387584,1.15660332094,0.781266603665,0.417167703292,0.190641140391,-0.830229449971,-0.681074547318,0.630782529729,-0.781800185599,-0.859231939704,-0.918005381037,-0.624818700727,0.489724332026,0.525406427521,-0.478112473587,-0.54856675018,-0.886640440706,-0.569014398357,0.282776704225,0.729629653184,-0.299402198913,-0.90881987431,0.206657129249,-0.67076188163,0.0572947000516,0.290590566721,-0.173379151587,-0.870361131449,-0.9112665465,0.558060992035,0.595401693953,-0.436471721071,1.38859045769,-0.879339713857,0.313450356868,-0.689918163313,-0.622652766573,0.76991356259,0.341484815385,0.41514210201,-0.904450767347,1.49613061383,0.29264200321,-0.878517635991,0.290718181133,0.603445033856,0.788800561239,-0.24196111692,-0.704000558567,-0.0843552472225,-0.0513707428617,1.21816318615,-0.0747536997304,0.875687407061,0.4062597043,0.959197954861,-3.34518483393e-05,0.490986652719,-0.202225617,-0.0794323993082,0.855624390992,0.754628903123,-0.586399946813,-0.379506960761,-0.302000381791,0.683871074886,-0.152655883219,0.128891701096,-0.074694919457,0.912031120893,0.00280423715953,-0.472228516218,-0.00280544244149,0.0798093916406,-0.0827502826875,-0.21795912179,-0.514234589302,0.616925498099,0.449582677607,-0.586578050197,-0.237807277102,0.142507519793,-0.564382030284,0.275028961398,0.342840456432,-0.491386983731,0.000382324602298,0.561484471759,-0.154406410543,-0.479873246951,-0.732440433769,-0.511461236146,-0.763418579084,0.180402289807,0.359887633424,0.69157136314,-0.973049492075,-0.8932502439,0.502594806478,-0.87343683158,-0.462197111787,0.495891083795,-0.711838536818,-0.542943777804,-0.188526285342,1.12568158787,-0.150467817581,-0.0856083241112,-0.723867184439,0.0580473294148,0.0129274141022,-0.080449267165,-0.955268325729,0.962943279612,0.293207920083,0.771187629803,0.577608458634,-0.0704260301026,0.0246821464163,0.96623066817,-0.555426501832,-0.159936885043,0.290102102913,-0.202448411421,0.290047238442,-0.180017318857,0.46946613374,-0.333138701313,-0.0568117174685,-0.340496382802,0.0500499142967,-0.168468468938,0.180232307929,0.802036564034,0.772282476438,0.38005253934,1.17265077412,-0.647790463891,0.777298285655,0.261613066136,-0.296697868994,-0.48268358264,0.837310745512,-0.243616083145,-0.928505432912,0.142774620108,-0.159428020127,0.256488544732,-0.207659542374,0.412052516731,0.634465973664,-0.901720929129,1.39734759933,-0.834583541241,-0.881203399625,0.833219828049,0.705800331928,-0.165174230777,0.0381401017983,-1.03176793761,0.612782878846,-0.0696491765005,0.673835410688,-0.523141548355,0.779714419557,0.974300049108,0.625568544074,1.29403261334,-0.146238969067,-0.350081562555,0.664085283117,-0.702708020698,0.712904209996,-0.839114401974,0.986821992234,0.779823710758,-0.368443737519,0.087645116555,0.564147713022,0.922832868664,0.817580812461,-0.175685530886,0.81986821265,-0.834548967601,0.12520907869,-0.895240364065,0.497099054728,0.690169255736,0.594310593963,-1.07825854741,0.106821046072,0.0589969161871,-0.387359498565,0.734245774643,-0.000146148718249,0.563486547215,-0.685512628372,-0.561995727791,-0.452329885546,-0.67593646664,-0.26493144608,0.721371990311,-0.316801623963,1.04976798262,0.663327857874,-0.863792395514,0.558120862682,0.795373956381,-0.569116628687,0.961939301572,0.112669073467,-0.640193065555,0.228739845482,-0.132495191428,0.61663395774,0.0138226962311,0.0610694368211,-0.0908057879445,-0.289879304437,0.222701733369,0.669631557866,-0.870779834169,0.905105451333,0.263648162132,0.464568689983,-0.44509857827,-0.530520749773,-0.802351593465,-0.489711838012,0.0383879635328,-1.10492391628,-0.429186986557,-0.395678023224,-0.322294940737,-0.0978828753642,0.135684434984,-0.434817134098,0.00745811617817,0.455852672394,-1.15644437077,0.782726543202,0.775420825625,0.279744450134,1.12624656562,0.289868905811,-0.6681010878,0.890173735679,-0.684543789375,-0.627486936533,1.13108972301,0.540330541375,0.405975718286,0.513231418009,1.06709577687,-0.0697873331249,0.530657680351,-1.05756808883,-0.617479568993,-0.718596918537,-0.00404795416261,-0.296539824575,0.195402763614,0.416831062226,0.000895260114709,-0.820590887259,-1.16743298231,-0.103943222838,-0.908730862842,0.247076933181,-0.117346851933,-0.327495797586,-0.754477874145,1.13137829708,0.849252907086,0.705716656482,0.168578101946,1.17712335842,-1.10394085549,0.639231781346,0.306137421786,0.0306673989798,0.0551291870586,-0.0239905337499,-0.016903923477,0.471440882076,0.734395162576,-1.26674548262,0.81484396896,-0.740266235087,0.433219637358,0.820471913184,-0.930889474114,0.215101419614,0.544492479948,1.48081458798,-0.0194277734418,-0.188694492705,-0.748375000377,-0.869424780977,-0.888134478976,-0.276202011771,0.28182870191,-0.698338578949,0.860795322183,0.092201083368,1.23847989628,-0.213230915077,0.800874251532,-0.809406353238,-0.484466990006,0.840693795189,-0.730200725778,0.0705034729081,0.52395655769,-0.542376758998,0.149074673239,-0.546068912753,-0.273602979488,-0.141199805928,0.598340708959,-1.2509057414,-0.90935085927,-0.435515496926,-0.023205887337,0.346048295733,-0.584553057549,0.498814920604,0.674485606133,-0.214472569474,0.663204413731,-0.42946787712,0.0599405479023,-0.349719402981,-0.359803961676,-0.760429893425,0.130463284663,-0.58761725179,0.670673454893,0.722459545621,0.0635842537019,0.147698804369,-0.717794640586,0.043076923244,-0.564916502956,-0.333128919207,-0.431240632468,0.189265552207,-0.390515422751,0.538810056014,-1.3474783389,-0.0565413574562,0.449619855228,0.517915882801,-0.799332307482,-0.843722303818,0.0389741538482,-1.48160593778,0.284990490937,-0.397390247428,-0.552896416295,0.189426211469,1.22652801136,-0.222040460209,-0.726161532649,-0.000707517701399,0.163141392505,1.24309672229,-0.403821933051,-0.675434444309,0.322357963354,0.690964081189,0.689156627909,0.57779959317,-1.06369554475,-0.419434892117,1.24121030722,-0.37385872874,-0.291563311011,0.122228664919,0.279800425401,0.656869579029,-0.66411621954,-0.584021659294,0.8375461681,-0.892344894404,0.929354692604,0.48185728738,-0.521914176579,-0.86761666523,-0.274564492973,0.35555432291,-0.48900722495,-0.884346900524,-0.336049730027,0.1045409012,0.2564751861,0.524923940768,0.516465409951,0.459590351915,0.120676007601,1.044632755,0.770330251078,-0.252287433437,-0.721633922841,-0.467575802702,0.445788763913,0.288016844789,0.79172043467,0.374539048297,0.411771633103,-0.409306953986,-1.18634882114,-0.137432259248,1.21751386941,0.583034372872,-0.539887722174,0.386291391396,0.458083587029,0.739169939917,0.362554951075,0.226907046557,-0.1050237961,-1.89802216636,-0.274445507909,0.440588514027,-0.28843557633,0.16651606202,-0.0975560971598,0.365385314054,0.894585969157,-0.437920911576,-0.078203802448,0.8328203354,-0.282390854422
0.0612718060325,-0.171244958761,-0.125996135807,-0.98218363385,0.115873761782,0.0473076454079,0.228660770913,0.204357848188,0.812627676139,0.110278846782,-0.36369690646,0.228289147514,0.844135601508,0.647908200481,-0.73563959008,0.106828919382,-0.0634558239103,-0.633031502219,0.0705918721992,-0.132567400684,-0.0117951869162,-0.507812939308,0.247784306326,-0.891636857602,-0.98251808306,-0.792075308621,0.0583603990509,0.368857435259,-0.551846508873,0.29524072227,-0.372503427189,-0.0794140875464,-0.916989271555,-0.941906466659,-0.15902275511,-0.130386101535,-0.430091156418,0.198196361439,0.6346797234,-0.736916126161,0.342471578238,-0.316252962583,0.252345699065,-0.62925586318,0.768123173761,-0.44975855151,0.101770097991,0.0298514463858,-0.564065908174,0.0995080981869,0.477129955672,-0.990787348171,-0.100146358279,1.7303581983,0.537833382289,-0.462923976555,0.147154297952,1.13732551097,0.148849423341,-0.811757236487,0.933216748988,-0.415499488173,-0.0289751561031,0.639532019528,-0.0417146024588,-0.142696826123,-1.20738437641,-0.278366810296,-0.650529781227,-0.492314941403,0.543879937881,0.625773939696,-0.724242399811,0.131836253911,-0.0472366892159,-1.22476480497,-0.135449569826,0.0244910971468,0.321443403408,-0.0990274879121,-0.392375959406,0.0235974444614,-0.109990950474,-0.515966843416,1.16940576189,0.657271179968,0.409716273422,-0.272480247211,-0.031362532305,-0.114456034047,0.0971370538822,0.272156118207,0.49531157329,0.136171638118,0.129240278869,-0.626054065665,-0.506839212021,0.120437996601,-0.767202815838,0.349507967601,0.502681968029,-0.475881981114,0.272677333093,0.429625930711,0.0930552841656,-0.740690434668,1.0256864613,-0.0213386188594,0.0533602041172,-0.803702295494,-0.480870955135,-0.570176771693,-0.994461795369,0.278040171399,0.482494236901,-0.310665578838,0.190007198315,1.08365254182,0.67602153083,0.493858562114,-0.0661299602051,0.659079271757,0.63097614326,-0.269086460127,0.958984485081,0.422443159203,-1.02312417442,-1.06242564121,-0.535723464763,-0.419358941324,-0.332021924562,-0.50117892391,0.0366847445509,-0.0685967553589,0.059729588729,0.0332357376581,0.0917468274263,0.18490482735,-0.204570402915,-0.339984910212,-0.422357178159,-0.230527426271,-0.687666255301,0.666892384302,0.560985750309,0.789537040357,0.853662695793,-0.663006612353,-0.168456852786,-0.653114797248,-0.301621968542,0.419825329296,0.420538806183,-0.138812085604,-0.190528191858,-1.12142835488,-0.362382452125,-0.293944663526,-0.8136668897,-0.774331380206,-0.759556787746,0.258100377208,0.363966940445,0.315321955352,0.311771869827,-1.065877028,0.325686325085,0.918772282447,0.891717348359,0.858600520017,-1.06456693526,-0.0916827638692,0.239207852334,-0.567324591688,0.87224958068,0.797469710368,-0.595684299468,-0.135242540603,-0.171299746962,0.262496285344,-0.874505821467,0.574116081049,0.0300813227313,0.797303024548,-0.637124187571,0.00122965651528,0.0610965456436,0.146323974703,0.283674625029,0.960557993056,0.641673392452,-0.723762280522,-0.0642774066183,-0.0103369020806,-0.574728916222,-0.557767558744,-1.01087025592,0.449910695287,-0.52732646701,0.187620202392,0.0423804363664,-0.212227911843,-1.12027526903,0.376171097066,0.396596915331,0.628637803933,-0.653530001668,0.681061233144,0.256313107823,-0.373484240686,1.07860320581,0.31572220733,0.123304929314,0.0422756687176,0.939009429273,0.76706622711,-0.227361753931,0.674016319267,0.538458784727,0.876458329328,0.282789487845,0.60159620665,-0.795715911247,-0.704708995813,-0.0325331034009,-0.0273224512522,-0.0879836198958,-0.598165174797,-0.11458368817,-0.632657754394,0.664564185604,-0.23157667406,0.982360216423,-0.399388239795,-0.925124829417,0.590543856502,0.0675810626233,-1.20371857867,-0.783916275724,-0.884615174649,0.373202599536,0.791574609861,-0.0950136890148,0.203045222803,-0.302623455335,-0.0786046717912,-0.992631427554,0.875554762735,0.00405949010553,-0.27321644637,0.849446459046,-0.804564129496,0.249048196089,-1.02634046129,-0.843049372751,-1.21926502996,-0.90979394715,-0.531822183445,-0.140128772217,0.380231539212,-0.671041858355,-1.26471866023,0.00334287182292,-0.482038713691,0.591477256002,-0.824723771429,0.86851681054,0.302200919883,-0.618467765481,0.162712929771,1.03875892118,0.237788665804,0.758725204154,0.469668719371,-0.816827519431,0.163207276926,-0.838810891904,0.0785692187008,-0.386342587076,0.376579566239,0.239816429147,0.384547945816,0.832796197188,0.238022022713,0.291303022685,-0.172719097471,0.276368604926,0.706208183867,-0.137270244392,-0.649762040969,0.94053805102,-0.0551829415168,-0.64722698223,-0.407144592613,-0.808566976596,-0.411576765747,-0.134297405992,0.0177362882188,-0.653775831591,-0.862210187146,0.675246341003,-0.194491996539,0.175876276507,-0.605935664727,1.12839990885,0.309960165026,-0.233735356353,-0.475017965995,0.343147124535,0.148868152444,-0.0337197240106,0.0622817714468,-0.615955529342,-0.141834258311,0.686149165626,-0.215833538395,0.174892158693,-0.770968911998,-0.209838775416,0.0224565809059,-0.0716247264432,0.972338542281,0.763658156831,-0.658110273108,-0.434904362595,0.5123808858,0.373053548663,-0.0423473701342,0.246469018312,-0.765627856522,0.496236112794,-0.201889312758,-1.06948480569,0.462112071624,0.0760093685364,-0.524442416761,0.27598542909,0.900666112695,-0.132795447512,1.16636716278,-0.326721063899,-0.80193638573,-0.707783733303,0.70260418974,0.510292024571,-0.962786798548,0.559373381577,-0.435676899864,-0.50549422686,-0.91520629405,-0.62635420363,0.629553918454,-0.991571070853,0.0666842330406,0.427795100114,-0.833326986128,0.398063978975,0.760761897737,-0.155659483575,-0.596405199301,-0.630696130362,0.461844322755,-0.865034040777,0.610794233404,0.264639814802,0.619506317472,0.376947190355,-0.0875218093544,-0.664671647061,-0.528658965434,0.707294825396,-0.263214640692,0.0193004741069,0.789469067988,0.358303405305,-0.980048295756,-0.383064667201,0.906518858369,0.943674007151,-0.0986979013341,0.463656483513,-0.253176680943,0.516021277324,0.358270394446,-0.582581399528,0.377459366543,-0.403561442406,1.03555238253,-0.340097835133,0.57236407672,0.441076041033,0.177564140131,-0.416458046929,0.470754579799,0.42630705341,0.903605990898,0.404925777685,-0.786218847231,0.0470736337063,0.288595143323,-0.881158341035,-0.194381520475,0.488305359282,0.241154556189,-0.0619957926104,-0.953192257695,0.320737109995,0.870071256293,-0.532096794716,-0.280292408223,-0.672665230993,0.608717584861,-0.43787906809,-0.362251312342,0.69563109307,-0.528539127604,-0.211036141105,0.71192525232,0.912294935107,-0.621561972867,0.509682414635,0.0831494579888,0.588062092669,0.460228511377,0.548990234672,0.674421603193,0.547885848758,-0.484577013981,-0.588231249912,-0.111788856987,0.72718238233,-0.579122141171,0.060424678302,0.515383816769,-0.488800392369,-0.511397086878,-0.510213216584,0.166592828322,0.404267548652,1.05134774518,0.739861893301,0.611906431826,-0.795881440886,-0.0837710248983,0.595377091634,0.373132692259,-0.157972501201,0.301820626299,0.583008734996,0.132248823977,0.420264067094,-0.806572486855,-0.0691537373881,-0.582492554817,0.0753518829862,0.176477758027,0.571142477199,-0.0903239536517,-0.0582096436679,0.636580116091,-0.679454336161,0.263577236297,-0.35591181077,0.0857493819823,0.0535479227903,0.184463090007,0.863525092756,-0.188093983362,-0.758340502504,0.477605724763,-0.959899515499,-0.846772640771,-0.52930609761,0.143846273689,0.724770448733,0.550210327935,0.575115045279,0.893006668147,0.388393882174,0.646897725571,0.529590112219,0.167484584544,-0.881443916404,0.531754612755,-0.531517820983,-0.561669616165,-0.831428763144,-0.0886705167395,-0.0996075631573,0.287267934737,0.829310365992,0.0494363318878,0.0102541663624,0.35173714477,0.133972900221,1.02482972576,0.358965732142,0.617937380637,0.35044450183,0.0596974133841,-0.47872489938,-0.696254079461,0.678705385994,0.28994704821,0.556399492001,0.418087659898,-0.555432450238,-0.415735137583,0.0391741552901,0.517004523067,-0.969320331645,-0.532876203114,0.711422456518,-0.00885198256206,0.746470916041,0.644725433366,-0.0588389204346,-0.00304609765811,0.272887449335,-0.662439508423,0.19647758593,0.228498845772,0.409408410518,0.503329736187,-0.749076098939,-0.360149289707,0.397690719956,-0.249147634746,0.800787587715,-0.686232257958,0.693350981902,-0.664740796703,0.264387418258,0.304813397161,-0.213020214634,0.970922207456,-0.339864312793,0.147824637656,-0.591360873531,0.188551451198,0.038202646323,0.524791718929,-0.571674973452,-0.3776409193,0.726696482917,0.840452533943,-0.15497643458,-0.31631421919,-0.240724469847,-0.781387136552,0.842520977973,-0.000216680121931,-1.10667162092,-0.992788395609,-0.152180750355,-0.60490848652,-0.411299354941,-0.548981589875,-0.141405918913,0.909266016186,0.405292931101,0.0870997521862,-0.703340880519,-1.01539416172,-0.328293508658,-0.716493190513,-0.842922863408,-0.79972196275,0.11956497158,-0.912040198376,-0.101332606081,0.7823719761,0.498159987041,-0.906462766172,0.413497415211,-0.123609048304,0.69355789724,0.585672407522,-0.130178951431,-0.596139103471,-0.509572123031,-0.656638036003,-0.684576771195,-0.800858984358,0.171783952524,0.411588913819,-1.09434636746,0.578625643628,0.258769508223,-0.286582633768,0.0451908371001,-0.823370872781,-0.315071574753,0.870260513421,0.996027909184,-0.982908582596,-0.0438046865784,0.0227413976196,0.39035501651,-0.704275519148,0.0785947028196,0.146898254659,-0.87595838816,-0.582563563523,-0.713385397567,-0.658741341804,-0.497123006114,-0.307551510358,0.924275517107,0.228109998478,-0.556377759825,0.936751305776,-0.180810999098,-0.130766542108,-0.353191290979,0.369374484213,-0.803372983233,-0.38511377852,-0.676363781554,-0.449069201119,0.134114524877,-0.357252907624,-0.846688207336,-0.00627988545437,0.474086347943,0.0451683878853,0.795759181623,0.166206056097,1.01939746583,0.415335108784,0.431574460226,-0.850108029383,-1.09803004167,-0.869470393858,0.433393258262,-0.943275850291,-0.920905033302,0.882112827638,0.456506985264,-0.743856812848,0.253972672262,0.519186910169,-0.686439172164,-0.0305043613077,-0.860515793551,-0.0286773102463,0.464517010445,0.174989970435,0.392997173591,1.04770067556,0.276549685134,0.342259024825,0.953217337012,0.772119770807,0.916536966899,-0.151042989381,0.0420742089054,-0.5789911618,0.155808326061,0.282305837056,-0.936892863801,0.427278608982,0.646921955842,0.781508430805,0.107983410871,0.443665220571,-0.087256941766,0.400505484791,0.411036051544,-0.227050672277,0.822737341869,0.774066296577,0.820866690695,0.94286078398,-0.384899541938,-0.0958941522515,0.19408794354,0.332178505357,0.629209005354,-0.0896544828366,-0.403998271408,-0.700819766569,0.0635231307657,-1.02097456529,1.04706581847,-0.393784579151,1.06308286363,0.251158568336,-0.760980004773,0.294871563688,0.517624398625,1.16183657235,-0.130122853016,0.429860837323,0.366996967348,-0.874841029894,-0.282837162913,-0.507226828225,0.185377855086,0.298423237855,0.773256711496,-0.730206052488,-0.557751909379,0.417786837163,0.257022892327,-0.708662554881,0.262853144309,-1.01951222556,0.946623373763,0.629794424837,1.242248898,0.598967206993,-0.549153443154,-0.509289590348,-0.663299853824,0.634232315892,0.386987558058,-1.0823246692,0.197385082892,0.659785482005,0.299118260076,-0.271328896512,-0.504243648129,-0.841465281009,0.4373146677,0.352051246667,0.496176876995,0.292313883153,-0.895130454011,0.0149741013718,1.12358490566,0.301952018719,0.758558573658,0.428252107888,-0.0338541683048,0.15506802385,0.648569547316,-0.745024319684,-0.48051022022,0.457221285996,-0.0974933430142,-0.0525101508133,-0.442329579412,1.03387398991,0.500537103603,-0.175965853868,0.153090330724,-0.27206746874,-0.739079631071,-0.848220509239,0.0284871145287,1.03575681639,0.319808054803,0.65289831637,0.393060391301,0.599198524906,-0.468863961139,0.423494105111,-0.378015434528,0.5491573912,-0.885269410858,-0.732198117334,0.0858961669855,0.26323723169,0.638575997548,-0.18771177936,0.87981119969,-0.668286954943,-0.263048933311,-0.583401730124,-0.654902305208,-0.794847040107,0.0137448748498,0.191663806219,0.038386096167,0.517513414553,0.466672557642,-0.140503405828,0.46761890759,0.0151072618344,-0.524349906107,0.921972696029,1.13502075885,0.879429327859,0.553252636994,0.337894417982,-0.869081168559,-0.52102826896,0.83925240619,0.543743390574,0.0172541304368,-0.126364302834,1.04941594197,0.424867180768,0.450314486214,-0.529765012805,0.535702181797,-0.465324857758,0.730868179203,0.716581751225,0.271007320222,-0.0791472591224,-0.0758766998432,0.415709272265,-0.858180254049,0.368981438613,-0.208787008175,0.3871198451,-0.818951819402,-0.86538225592,0.616240425559,0.264274929198,-1.91380183583,0.934230851338,1.0683995649,0.286770328664,0.10179883089,0.149853473046,0.0542293164345,-0.956329237321,1.03410005032,-0.152713872366,0.749852499567
0.856039257898,-0.23091565983,0.110217509489,0.55138141258,0.653987337449,-0.0618110120927,-0.525827290048,0.27212107717,0.0423345065947,-0.123908848968,0.312293972799,0.835701004171,-0.135141842773,0.431952603717,-0.13953611661,-0.575712123463,0.193239173724,-0.616092671192,-0.344762822355,0.24550876836,-0.140088372778,-0.589014583853,0.69893136103,-0.0475481556962,-0.80702242163,-0.352242071833,-0.548310159689,0.506506069535,0.313553359583,-0.970338980415,0.682628660009,0.661670095064,0.542809864379,-0.991163702258,-0.64527642091,-0.576165292923,-0.610421206351,-0.750314063029,-0.851174318598,-0.402134945242,0.549258283867,0.306869368664,0.974856337856,-0.986011526579,-0.677403272712,0.528641737089,-0.287615614438,0.100649933908,-0.295659325645,-0.848984240847,-1.00184352888,0.332709384232,0.139097892197,-0.838538607814,0.645146161955,0.218484015339,-0.556211038735,-0.161633739658,0.703955599843,-0.730559652061,-0.895874403224,0.976600337862,0.0221715836791,-0.645251769162,0.841948611465,0.824748480703,-0.145885485735,-0.308863296201,0.970756484668,-0.926328304034,0.540121741609,-0.645845622,-0.393657433629,-0.130048773823,-0.0425507310964,0.853365646134,-0.420485334771,0.345490720514,-0.0286332595567,-0.970100598263,0.77669404394,-0.0472544012748,-0.379623694756,0.150481513508,-0.546722646658,-0.328837011668,0.808891980756,0.84374375805,-1.01422245063,-0.793261239185,-0.369127990985,0.271804746604,-0.142779589607,0.629645053338,0.320205697884,-0.602741263865,-0.0439010877497,0.369608561152,-0.414538428804,0.832548758688,-1.00058226985,0.245942516233,-0.828957853377,-0.0983049480577,-0.715234498546,0.214886585129,-0.368785794563,0.920153108399,-0.328643383018,0.735600452598,0.350108882511,-0.980421594915,-0.234242387224,0.490390300699,-0.958339673276,0.905204450237,-0.460737725012,0.0344365784072,-0.543828810416,-0.971928192601,-0.564243848903,0.501158155056,0.247639545346,0.249571727576,-0.928560117296,-0.0130624672896,0.0320278046736,0.788107191662,0.73738353973,0.65558258216,-0.0330963390824,-0.154788002249,0.821965632822,0.771954684854,0.572809320907,-0.689355608426,0.162863072776,0.908986579943,0.51226561543,-0.279950590261,0.506902958247,-0.974885687155,-0.386967128172,0.0516166261556,0.753532205741,-0.909272069194,0.345428408224,-0.631178500837,-0.628213474967,0.736233397983,-0.487040967996,0.660633156197,0.751775868849,-0.202115751734,0.702617597304,-0.164253577095,0.454263120738,-0.894988640127,-0.468625064642,-0.601330060008,-0.0842819668323,0.368914131699,-0.569017003216,-0.437939679196,0.125354403028,-0.0690953956723,-0.977185614565,-0.406942679288,-0.945922929805,0.293808986765,0.769379542504,-0.123410017938,0.481099837201,0.56879635409,-0.341534965211,-0.737730344795,0.480810034266,-0.146754400923,0.937178408694,-0.913453919688,0.00552672440861,-0.938146223296,0.0408450336781,0.728625654229,0.642608530007,0.542618153029,0.0470998028425,-0.12895607499,-0.545652724377,0.67157681813,-0.185386906993,-0.384416276043,-0.896602236584,0.129732414666,-0.190217321775,0.568766007296,-0.356594469212,0.189505338542,0.246835280703,0.560018038429,-0.527535547499,-0.839921024865,-0.0733455514836,0.325742014109,-0.997894021926,-0.0277570707485,0.46066364058,-0.126903539207,-0.670998109101,-0.868220237223,0.267269174697,-0.461587350874,0.119862958222,0.760445322712,-0.956884201491,-0.97748354072,0.0905940290154,-0.444306803607,-0.985780554225,-0.36187319033,-0.501098478675,0.258343192194,0.330763432935,0.747419983266,0.824023319369,0.126240130027,0.262012931055,-0.206423202722,0.0872763986664,0.139544701514,-0.0136605733687,-0.475717943464,-0.686383291631,0.780851997509,-0.615858494861,-0.365582642479,-0.244925321284,-0.641342861126,0.774458581714,0.0555627633583,0.290433198343,-0.70633619717,0.017909743951,0.180598437849,-0.0847456870275,0.8238065206,-0.841817755605,0.219388559641,-0.27676153555,0.802855535649,0.442429747243,0.0894156543423,-0.159896350542,-0.686222081238,-0.708412923677,0.627100027864,0.315758893924,-0.684781011251,0.855487295064,-0.92064644615,0.151495647136,-0.601888899374,0.428281731452,0.82720357717,0.497440804063,-0.341229442137,-0.415751149796,0.524952318494,-0.917584767389,0.223993667477,-0.605005067442,-0.988332618587,-0.152780974428,0.259453551485,0.606637977956,-0.345039347022,-0.348950403084,-0.62139865797,0.794340345825,-0.680316113953,0.449651168568,-0.0916047239764,0.710823022754,0.398010960392,0.594093079346,0.118251153474,-0.4403646761,-0.308080341455,0.604255845772,-0.328495945957,0.520479610454,0.90776147547,0.926035136706,0.00165364456352,0.763004127607,-0.0771489551279,0.293266255481,-0.839629639383,0.526541832366,0.454736040082,0.971306314714,0.962264001561,-0.758471308114,-0.121636212334,0.288153201638,0.639701991601,0.541446337723,0.0986183589135,0.0787697928287,-0.157344906015,-0.110515956071,-0.0330850422546,-0.511437797482,-0.705690028824,0.766062463011,-0.0202669595277,-0.0899315275978,0.949566877339,0.705890795797,-0.313928744754,0.1747237192,-0.563817086333,0.0145619287553,0.225091946354,-0.676192552516,-0.877087687103,-0.31930041183,-0.692977472949,-0.183535085753,0.75605202828,0.142534954313,-0.779947262076,-0.909579281002,0.104713815259,-0.744019983823,0.199394328645,-0.413400259309,0.04095876097,-0.0537126172536,-0.245813199069,0.225241298121,0.126945025067,-0.897415654302,-0.425637952237,0.237715807336,0.680204839687,-0.349917698233,-0.217340687942,0.861991325433,0.751870450472,0.51116529602,-0.00472130498369,-0.0850357072201,0.876739908308,0.211422393496,0.721254496354,0.222435181149,0.126410600271,0.235650714913,-0.585263824602,0.297424830722,-0.199599665259,-0.297578499302,-0.00914097794152,-0.0187317981701,-0.396784855464,-0.588222589695,0.0525858569072,0.927616231343,0.135831710668,0.891048574905,0.818733508403,-0.150351032593,-0.445078994564,-0.127116333866,0.921527171066,-0.340434954371,0.373178177316,0.0564675011002,-0.10125071878,-0.793598219059,-0.306141304413,-0.759655379876,0.766186299177,-0.196004063446,0.194179639105,-0.799024533716,0.799038014171,0.0341748710607,0.817280381452,-0.954515020552,-0.727470998189,0.0577025298415,-0.851105572034,-0.946313122386,0.390655093365,0.265116879927,-0.407803543403,-0.060933528649,-0.548632354124,0.207664882356,0.541260609458,0.454123330114,0.602973512538,0.587065537325,0.436392448895,-0.438477432192,-0.266099569996,-0.0460268059325,0.090195901598,0.575334970601,0.740025745224,0.777575642505,-0.514189268835,0.359297376068,-1.00756801085,-0.72627057487,0.897283724252,-0.7168610688,-0.408807265108,-0.55290978354,-0.354894142104,-0.919086405299,-0.755398295818,-0.745998710501,-0.638629913055,-0.152689617564,0.861231877054,0.612719501205,-0.798116069089,0.729747408205,0.339085616872,-0.409014295254,-0.375813632512,0.885056481441,0.446663512521,0.760807843576,0.472480751764,-0.628934114633,-0.217900153613,0.274425283016,-1.03298456958,-0.241309215487,-0.250930678897,-0.156485050492,-0.581913050969,0.946545357823,0.972394577415,0.651126579195,-0.467280574058,0.691175531158,0.620395848349,-0.179365964908,0.89846087272,-0.43549134736,0.708512751627,0.357683286988,0.377639415806,0.276568986094,0.859734332658,-0.979829549652,-0.840490929668,-0.374710837515,0.475655557419,-0.688314361035,-0.757497437649,0.217854952097,-0.485226566352,0.67808119355,0.383650658429,0.416488737422,0.188597887998,0.365703918213,0.978509998028,0.688450245313,-0.12105217577,-0.105250985451,0.69413275573,-0.905553464862,0.213856353108,-0.170504561775,0.603178286345,-0.700170561441,-0.0244692545334,0.401905165857,-0.248501923589,-0.569650377376,-0.927313396987,0.336481675623,-0.403528458995,0.598397234498,-0.586871560109,-0.786038119664,0.504142237352,-0.60130298124,-0.435580574197,0.202394056893,-0.897639060923,-0.382723228124,-0.00801412427294,-0.705121530144,-0.981672865268,0.193395129794,-0.0869920218185,0.0455326597885,0.331594296639,0.273845399745,0.439402639527,0.146167895551,-0.883548292547,0.834919099346,-0.255087377974,-0.522023614148,0.672785438157,0.888605638553,0.268327773091,-0.17293762491,-0.555361766752,0.147699579164,0.0111661862895,0.830605670835,0.416904609497,0.0261684611304,-0.477048722992,0.426195331615,0.226045438507,0.738402264656,0.351604218102,-0.0424674005688,0.522772656153,-0.826234986881,0.612124096798,0.367682137069,-0.534128704393,-0.595335597182,0.826464594214,0.143313787218,0.441033401701,0.064050191289,-0.793195994632,0.130067182904,-0.47036051856,0.899325676129,-0.930768538451,0.0816434435322,0.495732829243,-0.719585640679,-0.86380482979,-0.155256198284,-0.964714264402,0.14744180079,-0.144666573138,0.0284441828509,0.435116289098,-0.849402912415,-0.589105462965,0.0478573108231,0.591776163799,-0.133866489799,0.148094737025,-0.138455882843,0.286350780167,0.658899169799,0.534112204531,0.973317617063,-0.10138906649,0.877043574988,-0.890385215623,0.480967418056,0.193165164096,-0.35857067364,-0.67074280002,-0.430883985463,-0.0154086365369,0.124593090018,-0.367928401366,0.21812442831,-0.173059334376,-0.608732150454,0.833261094408,-0.655751742766,-0.883104886446,0.252646699842,-0.0398878908574,0.710270829048,0.285071299516,0.944141767665,0.940447881876,-0.619463536425,-0.338962729403,-0.184326883134,-0.87061913006,-1.01469520941,0.516570001943,-0.00327149886628,0.100913235002,-0.195757817315,0.605671115797,0.280318577079,-0.682372220262,-1.04468388297,-0.247989052135,-0.860058875456,0.416586028616,0.0731745188336,0.0455668259064,-0.253773886384,-0.299351879161,-0.768541323427,0.0199737036675,-0.349043597744,-0.396250129594,0.547093217815,-0.011453158429,0.263101016746,0.074928842324,0.46972791274,0.0111425123564,0.616650287524,-0.287057233943,-0.184791818351,-0.216286684215,-0.515897873872,0.407055786308,-0.362038107784,0.236919629903,-0.959178968368,-0.0052546371767,0.0634993740628,0.516844565878,-0.71187026812,-0.334499973494,-0.0687413973629,0.359113215196,-0.436737793342,-0.834108826573,-0.414095353067,0.654670508986,-0.162374972918,0.425911464103,0.948295931827,-0.875717924598,-0.990992015935,0.347350792671,-0.569429078908,0.163126568617,0.810822856946,0.491608055487,0.893680920927,-0.518185157674,-0.015472523087,-0.439486092843,-0.931347491118,0.192254441032,-0.00855419581575,0.0440716795844,0.395156311601,-0.0497506481169,-0.914300833219,-0.070616302034,-0.168394343243,0.337069063604,-0.620753170726,-0.0536211666875,-0.26496351009,0.631303991462,-0.014865249914,0.0655245438314,-0.378237417925,-0.744542381627,0.563226708847,-0.280216547499,0.222384036994,0.0882245901698,-0.436828615352,0.866390509937,-0.106906109791,0.711397557591,0.622917546895,-0.919007622207,-0.421477203825,-0.603541743741,-0.0455216395368,0.384927208881,-0.790098318084,-0.687434225729,-0.716517373723,0.387917214048,-0.718250958739,-0.669880109597,0.760285247856,0.661881962354,0.691940386113,0.0755447881399,0.0689061388129,0.427673099525,-0.451541430023,-0.0842334939855,0.218358926777,-0.858926038477,0.224689452662,0.521807167433,0.547742567758,-0.373384158839,0.681035101917,0.0958478456592,0.295508695288,-0.88756244354,0.0992662637404,-0.697046776649,-0.882158746483,0.344960610599,0.626592716037,-0.522050953557,-0.0512618063356,-0.691174726801,0.195791573894,-0.993615141553,0.133560273454,-1.01395127936,0.194627599635,-0.0708980400631,-0.835553518395,0.0296804871628,-0.744521447888,-0.364391673504,-0.0969429692265,0.133853712766,0.729049112749,0.196067197984,-0.949556664258,-0.0940378568231,-0.379414314812,-0.598166724014,-0.0613240956098,-0.550169488141,0.785116274665,-0.633937288278,0.877498979095,-0.706046928902,-0.298522199193,0.588872814152,0.290281031556,-0.218353670874,0.0371509729371,-0.877743071999,-0.820872292026,0.908518527104,0.440353798184,0.304473404607,0.815921021318,-0.307032216534,0.0344894953925,-0.623203638732,-0.0582364109721,-0.650001820481,-0.465822581249,-0.801551925205,0.216126494095,0.522883084996,0.505841603118,-0.816294556313,-0.833308759597,0.271944082906,0.553953014524,-0.772625476839,0.243885738393,0.770648634139,0.0667890706544,0.150528098944,-0.0376195749042,0.137127924749,-0.0726404460847,0.3655812992,-0.211355568168,-1.01818669807,0.193863695758,-0.287129000775,0.484117098755,-1.00038890567,-0.767136814559,0.728129602067,0.212858629421,-0.823778397973,-0.0851645742795,-0.331093847373,0.20801841051,0.321088662329,0.735873317633,-0.191754636006,-0.948514967944,-0.929824420538,-0.461485284922,-0.809130148419,-0.438439571249,-0.0735297538795,-0.0346054792119,-0.741236070324,-0.37741676642,0.0479743657977,-0.119745421357,-0.0960488913576,0.210265463777,-0.324806697663,0.10991322476,-0.531072125261,-0.0587529834799,0.983776823105,0.960750114668,0.396527347547,0.841576642487,0.334537987109,-0.985666898772,-0.960174577403,0.117990024301,0.213674613324,-0.409814390621,0.42543808264,0.216495309561,-0.486581433334,-0.172915436103,-0.426209431521,0.448510818798
-0.298332282084,0.857733214841,-0.557013235222,0.429786282431,-0.479665087499,0.672007830224,-0.949173005875,-0.0719793210951,0.38691122384,-0.61747262729,-0.318752007208,-0.888527436651,0.215595779183,-0.630766536144,0.471918146189,-0.718239334695,-0.19846215642,0.58457374286,-0.388682830748,-0.0132870510275,0.220380434245,-0.863449464852,0.2939598601,-0.517584454782,0.00728149777724,0.250958472613,-0.844548870541,-1.00829520738,0.549189106687,0.43859321195,1.08856370383,0.0614703930135,0.552543791435,0.941013932572,0.920430107814,0.484677073777,-0.383894996747,-0.899129430826,0.786463486533,-0.112686700545,-0.0387465884077,-0.899862792283,0.0628509629201,0.98765465377,-0.697214477651,-0.241499322426,0.0415603357991,0.160437579289,-0.261490815053,-0.531895977344,0.458099908483,-0.108966901602,-0.349804799996,-1.16192574001,-0.0111282905033,1.15609415681,0.0173759107606,0.159817145016,-0.733901948175,-0.309360582623,-0.933783482631,0.22826131239,-0.0375530617123,0.0420458171874,-0.408126532898,0.154313953518,-0.514766083134,-0.241398849661,0.251617789227,-0.471638661802,-0.580216624462,-0.574310296033,0.565517493508,0.743664753618,-0.219185449771,-0.648810244798,0.887998731923,0.941186788252,0.412626333503,0.193236031083,-0.316494818581,-0.538120781874,0.234981517409,-0.463051290211,0.335785118079,0.774074424181,-0.208640915626,-0.624935559231,-0.129690977978,0.562061066946,-1.01967631458,-0.603553639043,0.268222282193,-0.162464162788,0.715766818244,0.274079392343,0.697346337404,0.273734489713,-0.908142449836,0.411212005717,0.683331305827,-0.653698760017,-0.447926557171,1.11083673462,0.586480115514,-0.106638967961,-0.105310012398,0.053396960723,-0.941538016591,-0.801340956146,0.72246498441,-0.33386502638,0.586369882833,-0.584763991878,1.14448682745,-0.814865842853,0.383750635504,-0.0106125669482,0.0515444218362,0.484326393947,0.808709339177,1.15920779944,-0.264055421983,0.384259089119,-0.175989423993,0.448004016554,-0.77122407626,0.396248384695,0.555358405283,-0.684188874431,-0.259273168425,-1.17418485997,0.605142131768,-0.615032794002,0.184425062179,-0.0331867100896,-0.365523310053,0.222575733351,0.200450326754,0.712237978183,-0.396856956306,0.0646810035273,-0.278705417655,-0.127976383708,0.179764937901,-0.573638533565,-0.868646829126,-0.222712769861,1.04056881125,0.558464126232,-0.573447849958,0.721970702207,0.681556618263,1.03945193633,-0.181450703195,-0.235359261587,0.0275210302577,-0.245967621474,0.919145960574,0.377112571197,0.718024670566,0.169947978759,-0.625332797721,0.681542885404,-0.732620157344,0.790030167943,-0.443945190552,0.567066420692,-0.696967592073,-0.239579760114,-0.0466048834946,0.666565798395,-0.110978518678,0.414421604581,-0.422261422383,-1.03342513028,0.316471135407,0.174586099558,0.441483465039,-0.224195925371,-0.121094620405,0.00611851081894,0.415034909183,0.0804112795449,-0.337622392911,-0.984572678314,-0.656306760497,0.0626039180836,-0.819375799841,-0.659486668198,-0.19613254654,-0.230967357483,-0.608559357572,-0.838687756548,-0.106834132467,0.418958642294,-0.63103703991,0.550457260289,0.373700813346,0.57331286518,-0.0675887789663,0.409509278418,0.519087271099,0.0984801009704,0.597798332582,-0.515572512482,-0.649745892305,1.00930886559,0.625243791071,-0.662648580869,1.06442935271,-0.117152064103,-0.925047268293,0.951052457356,0.720304928988,-0.584568197814,-0.882858038013,-0.509158697426,0.0172104931878,0.551602566229,0.220647419484,0.497140540519,0.338015779053,0.52210162832,-0.25253641179,-0.0298144339831,-0.635186625667,0.405384601917,0.41369986867,0.0532555001847,0.0219021272206,-0.0203037159236,0.0626861664175,0.217566011087,-0.0982688835572,-0.873574592169,1.21121816118,0.678728941636,-0.143873656279,0.757126386314,-0.324815318768,0.351760076378,-1.2565232153,0.780132955639,-0.0319181664968,-0.401515258859,0.812962683756,0.839628431575,0.761866472749,0.550117056787,0.765837109189,0.342327875457,0.334758823002,-0.367948364885,0.624085990841,0.550997660109,0.686648585174,-0.507854233474,-0.0218629314572,0.00248476361119,-0.108508507862,0.0835454151149,0.80259574253,0.482959164619,0.727300185057,-0.172296204253,-0.451864497763,0.794537288449,0.773831076659,0.833270996011,0.579645189521,0.0410080484295,-0.0518297857226,-0.328288428886,0.521159238625,-0.53649374041,-0.0129341783566,-0.402369779534,-0.765446749347,-0.764954136907,0.458349136096,-0.555520509357,0.310591887458,0.734864267156,-0.821997706736,-0.427047250791,0.296139806001,0.700252126457,0.556450840958,-0.445856801417,-0.369461642114,-0.608554035014,-0.412845188125,-0.00605815032914,0.151091343193,-0.570183920386,-1.09879614872,0.490795819802,0.580522067983,-0.0525718731396,-1.18784330901,-0.318759513314,0.190587310807,-0.35020732052,0.31915253433,0.139902721766,0.851532612532,0.550846523122,-0.0705899415243,-0.464668938082,0.282529273638,-1.0612690474,-0.0067502067747,0.350876304841,0.0503538651857,-0.43039989873,-0.0255543126353,-0.508116771961,0.775287902145,0.641090507296,0.452691023284,0.534374097428,0.747664247623,-0.506284340287,0.541760540554,-0.577848518276,0.214073167755,0.472880946049,-0.782091529742,-0.153430560546,-0.0385975652908,-0.142911734815,-0.447542518064,-0.342379149445,0.668271474685,0.151592440642,-0.343602662796,0.31712505115,0.75378435563,-0.159512773265,-0.177719628112,-0.444928088906,0.00796838075757,-1.06858434044,-0.422988001463,0.91455464301,-1.0183208155,0.981553120769,0.435770594952,1.04857275039,0.772557901923,0.354395483576,-1.03684288884,0.880725681778,-0.710907085272,1.12408262455,-0.523984468008,0.626220324142,-0.409825327083,0.342246726621,0.92337300307,0.849046210824,-0.667214062199,0.288317983987,-0.334437655111,-0.00566237712121,-0.948657113301,0.339781909855,0.598107829654,-0.304294164504,0.556414774274,1.106893021,0.100339291595,-0.623106102217,0.192645399194,-1.09939837485,0.100391520913,0.507714641624,0.260505397426,-0.510716418048,-0.41511561306,-0.384162798476,0.621089158448,-0.086453657977,0.910950450918,-0.29846335749,0.476497666462,-0.949153876655,0.542807604444,-0.556668023692,0.577805861802,0.212039342993,-0.632331876069,0.309034583222,0.824777155261,-0.456978022179,-0.830312750488,-0.326747997587,-0.584769482537,0.679608529518,0.893685988383,-0.809717855979,-0.0329162965181,-0.331909193893,-0.979317306973,-0.938053867121,-0.368974369545,-0.0953038845911,0.637814692089,0.756053772715,0.163140108904,0.850039749077,0.906998093145,0.481935753841,0.940395187018,0.601824157372,-1.01097280345,-0.499148101389,0.0629164495563,0.501239336999,0.615177280261,0.714215365351,-0.581124734307,0.972941165274,0.721028932123,-0.563530250496,-0.750890269775,0.867496398972,0.770347271377,-0.887994273588,-0.405334382657,-0.705802287824,-0.443894238992,0.431120190626,0.561282785536,0.925536359622,-0.166945563056,0.551597361084,0.633626992616,0.382317215621,-0.864299430327,-0.201697773168,-0.359133197802,-0.066965491122,-0.231914697356,-0.447085278016,-0.124992865734,-0.118679729756,-0.0679800189406,-1.02651522293,0.403857253695,-0.395243392064,1.18756213154,-0.857752651477,0.417358549711,0.70063558722,-0.93898996472,-1.10790925404,0.616839711882,0.239118072984,-0.230632509214,-0.473655677739,0.28064043899,-0.464817124522,-0.618898121765,-0.0735744623141,0.089285956684,-0.787385403697,0.839105140788,0.0928924126874,-0.353750148284,-0.387860805551,-0.770565789351,0.879745607134,-0.327636294494,-1.06638171215,-0.343164382538,-0.261185040804,0.676883900797,-0.0293263726825,0.122521031108,-0.624619695686,-0.86823209927,-0.20569155835,-0.511381911667,0.316113188826,0.664449826104,-0.027236507438,0.166386959612,-0.380871238337,0.394128080277,0.43372572845,-0.497377950728,0.912432584166,0.00550441172189,-0.319333484478,-0.713167979227,-0.122855508376,-0.354932302225,-0.0410829401174,0.90826120691,-0.495055902372,-0.664110905337,-0.938977396327,0.0835706992729,-0.0833245861149,0.0728920380356,-0.773583726723,-0.311571536486,-0.65066251476,-0.243315441741,0.804798337482,0.840703930873,-0.821758798088,0.449885089925,-0.453508363207,1.11132011296,0.932332061561,-0.205873711234,-0.226974845543,0.587829064601,0.805819649455,0.933773779388,0.41278304835,-0.342062435409,0.00934526646737,-0.0575058583722,0.517977666781,0.777232268055,-0.235545974006,-0.0351093568896,0.924602217863,0.826442843295,-0.877373119345,0.793691549306,-0.789630846855,-0.480386803453,0.595536182229,-0.527584426229,-0.562915044642,0.219517132258,-0.975603279768,0.488990866338,0.561111865907,0.0270385499189,0.11758292569,-0.798748113094,-0.0404795950598,0.0277109655097,-0.843282906876,0.508785630183,0.391150143275,-0.588521920571,-0.0353196060896,-0.0593550569483,1.04401691684,0.929430037545,-0.0289917248052,-0.873111410769,0.0018148216539,0.954286668573,-0.230919741055,0.470682933493,0.46225912615,0.0701341561323,0.0358616934422,0.702860668928,0.32032645745,-0.325619768352,0.202156153053,-0.251164291605,0.850051433827,0.47726370933,-0.292225322563,0.496461957174,0.510145734401,-0.520052508761,-1.02162045486,0.326864633536,-0.340046233603,-0.737691810044,0.775836701334,0.926145151937,-0.648675107903,-0.362018875055,0.884047123247,-0.125202674512,-0.628729246793,0.170730197986,-0.897688198665,0.223395346658,0.323483135894,-0.0620454904753,-0.703099515992,-0.752387879422,-0.999673760947,0.144321098423,1.213459802,-0.0847146716257,-0.273760370784,-0.822795801504,0.730068382751,-0.0212849737105,0.323708158881,-0.693978872742,1.12246952672,-0.79123488436,0.752036948839,-0.536094173838,0.957939757723,-0.0536130648053,0.0267375643003,0.112682111427,-0.794196885338,1.10293510926,0.488410734288,-0.846416775132,-0.736690126663,0.434276171542,-1.00326122708,-0.484041151514,-0.340312467832,0.517977148567,-0.36044473626,0.788837943252,-1.00226655205,0.401838419448,-0.566634059878,0.602838837842,0.531977916683,-0.0503317313037,0.282518897411,-0.111657737182,0.485976114363,0.726710522463,-0.191562364685,-0.0929321698519,-0.0318542852718,-0.890059848655,-0.431704949557,0.0186729767974,-0.801788487403,0.0245033890624,0.983290101514,-0.887276845873,-0.98099108549,-0.0919482278096,0.688927211453,0.549527378725,0.533870608622,0.644804085819,0.615271826942,-0.919155166345,0.673397153543,0.0765520437045,-0.406218780386,-0.503386220962,-0.494099996914,0.513453634212,0.4200830718,0.314467819601,-0.701343695616,-0.462358845117,0.323178475647,0.953731198896,0.647694224666,0.525491359542,0.970320937498,-0.0968017545188,-0.417443238109,0.673148418828,0.620791394231,0.364570743143,-0.0650578001315,-0.720614283527,0.808534996828,-0.00170603162296,0.651116848532,0.877390565892,0.114099502252,-0.109545061006,-0.457579175394,0.192384763067,0.807404814799,-0.286073877445,0.688377357586,0.461430012734,-0.857981559536,0.0843275047499,0.410531268297,0.327133431053,0.833788272161,-0.539906440757,0.744709640407,-1.03382678334,0.240524314422,1.01581209455,0.691762219147,-0.363638928173,0.218380427335,0.514324641855,0.639266344906,-0.869948375101,-0.39729556549,1.21127070228,0.284674972191,0.741642927275,-0.83558310915,-0.0648633235057,0.287201597762,-0.27122122643,-0.91573752308,1.00629970971,0.476105439814,-0.740666184476,1.17941531527,-0.230062425055,-0.483937548284,-0.255173726572,-0.6506064952,0.655091078049,-0.684454245329,-0.796024282395,0.738498623909,-0.98753116507,0.713617472342,-0.239243891073,-0.183081154428,-0.0209420196672,0.169576181109,0.177140354006,0.137966244398,-0.673509419367,-0.391489804692,-0.341857837256,1.06214370658,0.921643143463,0.545338548026,1.0477122215,0.943862751502,0.877654343625,0.110358925886,0.634731413392,-0.292373652662,-0.413860607854,-0.455982464241,-0.901170161231,-0.505726902886,0.670286219506,-0.827013377577,-0.357730106556,-0.275464081833,0.514829790548,0.213281292155,-0.925884347029,0.897304714287,-0.883389263098,-0.208076392853,-0.463805229962,0.888501386025,-0.125350133511,-0.281623774217,-0.0539970798591,-0.588569442947,-0.63564476563,0.917697645706,-0.918805969443,-0.889660397042,-0.652861473026,0.159309489341,0.271023802974,0.116108135451,0.173988153437,-0.907076851078,0.688945098213,-0.0459366285117,0.079596699296,0.699915104345,-0.873613603671,0.304599294436,0.235011989934,0.720470526301,0.492497291703,-0.312059753058,0.366367502406,0.530307572836,-0.445507271134,-0.369073255509,0.0491784587936,-1.04970722456,0.367255389161,-0.524303811756,-0.165812181747,-0.701435294631,-0.590379447877,0.203449346398,-0.752654654255,-0.643782752629,0.852750708549,-0.751449839732,0.20697907184,0.213375493657,0.174027660657,0.165369042436,-0.518250489666,-0.516496438253,-0.391611575975,0.394928799631,-0.422041993798,-0.368319033618,0.876470962427,0.126044229365,0.56914394666,-0.440565463854,-0.620329717892,0.264177120145,0.371923214087,0.251926963152,1.99903911753,-0.573297288857,-0.602172452814,-0.603994201745,-0.444137621848
-0.0342990191825,0.892991873177,-0.392524145418,0.303069678826,0.891375425082,0.790770279736,-0.539187215415,-0.436503347217,0.849436369958,-0.486574593524,-0.99768984873,-0.311527390818,0.632400419266,-0.10028418118,-0.740313695089,0.493953543325,-0.905358885947,-0.71937949596,-0.387458444817,0.888840361266,-0.959142960164,-0.0281669484582,0.769737980309,0.969985619272,0.363751135714,-0.245868209583,0.490469352067,-0.0754916530635,-0.803322132774,0.437775394151,0.377262343311,1.000464813,0.208729016984,-0.15711329237,-0.527808364818,0.860630974027,-1.19836958512,-0.486192478031,0.487582422178,0.420742237838,-0.15074237956,0.510797752606,0.621946281063,-1.28347896812,-0.204896676119,0.372491681732,0.310915222983,0.084462444619,-0.0683982233201,-0.0760844424555,0.220952201493,-0.389181994468,0.099930047587,0.792230565804,-0.430242237996,-0.465909079294,0.100974968755,-0.356542455895,-0.394547134073,0.22332375973,0.755989503106,-0.929161063113,-0.926754127241,-0.915407353438,0.337296318523,-0.619510528426,-0.49583258792,1.13811938368,0.100921166009,-0.163792533887,1.06986320891,-0.107535074578,-0.799372875279,0.305683515406,-0.859408223874,0.520026764255,-0.579509525523,-0.350684390326,0.0939778803909,-0.695902426929,0.0298352505884,-0.132982604367,-0.117465866124,-0.985349798906,-0.371683300455,-0.585699236162,-0.587795727534,-0.475860744402,0.645876081488,1.11609883552,0.296786172049,0.676365787558,0.485371966852,0.754549426692,0.408113474466,-0.21561273976,0.512708117544,-0.701924013567,-0.745331838906,0.823946508026,0.401213191973,0.0294962417732,0.742939452636,0.977242611291,-0.276278003881,0.910368009865,-0.0494991397362,-0.778803822678,-0.664387551748,-0.486287277889,-0.443231366831,0.474522455945,0.317490483721,0.646886298857,0.00886236792105,0.557814367821,-0.00889862766593,0.621463755356,0.285220642879,-0.897850891034,0.111431561062,-1.50384044858,-1.07459643501,0.467936828876,-0.271021608151,0.949958676939,0.720610304638,-0.0425899178579,0.455592192577,0.578105719344,0.51494881605,-0.0419109944406,-0.344525657017,-0.0981137364522,0.2037803416,-0.469706815481,-0.0174108256826,0.898207945238,0.285513157511,0.0569095585956,0.954989117289,-0.728996730056,0.196833856606,-0.921606821264,0.258843184409,-0.695531023349,0.680571013876,-0.441876183217,0.106107261144,-0.197765685938,-0.766743152209,0.294026487896,0.44605061397,-0.520453452078,-0.0982933848193,-0.718942608898,0.624872921523,0.477272439408,1.05216542243,-0.102069411283,0.70722695541,0.997765765302,-0.505565560226,-1.00635743882,0.203011550087,0.262141041272,-0.923240174542,0.79459618423,-0.130712021788,-0.397477435471,-0.0621925615494,0.451663003811,0.6198928876,-0.820840064806,0.756277840506,-0.893091762455,-0.259401854906,-0.0546850611895,-1.04881014959,0.274640334331,0.878155614077,0.435790049197,0.0755047782686,-0.0900715928659,-0.459670387487,-0.289154240059,-0.169236988395,-0.156733440028,-0.830385855546,0.237635386367,-0.732928489788,0.403428289757,0.478744859496,-0.292631893242,0.909464450533,0.695279230569,0.0892001712887,-0.775829964787,-0.611821849617,0.11606623632,0.392351394281,0.0584988607641,-0.616435416135,0.195165357418,-0.100543049958,-0.294161625145,-0.585640455486,-0.60234248029,0.036641484478,0.76520910955,-0.889004919356,0.750008426458,-0.428989757323,0.562442884505,0.460216295943,-0.639498228088,-0.351163455897,-0.660956815671,-0.537212872995,0.73230940456,0.313013466188,-0.33428826715,0.270568297141,-0.371496860361,-1.01954108105,-0.479998178804,0.106410747151,-0.515185125689,0.69892035829,0.885949451064,1.04276488648,-0.0642332111194,0.0118346547031,0.0970112812566,-0.341001079419,0.80845548589,0.873076399555,-0.218322341784,0.26725543055,-0.0618245757468,0.674053132573,0.988967563067,1.20047099852,-0.573460684455,-0.869516936605,0.234869896666,0.144757761554,0.00281734607962,-0.750636776878,0.189547250184,-0.658925794708,0.0269148955367,-1.08972429814,0.352448621062,-1.41985505726,-0.440327124296,0.684857472691,-0.492936289615,0.141228323247,-0.178535878581,-0.764491747039,-0.240082318918,0.270666386948,-0.238858852456,-0.680375453101,-0.032151395194,0.215666788752,-0.640856639562,-0.417005620472,-0.153337759561,-0.293755050554,-0.459854978282,1.02635910714,-0.050154106189,-0.93128959955,0.397626456691,0.312126179747,0.558213625174,-0.791103861336,-0.796173626717,-0.742735501875,0.096808158944,-0.459139591264,0.0937193706916,-0.0554041770513,-0.682388683951,-0.494008587035,0.540903234391,0.117752064102,-0.714708856716,-0.720822813098,0.18530242399,0.90712226682,-0.111065563144,0.795118623377,0.0124045725477,0.955713632225,-0.682180523621,-1.10947589914,-0.00599484680865,-0.543501878764,0.567291263931,0.832306862638,-1.16807213963,0.185499526495,0.28578079892,-0.569613426563,0.109626820322,-0.612896347752,0.629668914999,0.136055075389,-0.125754792096,-0.504639456029,0.936281727279,0.799575453179,-0.856823047952,0.0382805596081,-0.0280082160492,-0.20082953385,1.15927806705,-0.860681476106,0.689829412183,0.838907321035,-0.367878702247,0.920380571518,0.0684097659354,0.251058702997,0.877937228343,-0.0868897747004,0.115243001252,-0.339071046092,-0.763574469977,-0.415335456438,-0.396229062157,-0.750416060988,0.912733878394,-0.913382275639,-0.831993241336,0.258592566905,0.539043705156,0.916905158139,-0.719786001754,1.12103524567,0.144779806421,0.0321835255424,0.487758238686,-0.685405511685,0.840009854909,-0.522837095227,0.887595074948,-0.368950582119,0.436838020729,-0.351576212238,-0.698805551372,0.733354867997,-0.33361591868,0.800056925213,-0.753224419147,-0.708861210703,-0.607806747276,-0.735370230153,0.794276334137,-0.322315406103,0.804235881019,0.352754834215,-0.19897740906,-0.341411120991,-0.000331695122245,0.00381520185479,-0.864355907682,-0.703793387307,-0.0592227504833,-0.524735232538,0.411880659512,0.403139569566,0.169674589257,-0.344655480448,-0.232757700283,0.492038306208,-1.07541284974,0.213603007716,0.240205384553,-0.453651173475,-0.0628826296973,-0.995554246436,0.400927124765,-0.779573842619,0.87122464391,-0.441359962971,-0.665756229754,-0.163917517302,-0.0420041449054,0.941004345146,1.10092609377,0.237919223945,0.859962476133,0.942130420443,-0.182210045233,0.594402817167,-0.346298722617,-0.545762188371,0.0459226837337,0.97555221638,-0.967745055214,1.07641956677,0.417328578431,0.330658483791,0.582032641773,-0.629756823309,0.646351555381,-0.306680200706,-0.235865918307,0.0761233101945,-0.106475460497,-0.917562478962,-0.860904125692,-0.679645062158,-0.432268260529,0.595986489747,0.522285753041,-0.266607539406,0.729939115637,-0.338821570584,-0.0204232281244,-0.332345371678,-0.192822643389,0.0878959846458,1.07573694399,-0.583525697736,-0.259058398067,-0.171512100022,0.334050338554,-0.725855978843,-0.174501639003,0.814838602412,-0.125195900326,-1.18246117419,-0.152287642574,0.307647427622,-0.369779589765,0.422396859869,-0.354131988784,-0.103503963211,-0.226083847812,1.11502654845,1.10832226645,-0.0816446500271,-0.606907264644,-0.12318961234,-0.0191488935565,0.306904392241,0.555779839362,0.165908559981,0.319786352609,0.235729385013,-0.523910848975,-0.122280537332,0.561815897224,-0.424665947486,0.562762130279,-0.140878340703,0.0964117644,0.356479336043,-0.254786640347,1.10685481475,-0.644585155775,-0.872059324046,-0.248077868501,-0.361517366758,-0.58519455496,0.687933762485,0.807722073448,-0.197869475301,-0.571520733689,0.668692182504,-0.28200808763,-0.198643008494,-0.340575712614,1.06331691917,0.617892307502,-0.811086215879,0.591415148351,0.266090182287,-0.157893932984,-0.513422408054,0.630244836671,1.1031093851,-0.0908997359627,0.86600630272,0.999808123515,0.576512573763,-0.955620519097,-0.555381058016,-0.508729828426,-0.682018019765,-0.268807110131,0.597754622513,0.32818696394,0.0477713901505,0.619744933744,0.733481360235,0.0705258568133,0.577652253283,0.473347790478,0.358021140794,-0.479746343554,0.175017971221,0.888736338377,-0.353428955239,-0.29825479866,-0.733065954065,-0.491547730053,0.842781861033,-0.730722106687,0.85444508101,-0.521184664079,-0.944151893699,0.31360572787,0.870753024847,-0.0178929833781,0.230755161257,-0.565903630593,-1.00628329141,-0.5125063794,0.80561681214,-0.57293873822,0.831460929553,-0.0478128690179,0.346371820792,0.89327676831,0.681637996836,0.11421039121,-1.00150246537,0.311589174534,1.0864234171,-0.682809697728,0.025528675796,0.593315491808,0.842284552384,-1.04996329654,0.112819532819,0.493227804451,0.381393872556,0.577062087908,-0.99773133313,-0.414713268344,-0.558144921735,-0.39543268912,-0.797817764397,0.202870593432,0.681214847592,-0.0666145118327,0.283009847441,0.789678073861,-0.211121371079,-0.116214413449,-0.483567584753,-0.563212159421,0.868505745935,-0.676571567776,0.798544785049,-0.343527051154,-0.5574727921,-0.637593134764,-0.404979140893,0.947888990403,0.0745050575312,0.0652475584414,1.03421201144,-0.535305791309,-0.566918126056,0.101082597841,-0.59820768608,-0.907121130068,0.838302143037,0.0155308884763,0.560455516527,-0.46652869325,-0.257242088223,-0.77928992475,-0.468365028952,0.427185013703,0.604423242837,0.66226559842,0.77115792637,0.924974236899,-0.484613596425,-0.490146987239,0.278760538165,0.781182867003,-0.400291500533,-0.840302677955,0.79906075011,0.683847995968,-0.0584325007746,1.02054893841,-0.652646085762,0.345263119968,0.447525528175,-0.473793310695,-0.592808475565,-0.0410449653916,-0.298722010564,-0.215179659882,0.352598987324,-0.871194225635,-0.122164295196,0.578538492078,0.359373181246,-0.162341804692,-0.402954717119,0.281908357309,0.911871610661,-0.671983897187,-0.556547614184,-0.686844397889,-0.548418966565,0.247007970082,0.177615500609,1.2106449889,-0.959217277561,0.512247219657,0.429807714455,0.786453528936,0.921742189424,0.708715320199,-0.745415416856,-0.920989152863,-1.01503297696,-0.69795561812,0.46309643738,0.199854181546,1.01114472332,0.0521934616014,-0.693610783577,1.10373396692,0.201064891252,1.26955916461,-0.602470746441,-0.286496106189,0.702397678115,0.59209223517,-0.113171697996,-0.0790174235428,-0.766472500406,-0.785086342879,-0.168909386278,-0.691769528617,0.857336265459,0.443247546397,1.01410302641,0.327311462393,1.10915221826,-0.344454645708,0.896648011665,0.988415444127,-0.452644719072,0.602660659488,0.666719252428,-0.0667359316624,0.112405640489,0.343766621832,0.0405411317921,-0.120347060102,-1.28197625957,-0.0908798252717,0.381343761081,0.280164938348,0.682113869491,0.645931133204,0.788709317372,-0.224610736887,0.0491888094539,0.243617159067,0.731306365068,0.798191321055,0.414483470441,0.238736766414,-0.30017477339,0.418834291884,-0.400861092643,0.704596035652,0.723584057111,-0.336512574366,0.0330086994746,-0.307156046636,-0.116698196439,-0.467255735992,-0.220509414083,0.135089957527,-0.434385681056,-0.408390150985,0.931095972635,-0.7488400073,-0.575325072524,0.690470529835,0.0810598710679,-0.738786970131,1.32171022412,0.540181117227,-1.05099465143,-0.873830927273,-0.146973485509,0.784501278187,-0.877714385239,0.263355074619,-0.797457337796,-0.115879343733,0.628723398685,-0.19596251029,-0.760001203681,-0.243087984717,-0.60022706538,0.605059976584,0.810344405662,-0.155610040454,0.564824866141,0.868729132282,-0.40011080306,-0.36742521096,0.339133529608,-0.208224194838,0.78981140122,-0.524720027116,-0.479313409995,0.868093282314,-0.346539428053,-0.624391980023,0.994988627498,-0.176505555054,0.13364226675,-0.0460576851651,0.643547871287,0.139422953563,0.615183920728,-0.515915615818,-0.118511406731,-0.299527873397,0.362990951808,0.141291370668,0.383424407502,0.0367731894814,-0.943411494234,0.953723223311,-0.648325399826,-0.456986244395,-0.641739727289,0.0912175129562,-0.267602159597,-0.0133809214566,0.558028096718,0.0754048161692,-0.820765354657,0.186423514522,0.44107575689,-0.573907580919,0.704760464983,0.612565770221,-0.164087319281,0.887918907214,0.298375044234,0.599292766995,0.637075903544,0.120182692267,0.742401569145,0.0924960349093,-0.264341458162,1.01194483578,-0.272075295681,0.667022181836,-0.29121974611,-0.464145405502,0.12433745372,-0.387050617193,0.33654112506,-0.34135654955,-0.747091050683,0.406650385604,0.472366929208,-0.317582743676,-0.267247041103,0.475561690951,0.60355628098,-0.692910971814,-1.11641821848,-0.553312803668,1.08542016482,1.11172027546,-0.71482323289,0.569674638658,-0.751793931845,0.318010633121,-0.302377404809,0.663128121631,0.293285446156,0.0174764398645,-0.100072791182,0.711863157004,-0.0411018999458,0.33967313255,-0.54603188871,-0.877199465141,0.202237982249,-1.00751340335,0.0475786424776,0.363620707377,0.654768776334,-0.600202018132,0.836394878654,1.14695016779,-0.939096413216,-0.646662241418,-0.968812832974,-0.586947024882,-0.0891998447381,0.506425953561,0.939328514246,0.177018480776,1.11936376764,0.035671810233,-0.432910285952,-0.581218518981,0.108779126942
0.44364144652,-0.500737380182,-0.766428585076,0.946454682495,0.175915013342,-0.0474242486202,0.280184264388,-0.342757565786,0.482313110124,-0.113296023307,1.06191537957,0.610791412208,0.956570266101,-0.74809707416,-0.0432129182876,0.69783511679,0.841510947864,-0.232435637484,-0.332317594741,-0.261738791958,0.513762623715,-0.108362827258,0.664993535068,-0.540489117163,-0.875867803441,-0.41764901464,0.680931881197,-0.0975844787703,-1.07963007802,-0.719725902309,-0.253652360431,0.252718877542,-0.560849745132,0.715575200997,-0.344894440129,0.517784312351,0.151583634813,0.608831385305,0.274544162813,-0.2617237503,-0.0989790199966,-0.203841963048,-0.0133530384761,-0.918390602427,-1.06013967261,-0.464413262185,0.33052596609,0.488356453747,-0.625225581365,0.217612337233,-0.727939168654,0.414527638475,0.854572000109,-0.805137622895,-0.280027246098,-0.352691763017,-0.230229083459,-0.866137114391,-0.12396505836,-0.0340570835736,0.102460389339,0.514775928272,-0.665184959704,0.304585713259,-0.324055653466,-0.800901788787,0.300139642893,1.28103766623,0.831087951456,0.174127640484,0.342831232344,-0.36263595085,-0.682448863464,0.322335291083,-0.0312348465037,0.852549322634,-0.520325205529,-0.761721176418,0.19483912829,0.83661515996,0.696708828057,0.141132599297,-0.827743454254,-0.0325046960734,0.363218486147,0.476830248763,-0.0729493132755,0.421266906338,1.02916994942,-0.471004223575,-0.0849465920339,0.21691524211,0.703336512522,-0.993741870369,0.150169087055,0.173380693527,-1.03937842892,-1.0447058184,-0.732025344728,0.53003007198,0.369556145907,-0.0134404026224,-0.536892909172,-0.39216930737,0.684877970056,0.635531204553,-1.04239902326,0.135443786109,-0.810723541403,-0.109232513555,0.882116575119,-0.728573032629,0.944498258515,-0.142596160696,-0.37012349624,-0.35709313381,0.21004126013,-1.02771261423,-0.834964924747,-0.219595864175,-0.305427366097,0.111639119831,-0.194187059386,-0.808040932801,0.377847549186,0.156388713027,1.12348679747,0.725326381459,0.206001529173,0.441741515806,0.514253181679,-0.837383940562,0.0547002155992,-1.03848924516,-0.0759229440702,0.679935601794,0.380525091355,-0.28433628773,-0.587712615594,-0.466914800036,-0.223340093389,0.321206687631,0.0984390599146,0.569906499556,-0.0493344495381,0.760556641712,-0.985683424429,0.408786891968,0.856724070225,0.54558399206,-0.55542785067,-0.928907677482,0.681777076171,-0.988760391113,-0.542323741016,-0.00780350448205,-0.438141818341,-0.387306396228,0.886995316817,0.111267987414,0.11884715869,0.906757283013,-0.331443844776,0.287886221437,0.320198758124,0.327829413634,-0.165836659358,-0.0468904510498,-0.729359812443,0.736893693325,1.20426303448,-0.871162471437,-0.24148474307,0.746203782917,0.270904402391,-0.737822959241,0.678344864144,-0.100177836873,-0.81436077133,-0.687281925974,0.216775679214,-0.356439435069,-0.329734088227,-0.649886741876,-0.907258797035,-0.30522248887,-0.0518166574383,-1.1349917186,-0.193889876452,-1.02241940435,-0.769935192514,-0.946540997809,0.687210144232,0.743793072212,-0.399506739578,-0.761861639845,0.275091114933,-1.10533153453,-0.815356865363,0.397646148899,0.615729358696,0.0459761531211,0.0433487253628,-0.107550518266,0.597931808036,-1.03917163402,-0.257545633133,-0.192467670408,0.250801271989,0.0898256867688,-0.0801277871642,-0.785882173547,0.665098473671,-0.708029808991,-0.274142823721,0.528359985616,-0.290929416452,-0.00615071326451,0.241951463964,0.716520318814,-0.562319879377,0.697079928099,-0.65341854661,0.151427701653,0.677538078344,0.216327410017,-0.848280727764,-0.216942699232,0.521094887808,0.565441920381,-0.0194450708,0.434481331348,-0.153718770467,-0.0457747435088,-0.698134945407,-0.778420562072,0.630373565838,-0.546967897119,-0.957036985118,0.676549420795,-0.974975691707,0.263978158408,0.429012521555,-0.303455209105,0.236214135533,0.589606112985,0.580316487259,-0.866594023883,0.906423916337,0.888847501888,-0.478323067033,1.1467842142,0.584408914815,0.487103624388,0.920713164225,0.695723489206,-0.647431697894,0.596243717034,-0.375937577024,1.27095831147,-0.616615766506,-0.0239873676096,-0.502992456324,0.449683400687,-0.776047026275,-0.788008741026,0.0125399706631,1.08457100388,-0.159258721409,-1.01072899499,-0.891022085407,0.554676275608,0.0819875168646,0.0504205030184,0.686105202147,-0.67373913714,0.306032411741,-0.735800496498,0.798547787695,-0.325136725438,-1.03481620469,-0.504827754291,-0.332545804022,-0.523234880281,-0.165076471266,0.307573402406,-0.918643146076,-0.623334570906,-0.618591015284,0.191810027786,-0.388274605363,0.607181977496,0.686302785175,-0.74231786161,-0.3364827096,-0.619702326759,-1.05876938819,0.50621790616,0.451336233938,-0.888238023161,0.166031687008,-0.763076375158,-0.10273494994,0.716599642895,0.412863925423,0.238269220025,-0.947949071619,-0.574870561437,0.332389849585,0.105628021319,0.28544989849,-0.691220218156,-0.893519700067,0.652203711961,-0.924996521531,0.00851629424788,-0.566156287965,-0.502676490086,-0.290961376812,-0.611283979957,0.330646458744,0.109287373084,-1.04339004334,-0.41676872193,0.866862350948,-0.177815037469,-0.174401573278,0.15472929027,0.187405835598,0.940764043876,-0.79178618173,-0.305960408621,0.901877512293,-0.134577724688,0.894630663285,0.0973199843828,-0.0160969370696,-0.5918490863,0.282962379704,0.070439136265,-0.487360050304,-0.121956294086,-0.95657954582,0.68376547099,0.952543045463,0.949412508672,-0.129596749577,0.502572653366,-0.358980284039,-0.228188101968,0.654963217046,-0.138714333625,1.02949126321,0.328619424132,0.529332327994,0.538199593612,0.923831156779,-0.0556792170752,0.892376927892,-0.113216880695,0.298185276261,-0.187527703373,0.745865773917,-0.193939897287,0.316373843085,-0.0836989408189,-0.838629936619,0.371129949367,-0.0872299490617,-0.843679640656,0.263642501123,-0.073685906691,-0.0380021844826,0.269312793347,0.0952961999111,0.150751014244,-0.672281157688,-0.512355813934,-0.585134410229,0.755915816171,0.909367528699,0.98957211454,-0.00272193797939,0.0279261265413,0.141319939597,-0.300276058481,0.393586010687,-0.289581998312,-1.19325241605,-0.933071839949,-0.268861607563,-0.733723919248,-0.652305858301,0.00331784150233,-0.321569250543,-0.396933330262,0.509362818565,-0.177340294062,0.786167248462,0.150125152472,0.171040643886,-0.437016514784,-0.371433797263,0.0182167626002,0.304514317953,-0.266249989961,-0.404941904531,0.585083350642,-0.362498628593,0.582143639849,0.960228341994,0.435698407954,0.398568088884,0.634022856913,-0.864202170064,-0.288731132368,-0.691856990894,-0.350285086495,-0.687044580096,0.655721197107,0.506934589489,0.731478915151,1.08083105606,-0.525759335125,-0.588721853807,-0.670323701446,-0.894990101629,0.617304796802,0.0689851732152,0.152200449745,-1.02174949964,0.436051099639,-0.804174762448,-0.705615861854,0.757190799446,-0.354086042817,0.125635096295,-0.353468898781,-0.713031559194,0.029685113448,0.026665535957,-0.114736279384,0.351867633811,-0.547723487918,-0.585486963749,-0.547462214239,-0.838580995129,0.351649340135,0.00949032179991,-0.707670936717,-0.0662330078511,-0.667317850627,-0.141105001737,-0.83692981456,-0.593521895812,-0.547219877155,0.943118505897,0.603822914727,0.528033207713,-0.533519216416,-0.0323752516779,0.0796211141544,-0.0195918094218,0.499646018057,0.656454797454,-0.489849224794,-1.11514403431,0.700288629354,0.559727754336,0.043217384293,-0.687123330291,-0.241807017878,0.614427487863,0.810538408352,0.927238988218,0.0021104275319,-0.510739772751,0.78241017993,-0.825058251808,-0.20773476315,0.791542108702,0.661442796436,0.509116459023,-0.0805431637648,0.389360168184,-0.545447836501,-0.937085589194,-0.805898695317,-0.282118062599,-0.135000756459,0.613861124575,-0.530429153033,0.501018865624,0.585713648243,-0.648061309969,-0.354388764528,-0.438416712303,-0.0834783472786,-0.773667622078,-0.330711135462,-0.129730557094,-0.795394044245,-0.447248588474,-0.275535647017,-0.968137975156,0.591359888742,0.232468677573,0.411699809572,0.159725708866,-0.726961627254,-0.583908064719,0.253675269079,-0.233490372149,-0.146620196736,-0.0793043827851,0.404945887719,-0.128826104508,-0.57963070977,0.122350722551,1.1134651231,0.843298473431,0.605558608002,-0.311250934923,0.367001890981,-0.898045366977,-0.403395530667,-0.627962088511,0.911871889666,-0.073248970271,-0.29314065839,-0.508581476976,-0.414718494071,-0.0853964715451,-0.307978257075,0.639572551817,-0.179936052712,0.334222470011,-0.809189668468,-0.0415287010601,-0.308804104526,-0.214975809072,0.215898430488,-0.00266787142293,-0.956613131863,0.00411456728642,1.04278569061,-0.781260513078,-0.217099469714,-0.694933368224,-1.12662962342,0.2215745001,-0.784442845917,-0.29484382233,-0.388623595254,0.96917111607,0.759343724339,0.239874854481,-0.0480893792756,0.547236713361,-0.669817181021,0.355128540298,0.384453216333,0.0361635509935,-0.669189778572,0.582637681904,-0.482551936841,0.0269082996005,0.568839858267,-0.438496498566,-0.345080120295,0.280908051552,-0.497574807096,-0.12474983397,0.778390719187,-0.0300254942144,-0.473857363057,-0.519150939912,0.714402637484,-0.197629021667,1.01388580755,-0.688781498911,-0.228116138834,0.590746229015,0.469983515427,-0.176105967109,-0.819080447726,-0.0715506865158,0.916047587794,-0.392651195724,-0.256913551184,-0.0475341337667,0.704240587469,0.599819922101,0.608998594821,-0.907533544194,-0.222080574209,0.113259679892,0.354114072569,0.808338645457,-0.822445339345,-0.549640789647,0.312489997353,-0.800116950426,-0.0263697665975,-0.745000708648,-0.157034208913,-0.615893987369,0.291224314825,0.440706977473,0.878244010906,-1.21756254619,-0.252555567191,-0.639498899173,-1.00547041552,0.436687613213,0.93814781176,-0.659843257019,0.0871853727458,0.339278540485,0.569311031805,-0.700674275358,0.194543278536,0.589228593508,0.500659888884,-0.580844661602,-0.936724398813,0.0214142602505,-0.392506285194,-0.496606092082,0.0309682660367,-0.910090761123,0.169255386564,0.233099794935,-0.218163641094,-0.0519629828633,-0.330284539044,0.439543670813,-0.0934106586449,-0.771985457666,0.547679842732,0.790355915623,0.86421827302,0.183830778728,0.0729036025957,-0.948497650653,-0.824697408107,-0.330881175688,0.943942249751,0.576857916059,-0.397297529544,0.125806820066,-0.419347319183,0.906409003056,0.972601985306,-0.0197242234264,-0.398124174706,0.43544578565,-0.932493148257,-0.750904018569,0.246797552572,0.165325458672,-0.362150731315,-0.19562517075,-0.0816630106058,-0.783314990462,-0.539568649629,-0.268948851023,0.831832703971,-0.313099396332,0.921334569134,0.448499508898,0.181177279942,0.475875369009,0.415694604581,-0.905277796962,-0.429330762909,0.00184393214033,0.407857934329,-0.00464424819228,-0.327226169638,0.69559697835,-0.791558161229,-0.513808924275,-0.227425597791,0.772465314887,-0.373465191385,-0.949890569587,0.294325405548,0.620327911289,0.141445265362,0.492520050474,-0.143090854802,-0.313636995264,0.00782002752616,0.120436974279,0.135480789155,0.156377049859,0.350509588465,-0.117586663133,0.0494126771703,-1.13919275637,0.82816661608,0.662302776278,-0.236598549447,-0.592695389851,0.960294843758,-0.0492829927658,-0.103054854424,-1.02648549908,-0.86122727463,-0.709847153501,0.400397117492,-0.36382531648,-0.498716309415,0.282054856341,0.550475521788,0.0373013538086,-0.93502423697,-0.559789713358,-1.06893853535,-0.0317271666874,-0.6745300862,0.138529675348,0.792699479053,1.12766830938,-0.61045111093,-0.67007455972,-0.210448515438,0.851560972577,-0.926247039115,0.673353815005,0.164944688332,-0.23494073538,0.744547958232,1.01805395809,0.968428091696,0.291640897502,-0.475449255121,0.179915175291,0.107141947336,0.862923735921,1.08535343325,-0.149734796983,0.781718120547,0.698852824182,0.145186631758,0.702020519291,0.193898817584,-0.0510516330783,-0.0393572819197,-0.862814014901,-0.0431046543669,0.648362992745,0.437522332233,0.269878993543,0.853831596543,0.56768783248,0.320453776106,-0.10216392559,0.667264933644,-0.274327572171,0.714287802132,-0.138606732535,-0.7988840803,0.696113011899,-0.293423852325,0.37732977251,-0.658217168689,0.567518360498,-0.303754578118,-0.797140208336,0.427468801011,-0.99689970021,0.51350343881,0.889323058676,-0.438248565509,-0.743301254102,0.431184509425,-0.157653833032,-0.401593162757,0.790618479525,0.561659637723,-0.115951160264,0.451577546899,-0.611125353382,-0.923029038884,0.054089361956,-0.5903270614,0.281485545227,-0.265045151774,-0.290373523937,0.328327954857,0.516116967759,-0.687246024454,0.859003931565,0.378163409578,0.587966421769,-0.724080864059,-0.885857122542,0.118323968563,0.611829793039,-0.696995857379,-0.10474736089,0.393056818155,1.02930504791,0.337313166145,0.269869907918,-0.671970557427,0.246766322518,0.282581159915,-0.27418209616,-0.624777987655,1.02860896369,-0.935218257564,0.763507276429,-0.705403710481,0.512184930484,-0.657438172844,-0.0125575622367,-0.403754269334,0.58811514841,0.991827295797,-0.0445869568354
-1.15452169636,-0.462441048856,-0.786519514721,-0.127976866311,-0.70742779911,-0.16205445082,-0.84606512029,0.0525824119536,0.645962657154,-0.542610463613,0.867306945914,0.774966999767,-0.0850567284146,0.581176495279,0.447311011044,-0.49801323189,-0.762683025644,-0.811500693894,0.430197676436,0.434170278107,0.335601961963,-0.843065546715,-0.399608257153,0.396783662997,-0.0529348419418,-0.462592151183,-0.268430592259,-0.187217940645,0.944987718275,0.180666842115,-0.0838130046848,-0.615957213107,-1.07989230369,-0.768993075822,0.531557956155,0.192311003681,-0.694092487019,0.403475199139,-0.135916638371,-0.455561575098,0.306545440904,0.493961489543,-0.902168968448,1.12410666093,-0.760589433179,-0.640836229269,-0.778478124932,0.0433709988369,-0.131489916008,-0.8416276017,0.448941477317,-1.10419682493,0.597116776579,-0.750998272029,-0.0788849740787,1.04161028204,-0.848669036691,0.329733071874,-0.697107430813,-0.624795372777,0.736327798411,0.237853936264,0.710457192132,-0.404696646481,0.943471853904,-0.551215669222,0.422481062066,0.92932367929,-0.321348308209,-0.960200121636,0.486626613662,-0.455418450155,0.331256863376,-0.270022094009,1.04381059917,0.707561910417,0.379622751405,0.516704820838,-0.329638792722,0.626859458401,-0.886358711494,-0.308362063751,-0.55313520823,-0.10005594946,0.897859862185,1.20655159867,0.805385406788,-0.686486331332,0.396577873349,-0.488513881015,0.290442926566,-1.02294737282,0.802655403754,0.142547262168,0.075684823507,0.370241226958,-0.422704225869,-0.659869361857,-0.0726691133665,-0.363320821405,-0.812517558423,-0.883592539658,0.712261832136,-0.70052029387,0.00621481593755,0.701892935242,0.260155749271,-0.0328232181343,-0.855768698793,-0.884154297025,0.213169263204,-1.02621181876,0.905617581393,-0.232170989402,-0.545026813833,-0.484342379531,0.0562365184453,-0.42746681619,0.172219286428,-0.645729477143,-0.571149614071,-0.985987901632,0.0505115348723,-0.759228212398,0.0945485545608,0.302254041463,-0.418138623886,-0.164353915522,1.12436706967,0.974039476006,0.00299122937457,-0.544313701536,-0.287613263643,0.570516927617,0.102154410275,0.483952026564,-0.333532184397,0.948810045704,0.845196396548,0.0437966513924,0.514983126545,0.680804534945,0.451574867965,0.0873537183695,-0.826878406539,0.94777547857,-0.632560222071,0.152062055604,-0.356523191737,-0.207512167488,-0.501433570511,-0.159575715685,-0.251059292063,-0.338882556752,-0.675536938169,0.268446869547,0.11004792354,-0.146046504419,0.186274433869,0.82192661809,-1.0548512045,0.342247410475,-0.0722319441361,-0.343304538046,0.983075946913,0.861888973233,0.399583569642,-0.719439737872,1.0950448806,0.0286440251943,-0.650205233911,-0.713614479285,0.109344695911,-0.166755034126,-0.602773580927,0.548624163252,-0.258585057569,-0.496088974333,1.02364086614,-0.112847710392,-0.503996940871,-0.801578157488,0.22413680876,0.442371464835,-0.84339124239,0.332668512036,-0.10229939549,-0.701478969767,-0.0399190003712,0.456051446649,-0.471024758066,-0.13685255143,0.276323537011,-0.077484597149,-0.123080004455,0.741061969908,-1.12739002122,-0.942733406079,0.732278133913,-0.437760710643,0.0917388189431,-0.179037148711,0.722067236635,0.323862367201,-0.76151818381,0.459711276863,-0.500576787472,0.406031408783,-0.546077878393,-0.0114834485854,-0.479619181084,-0.835567627344,0.10945963798,0.338223007113,0.0415901933835,0.796489339777,0.0380454474808,-0.177256036222,-0.0225565104841,-0.473803729786,-0.314466897932,-0.464684393818,-0.514004497898,0.0495754108872,-0.740554220267,0.133967819718,0.427928191929,-0.788530744172,-0.339336381292,-0.184205069691,-0.712952272977,-0.613954250302,-0.929230723151,-0.87995222911,-0.749013869796,0.174842504048,-0.403384614017,0.495853640239,0.989141594344,-0.0737553395637,0.403482671859,-0.177160113311,0.830255369155,-0.268074172062,-0.178571010179,-0.139908911846,0.394892715175,-0.377029787748,-0.439288592597,-0.134707703838,0.661633389705,-0.0618038013678,-0.262608372195,-0.290479632433,0.916122134535,-0.121356366711,-0.636701645784,-0.427847281497,-0.444827373068,-0.825113428939,0.243597777829,-0.304710487209,-0.137596018267,-0.376351592796,-0.462514785935,-0.66507934166,0.0558690083373,-0.522256316186,0.441705006151,0.0386854845382,-0.221661538593,0.683018111448,0.709069357853,0.615940708088,0.352792551762,-0.492643775063,0.879471218243,0.276775593976,-0.734092593596,-0.457525484233,0.597370619025,0.331650375244,0.965960291977,0.819396129868,0.6196310581,0.542202896773,0.360418605401,1.01861854747,-0.872512428005,-0.80370432732,1.07718648318,-0.28631290005,-0.205578264622,-0.889184313467,-0.405731575083,0.0154794603412,-0.695448310033,-0.155512608873,0.888899910954,0.813466522016,0.608566300921,-0.269044100261,0.795695391965,-0.665707617643,-0.410129103425,-0.930250671978,-0.654826961889,0.172251189678,-0.583952073974,-0.048633844336,-0.853235689019,0.413850449945,0.472371642585,-0.873600580723,-1.05908371323,-0.0461071682689,0.916271510684,-0.521969058363,0.5038019686,0.442143249121,0.0157675978111,0.730782341053,-0.415040831156,-0.0513938806748,-0.66176413193,0.0716771426088,0.302312565871,1.00919075664,-0.196157905059,0.686066961418,-0.463929598531,0.282181334529,-0.445137707913,-0.373774859717,-0.138694267171,0.580772209263,0.437969084592,0.360525556344,-0.470745543399,0.300147488477,0.642441250542,0.680783177881,0.653173486229,0.194985740017,0.157088144446,0.696758152225,-0.84305049419,-0.409133261368,-0.621507319034,0.028824175691,0.107385819356,-0.628702894689,0.370069478526,0.405843994705,0.0791620762858,0.0452823509431,0.249506803011,0.203052128882,0.616034379955,-0.620529833786,0.112654044901,-0.916548777314,0.437513089392,0.709111204215,-0.826903559561,-0.359141201945,-0.811969966162,0.860802599049,0.702126194806,0.546406343628,0.511986938784,0.509685046321,-0.157205238666,-0.374576867181,0.965579654216,0.45569930857,-0.800457635315,1.09228397294,0.646562998128,0.607948024095,0.0456137456812,0.0338464143329,-0.455914864732,0.738237131755,-0.108224552421,-0.442735601719,1.03350846246,0.731315275057,0.718157082697,0.0486383303887,0.184599216712,-0.558270720331,0.564756577624,0.251762265223,0.707604990109,-0.949538775733,0.917570875698,0.546342398332,-0.873963584858,-0.435929634437,0.0568911912203,-0.736396903623,-0.0465037780258,0.182918547766,0.849359954271,0.761637277287,0.19242335668,1.05527612085,-0.4054111138,0.415007517393,0.15167500309,0.0246889639959,0.1655716355,-0.324396329081,0.338566115407,-0.727916257975,0.094907417969,-0.371732622436,-0.473480116902,-0.738751866553,-0.488115749014,-0.991883033608,0.77543788303,0.801425474667,-0.515783029541,0.0630711753446,1.13049855964,0.717759349959,0.0576793785717,-0.389698369483,0.315091047849,-0.36501493306,-0.741362555238,0.842158162962,-0.624538529134,-0.194428949093,-0.0651157812112,0.456009356011,0.0804314835474,-0.598099367167,-0.335766075667,-0.585257219006,-0.491336958875,0.640763896713,0.591789211513,-0.139584952039,-0.821926296129,-0.887568215855,-0.434026358747,0.04160728624,0.450842201104,0.449690593937,-0.293519540286,0.654475598527,-0.303173669284,0.129005182594,0.209695716454,0.108993774043,0.588960367592,0.937568947213,0.843808232553,-0.427923267338,-0.0139376865475,-0.424645483953,0.652048232502,0.205918542463,0.715579184546,-0.659389076885,0.299811868508,-0.64540247791,0.66494579858,-0.504403410669,0.938252402728,-0.583938657617,0.536166264942,-0.138848615992,-0.0378308164989,0.477146604317,0.866712494387,0.898191556315,0.57680596544,-0.936670376961,0.425118994924,0.268384085564,0.0956269429363,0.586411898038,0.4379231205,0.649091092087,0.760951537975,0.529098531123,0.0621642976166,-0.415313635783,0.332690455276,-0.748598268595,-0.58810385589,0.616710157602,-0.362754961666,-0.331121790776,0.390171482467,0.93194108066,-0.673214736468,0.406254754224,1.03187848155,-0.248904291712,0.107389502623,-0.976230367237,-0.572296029935,0.053024221916,0.804038651138,1.02165292461,-0.374268429876,-0.275267468529,-0.147311394898,0.247461769927,-0.358481706863,0.529890104234,-0.302918379144,-0.893067811308,-0.226500881823,0.0520416601972,-0.446357300065,-0.553121174867,-0.259648827919,-0.937804497435,-0.429861723682,-0.446190822269,-0.0446561475197,0.676534132607,-0.149012038818,-0.171013902797,-0.362303552092,0.338397894998,-0.542325365336,0.0680498406897,-0.631508735251,0.859997996336,-0.245478401458,-0.902705443616,0.931077711923,-0.230835279423,-0.834053278081,-0.404700311237,0.0370131098934,-0.28999249575,0.949023923445,0.25036136119,-0.337662341285,0.957833599649,0.598565855077,0.100508215522,-0.396963195397,-0.545985190815,-0.245490508685,0.407616104814,0.665079796737,0.422478145512,-0.477701860822,0.516709840932,-0.566906155536,-0.848798001321,-1.02037127847,-0.0215409512954,-0.178590386566,-0.635207877939,0.188332290065,0.56488360667,-0.81813078474,-0.0702573228732,0.104589058308,-0.500047368811,-0.202907637965,-0.39646884061,0.166610366443,-0.386429978453,0.624560571324,-0.630314266521,0.656138051968,0.821266852805,-0.353029789677,0.453193302657,-0.00332953061763,-0.360341833802,-0.234945630751,0.680682367821,0.634262334181,0.155802751797,-0.395263714089,0.492461156292,-0.150722287949,-1.06507469062,0.433473383238,-0.264027060255,0.422489179534,-0.0497015253277,0.09257409615,0.182361699805,-0.824161386676,0.87324549045,0.929783791896,-0.231365704551,-0.193857225272,-0.201010224806,-0.880197101073,0.229064336698,0.00217041007245,-0.895689266152,-0.543320345115,-0.384924402956,-0.747557192037,-0.116932623412,0.444999834009,0.541517981485,-0.291876760486,-0.821239542566,-0.0224604714421,0.54562506468,0.208686198378,0.293821870222,-0.0428570831365,0.833564447484,0.427549498212,-0.69944164408,0.448245494687,-0.608668375359,0.58303013304,0.545053386966,0.58441793683,-0.2998013863,-1.00014777917,0.857308803068,-0.315279125378,0.643090373786,0.656215769052,0.0107873795447,-0.580601245036,-0.0201516431462,-0.901491992454,0.116665446064,0.609295691909,-0.655544075306,0.52273882741,0.267788378221,-0.883522306822,0.851322737778,0.380950755048,-0.898836073899,-0.660346939899,-0.79467211986,-0.447608195198,-1.01885145701,-0.0192497999241,-0.483970334801,1.08381455273,1.04911950911,0.511202652342,-0.0960265259035,-0.0950697428547,-0.511943935963,-0.835650501208,-0.00418717128708,0.108896124704,0.0915228202727,0.0838268776732,0.221181334006,0.615121898049,-0.97114112283,0.370837853346,-1.08694511896,-0.957880792715,-0.0989552833647,-0.803468704264,0.657520492385,-0.460679470816,-0.695470918628,0.70022669579,0.896225051778,-0.119004908892,0.81165526069,0.841149296092,0.0453057971114,-0.293438364107,0.968341562439,0.705691321884,-0.863350979362,0.508024653422,-1.01657852353,0.17880866561,-0.328638146946,-0.0582249666014,-0.0633471990789,0.306421917908,1.03961424924,-0.732477802168,-0.25323582547,0.630039134756,0.94529200579,0.204197766934,0.186897213906,-0.736207808947,-0.841101484264,0.627428731068,-0.193128131276,0.266371416087,0.128951409994,-0.865158524564,0.755570096557,0.321070736845,0.773177811781,-0.43344268596,0.595775611428,-0.445455921517,-0.307681687162,-0.771261910471,0.518356464612,-0.137208307714,0.658749456519,0.814984544423,-0.752469489658,-0.438500897466,-0.109758161685,0.331099784863,-0.406418308289,-0.525541747776,-0.360003721242,-0.047855851497,-0.612967688265,0.943383264154,-0.58665696862,-0.441161693428,-0.0328031636986,-0.389713396791,-0.55398221227,1.01457740179,0.900212788363,0.569262770428,0.413112321377,0.670626192403,-0.0500085872826,0.317339032249,-0.956033604209,-0.6049222993,-0.468397493172,0.554232491064,-0.444540758957,-0.1340530864,-0.522496610916,0.0259500854597,0.787985891825,-0.757548277155,0.100939401953,0.8981816201,1.06574962513,-0.104765185818,-0.192983762857,0.536244971993,0.0841700802663,0.581856539099,0.751627537865,0.653840301937,-0.769769185846,-0.40269326139,0.902302060352,0.879017220156,-0.950642182231,0.249785280337,0.827631458147,0.278788891342,0.711872163752,0.54420101152,0.561522090949,0.889321118319,0.205092921979,-0.912881971295,0.123248311932,0.865128661853,0.12074625043,0.664284029936,-0.81368056636,-0.755076246821,-0.935409624543,-0.367519774626,0.608801198884,0.709386883461,0.13440025392,0.523170268007,0.0494885456922,-0.472962853245,-0.0760838601713,-0.0988079102558,1.00914666263,-0.682215033223,-0.298530401276,-0.952019769758,-0.220813999372,-0.114692867423,0.453600857427,-0.361712634017,0.778461909769,0.731699545042,-0.708404743491,0.583732668547,0.525625094693,0.806814721735,0.471947814854,0.357722798671,0.133106417455,-0.518287437821,-0.798850279696,-0.774056028213,-0.974617432436,0.50814283743,0.788658309182,0.55794713347,0.127522306651,-0.0723917427452,0.922052030926,-0.0110792220237,-0.168332238334,-1.09026595259,0.557231681702,0.925693839496,-0.0967488627694,0.74954068333
