-0.447933627519,-0.089138133657,0.421905213779,0.278436888973,0.794248953218,-0.391834059178,-0.155127772476,0.364760572409,-0.453970852313,0.194753282193,-0.492128482942,0.354290381786,-0.870033241249,-0.310200734882,0.886926520856,-0.779090964345,0.329794982351,-0.511443501475,-0.232525730966,1.02701436662,-0.468021470263,-0.0253332040691,0.413652317261,0.362566978134,0.450772100584,0.206078982343,-0.944199586645,0.803183913869,0.433090547005,-0.625178645907,0.571163445499,-0.127865979951,0.515946440845,-0.201577119069,-0.791720134143,-0.762056137969,-0.0704325858811,-0.772723652586,0.967041398614,-0.494377356292,-0.729309200119,-0.917650662698,1.0165285815,0.433859184562,-0.24697935195,-0.00248608438018,-0.75444247569,-0.137925693464,-0.0700829285308,-1.2834597555,0.934303681608,0.398867686129,0.151097080245,0.416408377693,-0.783719172851,-0.211136498004,-0.155402786451,-0.0580409372247,0.427396406231,0.801766815455,-0.444330355949,0.164760651706,0.0956127003529,-1.26088151828,0.8943281561,-0.170950596765,0.672637099888,-0.199427602522,-0.629693606115,-0.541360010917,-0.368403063247,0.092116276584,0.0385325162662,-0.111519137237,-0.783298381972,-0.587317703334,-0.334829446578,-0.183875449497,-0.219442338571,0.0296686206704,0.160367156441,0.298923643195,-0.315655702316,0.0375428609243,0.698705849765,0.15425876893,-0.843545412556,0.110557237674,0.379639915394,-0.412990284111,0.683972850465,-0.466241499322,-0.19821796147,-0.0450042213006,0.259854574002,-0.958433451866,-0.325342181502,0.22084068833,-0.920794227874,-0.34628987348,0.194539099803,-0.326421621411,0.0968260552538,-0.115208472651,-0.190058574711,-0.449506208217,-0.799795566386,-0.44606714056,0.0285688295029,0.528346304414,0.914933940177,-0.974272457102,0.574296603759,0.386371194439,0.587156022136,-0.786230094657,-0.879462303871,-0.35217257664,0.0839767301106,-0.385442523246,-0.695620039894,-0.331853635259,0.621618243688,0.601973193241,-0.454789979168,0.529923177538,-0.4527809865,-0.641825624562,0.214476646494,0.0566053341419,0.0554483599442,-0.338737053353,0.757472042433,-0.711592921972,-0.449387842368,0.172787378208,-0.700357145927,-0.640200947332,-0.489048693319,1.06246010886,-0.65466606277,-0.458155273684,-0.302464089848,-0.530152939835,0.47619707714,-0.638807279331,0.198659220095,-0.738384661803,-0.65895125809,-0.940926859858,-0.0857330872555,0.0173961115216,0.702049688423,0.889647877369,-0.647387324029,0.549644678637,0.57773399044,-0.531729984866,0.687132174913,1.14496090121,0.501103533171,0.539071790747,0.496129812918,0.0500388302626,0.639275179607,-0.797203191657,0.479018000562,0.508804702833,0.688835916335,-0.660107035749,-0.0811761056727,0.853840654877,-0.697212288092,-0.149459377352,-0.47842793537,-0.106333982613,-0.391930350981,0.478925369627,-0.0679823842149,-0.121383326865,0.797155474568,0.530771119157,-0.598116418976,-0.0311959072971,-0.964980502812,-0.00988997990829,0.454575497596,0.771995501687,-0.928102495584,1.0921124558,-0.131868840761,0.728440880741,-0.580258495132,-0.489623172045,-0.463137858432,-0.381314090253,-0.39902706117,-0.515675391478,-0.611064320763,-0.438266086527,0.549254036557,0.653945021305,0.0469730757002,0.401216638081,-0.739356820906,0.494745084286,0.299370207864,-0.051085091728,0.174121542236,1.04184517807,-0.484497798059,-0.151236704519,0.629716104181,0.583667453426,0.106745119538,0.872271139322,-0.137717636278,0.271907484534,0.113098674016,0.111021285413,0.329978258401,0.0814100764858,0.740859743163,0.118509513955,0.804382939997,0.706583534981,0.414943179258,0.712044835042,1.04545651498,0.605176125179,0.223143802626,0.384426094567,0.774012767561,0.521563925108,0.0641471252262,-0.585691695609,-0.194328841451,-0.539596504291,-0.472659825172,0.0142500569255,0.755303713985,-0.0930590561152,0.440205629445,-0.277178247439,0.162918890253,0.520545123743,0.766769315585,0.272654438388,0.144609249105,-0.637884751406,-0.448485091605,0.946864165681,0.125340301601,-0.460669964099,0.243666179254,0.31150295612,-0.529768364771,0.653526682094,0.620586491166,-0.343822188765,0.843962737452,0.416315540031,-0.540286289532,-0.733647658378,-0.259006045672,-0.45529463273,0.442395504066,0.6255647201,0.127717025898,-1.3289029066,0.0325574133523,-0.544128199628,0.608897577706,0.629079035442,0.778151694152,-0.867240299347,-0.136805596345,0.278470902777,-0.990960864344,-0.726009236467,-1.0755551474,0.565980460213,0.379883813134,0.543979774443,-0.765416582642,-0.725673743472,-0.351970085936,0.071243691994,-0.52879610742,-0.0785462591186,-0.635188620692,-0.152896092365,-0.824285611932,0.98609005131,0.274389938637,-0.49052226019,0.646026912286,-0.844792877784,0.305290141225,-0.407238956885,-1.1049404984,-0.639804858643,0.678202492939,-0.632763231947,0.290894952562,0.508902041106,0.430366788362,0.357720052731,-0.0978891583505,0.744991258785,1.26018595619,0.937651115848,-0.353388382941,-0.0859723951301,-0.147384284387,-0.619203197203,-0.102433043636,1.25412300557,-0.306728799158,0.439223049295,-0.0555635317102,0.136118372065,-0.715626698734,0.900858798041,-0.216006951601,-0.152531124193,3.33621568671,-1.40311072694,-1.1591156413,-0.552581092835,0.636380441358,0.986453350685,0.0587813140715,0.156955625604,-0.532506892255,0.182832296473,-1.04603549023
0.110749220723,0.733843549013,-0.137694711728,0.681806397831,0.19631960369,-0.56267055803,-0.416057306149,-0.229998707272,0.215683536131,0.790598589925,0.819688578227,-0.153142232593,0.567648414174,0.0118137343445,0.21614658517,0.291928104576,-0.360119401736,0.0466991550585,0.345378689656,-0.176427033661,-0.101819777326,0.816585593893,-0.294807379362,-0.620935087101,0.612546101622,-0.167653408348,-0.634475065167,0.135361366898,-0.608325318988,0.212573607696,-0.654646127689,0.485128724161,0.783290028829,-0.394395656684,0.355434371135,-0.0696916772988,0.0159615669986,0.724080036809,-0.0927692951457,-0.5363286602,-0.0891893749269,-0.281362982094,0.7956661871,0.619440510988,0.740198773696,0.373945861781,-0.911325468057,0.172685032793,-0.507396146993,-0.0694865528116,0.0313792039402,-0.0822516874545,-0.0331759764399,-0.113801772334,-0.52115271595,0.256393986684,-0.435442083753,-0.656463444192,0.0268869060504,-0.348270813414,-1.20985542075,-1.2697723053,-0.132638119588,-0.340344687562,0.098392553529,0.473406358032,-0.700762697045,0.830728800789,-1.568219267,0.0899119424896,-0.561217733413,0.457089654129,0.107548313342,0.4103302776,0.854885486347,-0.947406510396,-0.580548033229,-0.215961709897,-0.484877445568,-0.668859171659,0.0216235584554,0.126949504198,0.895380093053,0.37092228227,0.04654588034,-1.01518274262,1.07610186168,0.822031146558,0.854902507269,1.03057106121,1.11071287409,-0.801830203207,-0.192161916906,-0.755490256192,0.926670166997,-0.753754630986,-0.286463568377,-0.677454433453,0.0311259772084,0.488958080445,-0.511966520724,-0.485870859261,-0.264826049262,-0.913599352387,-0.0296974324963,-0.847208316098,-0.745341644721,-0.103010806665,0.717845554305,0.905803830785,0.614269749849,-1.11168276923,-0.168248108925,-0.43636900965,0.0650478997305,-0.327691562771,-0.337532540631,0.111226428228,1.14638660593,0.181493431197,0.119687080546,0.277633095872,-0.0353696883904,-0.385916298819,1.23007007603,-0.584490761799,0.749839541108,0.762244573446,-0.462993665609,0.63922132956,-0.270085709971,0.605554126203,-1.15524569267,-0.381338714596,-0.886977111168,-0.421886456876,0.69054578987,0.516393974475,0.436888669948,0.575435433416,-0.479753604013,0.286827781727,-1.07692303667,0.860569108278,0.822426753807,1.22381321412,-0.279141026098,-0.638466747085,0.724551398471,0.732960440407,-0.360781636053,-0.142720279871,-0.671148200931,-1.23243164997,-1.09750507584,-1.26157662318,-0.922071840948,-0.671680027496,-0.901524648403,-0.0908722647643,-0.931192632366,0.487319194608,-0.197519675005,-0.0647940147675,0.0645254411662,-0.594781582291,-1.26772846979,-0.228322435986,-0.809464494916,-0.167271923048,0.0980415357952,0.297625403052,-0.493270639379,0.51865442537,0.00812106303268,0.502674560081,0.416436697805,0.0716677644394,0.520440249551,-0.0201570743856,0.743135732545,0.448167414158,0.845505007264,-0.878923433124,0.291119651049,-0.480769868328,-0.437450180329,-0.933214305017,-0.0955746348149,-0.195421396629,0.907184770663,0.944614489706,-0.141680160201,-0.329674331584,0.32702098326,0.144897602492,-0.483679817655,0.650874339875,-0.474200162016,0.768917857489,0.814345105529,0.0995431471352,-0.770962571678,0.584764059021,-0.668162771594,-0.498200446769,0.0865862971138,0.826281715731,1.13961578393,0.376980942258,0.784130302002,0.273150478435,-0.724106703607,0.952165397823,0.413889850331,-1.15783775896,1.15863429138,0.596822597655,-0.269009727542,0.158375846295,0.459080937018,0.879710985543,-0.852766692051,-0.204765111169,-0.244454721528,0.751370116117,0.904289250986,-0.737754187541,-0.29391881107,-0.196922469359,0.288608387696,0.772600859272,-1.65364831369,-0.173892218249,0.12512608455,-0.157054883815,-0.676583972184,-0.517185630124,0.910057354883,-0.350786144946,-0.251084801027,1.18848086217,-0.45660195131,0.234638570565,0.376917617303,0.451623134665,0.0352416708915,0.482180613504,-0.524518420832,0.230722507071,-0.0936248829048,0.227335717544,-0.858194304868,0.123962386176,0.053266918147,0.369593347653,-0.549403645702,0.777778972181,0.552979245294,-0.477326664754,-0.0744558163534,0.337995696201,1.03459373112,-0.458783729596,0.575870422257,0.732566420898,-0.156851153826,0.807363059087,0.161679389782,0.306025234301,0.464766903478,-0.0927096125716,0.798950414045,-0.169236838164,0.294521398654,-0.0842225038817,0.125028359059,0.476866156021,0.668570293266,-0.549624222755,-0.794440280068,-0.280174873671,1.02105012469,-0.250847980798,0.460176323665,-0.456695405168,-0.497846006927,-0.449702167677,0.80963213885,0.758368879438,-0.0767381609075,0.470767935631,-0.274203096342,0.727710491083,0.350139178372,-0.516447260673,0.310020451033,0.626196983365,0.182302906495,-0.639429970763,0.0299845693258,0.183071296557,0.457658928241,-0.0336494326563,0.37485270174,-0.745401834176,0.139550016305,-0.339617475726,-0.164945829352,0.477250477482,-1.6346007703,0.0956858533088,-0.0716371728765,0.189871163992,0.733149455495,-1.14678203326,-0.725200763976,0.109107479106,0.229238207449,-0.261015149986,0.0831178648676,-0.497670373156,-0.123945764458,-0.811546391259,-0.522406950072,1.07234257875,1.0100947744,0.315786819125,-0.648330679608,-1.11741169847,-0.174692138724,-0.09318162254,-0.688963592123,-0.852658918244,0.182898629132,1.28551656701,-1.02286032042
1.06926995808,-0.442858402135,0.175662547209,-0.220753860974,-0.286621936333,-0.550331816671,0.284004421812,-0.987748094712,0.944792758424,0.0799066878112,0.390623516582,0.226665304569,-0.337287495799,-0.940960756377,-0.608384447582,-0.791795033442,0.475940093195,-0.918880294297,-0.165116534489,-0.642647136805,-0.0297484891379,-0.0146848159168,0.377106804928,0.593195670944,0.681599692377,-0.511241608853,0.700363662015,0.059436143371,0.374434167399,-0.961626183677,-0.021062051711,-1.06875579425,0.401849893076,-0.773875523086,-0.396823329404,-0.663519106808,0.0827528619955,0.17152471847,0.332485686128,-0.00325322028757,-0.315129507188,1.01799612926,0.553366281896,0.231799500054,0.360171709896,-0.9082749307,-0.0685149837385,0.245774426451,-0.550558051169,0.422421865794,1.3296475925,0.907761221261,0.329454320603,0.364279382803,-0.176209028424,0.478746608968,0.0142134155589,0.464242313751,-0.310567921217,0.111546632228,0.542920445583,0.177277672598,0.410387792416,0.100193648347,0.431106923813,0.702417398147,0.160616587134,0.475497847172,0.95942162429,0.762957453082,0.0654173965484,-0.209335570418,-0.448990563619,0.905338941573,-0.49447840237,-0.234533361082,0.232694289782,0.596013210516,0.703331462727,0.356559862206,0.233967956365,-0.200361744725,-0.0915739344719,0.54756645723,0.735211948927,-0.205737885505,-0.613817690087,1.03458616641,-0.660990233416,1.12727067276,-0.299099740642,0.314104249821,0.6361673144,-0.973210459691,-0.568887591279,-0.496988438624,0.369822898723,-0.234907814986,-0.894483967466,0.115605072434,0.232511777118,0.0377508545525,0.53282198118,-0.39790647258,-0.398612440682,-0.716871093484,0.174133158614,-0.83414701362,0.0443945820808,0.78583049294,-0.69288421946,0.680460667744,-0.898772463737,-0.0575529147224,0.509894851464,-0.903303758504,0.467871041334,1.00292715273,0.80873935939,-1.02322443325,-0.045352609212,0.513736816173,0.388465152373,-0.868819108108,-0.303672302433,-0.237070528245,-0.393461525277,0.857148843782,0.776554008672,0.978231511875,-0.475528434208,-0.263830025235,-0.561056031458,0.238204840916,-0.712952975861,0.20331326094,-0.631897824561,0.399141687905,0.121384984278,0.64117949026,0.149971697896,-0.41723004377,0.901536164066,0.176831574884,-0.206942240376,0.236783966282,-0.299039171444,0.0982258344736,0.326285406694,-0.411756676358,-0.269101280319,-0.339687837471,0.705888657981,-0.855307685093,-0.31604425777,0.736765313538,0.152723131433,-1.16549061685,-1.16227599011,0.674201437845,0.74099321003,0.448100463384,0.764814440217,0.560802584584,-0.109729705624,0.15179168584,-0.380233496657,0.737825110646,-0.933262357063,-0.11413055459,0.674230620358,-0.579353944002,-0.770531794568,-0.455989607397,-0.548023720651,0.221782700125,0.269783363376,-0.322069642642,0.289326929184,-0.859940135446,0.670128385732,-0.469139665523,0.199520410783,-0.169327488157,-0.505988381655,0.852209655428,-0.42511389245,-0.416840878744,0.43281328071,-0.299802193136,-0.343689750558,-0.0653939139286,-0.110246752143,-0.933780918243,0.254041810401,-0.950635837201,-0.451653133126,0.478371453937,-0.485156370125,-0.515717464895,0.778941625206,0.287419780865,-0.293967893037,0.00404838449181,0.201503518191,-0.583321613917,0.368671733775,-0.849956688676,-0.405902926045,0.44610632001,-0.585726795212,0.832763132357,1.35773506126,-1.02685856874,0.00843294244687,-1.21139764652,0.560797966023,0.390869583054,-0.203091109572,-0.548058889395,-0.306347109543,0.353223804441,1.3418500798,-0.297245439465,-0.808939855741,-1.2621945849,0.713747841976,-0.259104639365,0.606369323344,-0.904702932552,-0.602614595068,0.0305010518774,1.45338877518,-0.996834034016,-0.195777441955,-0.919678783202,0.535360986304,-0.689360656135,0.535398234019,-0.565686943315,-0.222436071089,-0.31888129972,-0.778770569873,-0.211431590298,-0.403154714339,-1.09753436643,0.797422866571,0.715266915299,0.717706520732,-0.136949407851,0.291702590081,0.845501917025,-0.387088391873,0.612446205408,0.0506483117776,0.166893804956,0.216328828178,-0.648759258797,-0.149442459944,-0.841161501565,-0.16526977925,-1.05799491949,-0.111711322046,-0.280568894099,-0.216774504086,0.59953047636,1.03416360933,-0.677186250103,-0.561800855627,0.712822777153,1.20051730017,0.567199984069,0.232784232505,0.499334357145,-0.61414899324,0.218560408838,0.528285190944,0.286065975973,-1.05668006073,0.124223143114,0.258282545512,0.454942999201,-0.49450281786,-0.31923088266,-0.603874087219,0.510498853589,-0.917175344414,-0.722313983936,-0.205454291019,0.0470460039811,0.24280717137,-0.571451395749,0.8258397803,0.814351846213,-0.227545489876,-0.0421015281061,-0.0137630261163,-0.615101283793,-1.44315524373,-0.16736144236,0.379814327826,0.16871010575,-0.555222762092,-0.417501256891,-0.745949029567,-0.0343108969371,-0.0832061306986,0.148630302409,-0.46949370693,-1.09658301338,-0.809224649819,1.09011222709,-0.135637200925,-0.153154382101,0.182336956148,-0.339443091798,-0.176528768971,0.757997940657,0.161383849867,-0.645650611617,0.178700619108,0.466745978084,0.922249715685,0.794414192912,-1.15824607763,2.01475864592,-0.882413156384,-0.0383699937992,-0.479376417875,1.67261000989,0.319984887576,0.908020025221,0.818592949777,0.0455209175753,0.4449257737,-1.28829016563,0.499693969629
-0.0697844747447,0.0208137075615,-0.444182450217,-0.302072262052,0.715366404632,-0.248646724112,0.85511760108,0.905334521346,-0.38602594068,0.641081615663,0.555464154533,-0.737729321729,0.129933080097,-0.0123769312742,-0.343785260555,0.154909848688,-1.0423539083,0.265366182,0.316947056876,0.953971511746,0.324920796098,-0.85726269979,0.0156013786982,0.6422269433,0.151596498854,0.408762436271,0.773491911121,-0.0659140756898,0.965278003722,0.699368622177,0.220307865965,-1.19034018331,0.894002238033,0.206410039629,-1.21149995205,-0.567681046903,0.725689920554,-0.145948726729,0.0863302673931,-0.540317112406,0.142160590412,-0.532041669171,1.04285337232,-0.593790806851,0.359673248914,-0.802009408414,-1.29917018943,0.455728036133,0.572886080286,0.558456638359,-0.568460918975,0.73465811698,-0.453190408076,-0.277775345144,0.615685383638,-0.644976480823,0.116126525305,-0.937525104426,-0.102432216108,0.491749165181,-0.971297417787,0.000263453362788,1.28296607569,-0.501769655139,0.814915028827,0.14452628758,-0.530298116317,0.457622625742,0.416784421018,0.247744334204,-0.845476853736,-0.106099768739,-1.03890559229,1.08426857634,-0.985727945099,0.126097613827,0.0363416487207,-0.507939515518,-0.105905303839,0.538702349853,0.518333837916,0.124298353566,0.46565882003,1.29304330725,0.490055315301,-0.265879177954,0.144624640979,0.551382841191,0.729126150613,0.844836957021,0.0946283000528,-0.869806185189,-0.0560485076469,-0.738125739798,0.0130036450326,-0.155801463926,0.481309490349,0.104217477505,-0.877747613488,-0.929381791574,-0.95625215191,0.832484561012,0.648796266653,-0.093177298553,0.0505509218919,-0.180143838443,-0.580477637255,-0.234345489608,-0.016885201085,-1.00749794739,0.876338417109,-0.860900033145,-0.258111920434,0.571519649096,0.0453408672324,-0.120892470345,-0.263184815104,0.110309674835,0.0171056017432,0.0928685087005,0.205834966928,-0.134881567788,0.213524029244,0.698405997353,-0.0612958505294,-0.603756350187,-0.999139699958,0.363648434326,0.27247850324,-0.638232948095,-0.547738019773,0.409320403627,0.269304931387,0.320267416208,-0.72481583611,-0.68470405955,-0.757319946221,-0.393980822678,-0.868719955408,-0.196481916202,-0.0979902759544,-0.237344299616,0.909540933993,0.493026082466,-0.110829359625,-0.489049032126,0.471382850209,0.390045861768,-0.138686544106,-0.728342825356,0.786170972337,-0.489042803805,-0.160239498952,0.467690533148,-0.0775730078877,0.00905651483573,0.53620786972,-0.715797280846,0.449854433768,-0.500282187215,-0.194268976238,0.260050734015,-0.142543654482,1.00326441859,0.62980888497,0.332921280986,-0.23945394267,-0.46315252824,-0.116067511225,0.658963402193,0.283005686777,0.630134820619,0.324623215265,-0.0126442993274,-0.570717613801,-0.800382941659,-0.15568034366,-0.473304060122,-0.771419851685,-0.294189911449,0.796671592706,-0.352667799474,0.15596529112,0.325629513174,-0.67052578075,0.219223814622,-0.893047154099,0.40829902831,0.861404778854,0.792062177289,0.187125781039,0.803982969724,0.65912220072,-0.319216764984,-0.245914945507,-0.194814204071,1.0521045487,0.109441985872,0.0631386267671,0.00949414878053,-0.959689238587,0.124269751138,0.274947351082,-0.0100067554115,0.564254814457,0.635850632018,0.122021401573,-0.197054918334,0.782052779829,0.766790541994,-0.130244284811,0.818288212865,-0.442977949545,-0.65159394152,0.39375739533,0.691848051537,0.692146821985,0.100198278183,0.370989722905,-0.805891048475,-0.788713472369,0.158233226702,0.570387688629,0.0340731774578,-0.161225988031,0.498356594083,0.107203469296,-0.309131741804,-0.558106624093,0.640842832054,-0.175033778957,0.32675785396,0.292032843671,0.521157522185,-0.309942259434,-0.0250732738586,0.807990238385,-1.02721555208,0.317991358605,0.623761965171,-0.660855323222,0.658094082412,-0.046101351258,-0.0500464810391,-0.508306211183,-0.569967209755,-0.086647534782,0.826504842297,-0.455588055804,-0.498963455084,0.13855561435,0.640443378765,0.956313635412,0.747884588745,1.00484680431,-0.528212527802,-0.702537713178,-0.638351183845,0.114677950672,1.14040219568,0.257268372184,0.482110646767,0.147269372521,-0.23427174597,-0.524038480837,-0.284643777334,-0.0792674928214,0.292278779663,-0.323042547826,-0.261794079917,-0.285630004567,0.520300033815,-0.766696378721,-0.0306990091223,0.0875599458307,0.727236297686,0.110116556116,0.0936019116178,0.471940725595,-0.791963724667,0.747133417274,0.429675436271,0.0194425032671,0.507932920008,-0.406496978925,0.526489267267,-0.205395822222,0.317278648884,-0.748046376323,-0.0311954931075,-0.214343059686,0.783244486921,0.518188585271,-0.136182366114,-0.207632594746,0.497069189725,-0.0847787261937,0.497914886476,-0.951634147303,-0.750919611011,0.822491601843,-0.110846558992,-0.286852215204,-0.0151159740372,-0.736103156118,-0.431900917128,-0.861102504184,0.245997959937,-0.223375349389,-0.766044069134,-0.822290098297,-0.874924559272,-0.730490548698,0.944719983905,0.103532042279,0.108279926606,-0.173227559215,0.800408267136,-0.181094834164,-0.954807742503,-0.896965408316,-0.344684160877,0.277059080188,0.556109641935,0.362434293386,1.08443036939,0.640880482936,1.33187559936,0.722464416256,-0.38177830332,-0.0858714674796,-0.273420072066,0.334299313384,-0.444537773271,0.248521547487,-0.592447149651,0.0732553426973
0.75120439906,0.138976077125,0.812470102666,0.203345967248,0.517503148496,-0.617520457939,0.546101179754,0.976925176513,0.702356260252,0.192959547232,-0.34464054799,-0.298567543712,-0.586479475807,0.57904006769,1.01664950219,0.279883487614,0.318211262228,-1.56836291423,0.878641107999,-1.15462545227,0.361563077868,0.948159799915,-0.450249394787,-0.393539608492,-0.275257135585,-0.0503475991569,-0.807616228566,0.792390928317,-1.10402261145,-0.614673733502,-0.219053108549,0.558523528128,-0.0616713432802,-0.0956922562084,0.313174751628,-1.22341284454,-0.106995075388,-0.788801199725,-0.197460571505,-0.853266830316,0.0359797020878,0.460424319068,0.515450949694,0.327483402652,-0.410462504991,0.897457882098,-0.859218957967,-0.566425341912,-0.713517618775,0.688960366713,-1.06902176185,-1.2264817742,-0.816518351043,1.42077853554,0.803610258888,-0.0880091703765,-0.0884884111587,-0.637818633856,0.630244005193,0.36709023296,0.474828668592,-0.535427445671,0.705108606431,0.28098895186,-0.390614850748,0.689803693688,-0.631865888277,-0.401186287267,-0.379805575263,0.419506100365,0.561848187292,1.14748785034,-0.044149452929,-0.134513351575,-0.931902336232,-0.901674034957,0.657001070933,0.00171549949284,0.4139030993,0.515319232824,-0.881959424523,0.0302572603374,-0.0098595087118,-0.043379793008,1.15947272334,0.694934108661,-0.467497999951,-0.48729518237,0.962734869686,-0.288988126885,-0.394448525654,0.995081853926,-0.321168769908,0.648910791273,0.990546874909,-0.932169136316,0.665406392845,-0.192249397884,-1.23028095412,-0.568327826086,0.53837999542,0.0759811561145,-0.387873856271,-0.837760565416,-0.209384754176,0.12529733752,-1.00880743221,0.246694801637,0.528521124247,0.3562104664,-0.105766542545,-0.706882949406,0.028624259487,-0.545429741828,0.715239850553,-0.551982803739,-0.488476561889,0.519982047545,-0.449578981886,-0.282490393394,0.411922714697,-0.930445626317,0.302170245364,-0.510591799366,0.419102153011,0.501185432227,-0.905089826921,-0.141262991361,0.469948457624,0.290859373875,-0.168896049661,0.333751888089,0.400599312155,-0.773624828812,-0.0480875334665,0.237050728628,-0.369004626897,0.112332050514,0.9103602367,0.810582359505,0.320839576024,-0.591987323222,-0.528204575845,-0.25998225666,0.500715673142,-0.331444850327,0.427735440007,0.481690269957,0.401311975301,0.655303685932,-0.0194879789753,0.0450659401889,0.730193979829,0.745219981738,-0.376353231291,0.623355214793,1.21336465602,0.832975060255,0.866147985027,1.17595184717,-0.0722395822816,-0.408217311592,0.880751060099,-1.0075969627,-0.827103668904,-0.372903211098,-0.0306394199117,0.388409552354,-0.0783329336992,0.130809607901,0.44620101306,-0.111585453978,-0.149492273278,0.640515468159,-0.644990008693,0.0226159447278,-0.794961428361,0.422389448238,-0.268573376321,-0.0133979220027,0.210577050722,1.0462945731,-0.898583262465,0.465581724999,0.262771079249,0.185169408835,0.137393962374,0.104641930961,-0.698222905074,0.518627081992,0.171280918312,0.0764085449661,0.298055027161,0.378761234641,0.332774360844,-0.24644505243,-0.264778388441,0.655289410708,0.0809757129263,-0.368394126518,0.0653753079573,0.236590459973,-0.951108997404,0.239011896567,0.418998643946,0.549843584925,0.673672788368,1.00616555462,0.188148198612,0.697596193127,0.054326649334,-0.391248300654,-1.18554844646,0.214053124833,1.12804369199,-1.20223531532,0.512693410059,-0.0538574605624,-1.03769030226,-0.875094839844,-0.49634931948,-0.0415760256164,-0.206884645033,1.049069542,0.1938965507,-0.334870171697,0.104607138291,0.713700854297,-0.49855761985,0.229875495196,-0.466370753807,-0.367626800516,-0.939118733558,0.136170676776,-1.10961741334,0.561406256732,-0.841256754698,0.478140521222,0.994171789282,-0.316627487056,1.03350949629,-0.111942157454,0.0165659491743,-0.00992239006907,-0.36541973159,0.072767854433,0.742526263461,0.333367304358,-0.00769220758719,0.096295791152,-0.368758217191,0.689416847762,0.780842299717,-0.850697761762,-0.171727555394,-1.1855420578,-0.543847491301,0.454271913913,-0.631782925709,1.21781976028,0.503227826155,-0.573796470713,-1.05278580199,-0.398863225239,0.142443050982,-0.372399892859,-0.385200267966,0.698782050018,-1.09712006854,0.385013503956,-0.27202238799,0.00126173041497,-0.0741598112777,0.508301416327,-0.366150890748,0.510200088502,-1.06156163799,-1.32825719588,-1.02301714872,0.218065496553,0.647763852206,0.207687737892,-0.617380638776,0.544550358307,0.933696512052,-0.571802044825,-0.99636387209,0.530713190381,-0.877766790482,-0.352619695352,-0.0469805246257,-0.43191800059,0.14132715132,-0.988635182227,-1.35574529523,0.286454482187,0.365789104685,0.750890151185,-0.655144788727,0.39932124354,0.900683976893,-0.818222775683,0.242292872957,-0.758326062847,0.216383941316,0.811158812509,-0.965526721495,0.387034339549,-0.506386648367,0.531550534663,0.846049492346,-0.656128418271,-0.430835464258,-0.0653769426685,-0.649766729683,-0.140900902541,0.24372645092,0.628038914601,0.209315686851,-0.022494843685,0.133528256471,-0.918633291541,0.315990761754,-0.294040601132,-0.315076356954,1.03300912214,0.00789410527671,0.237594886598,0.161833417484,-0.975014162215,0.318922324998,-1.04156377828,0.830403299271,0.727375165602,0.691966171202,0.931451550696,0.182819524363
0.0313406589663,-0.512983345744,-0.0372868131446,-0.603316626293,0.82442510517,0.839808071383,0.218471080595,0.727217969683,-0.538646054285,-0.379386899224,-0.0820933201819,0.519402472375,0.557923846502,-0.515253935292,-0.679101543632,-0.800869021408,-0.255540817586,-0.701988143627,0.955754822546,0.116546578446,0.82591811981,-0.744447767387,0.0836974972031,0.695295188714,1.07895665461,-0.662616930162,-1.94887468399,0.532723267359,-0.887133757887,0.760404415093,0.872356263572,-0.801812717185,0.0198286654258,0.0924261773649,0.458974921816,-0.808968611351,-0.00292167645294,0.75459193156,-0.762462916928,0.344768414538,1.0276062141,-0.766360385524,-0.597531885946,-1.18069366002,0.687566090706,-0.416526309525,-0.0798498755427,0.226587990965,-0.0117177693521,-0.524629149908,-0.26563084139,-0.931424697499,-1.10281886309,0.223792672831,0.00122593546916,-0.357989677644,0.816739343332,0.0960047501202,0.35994805625,0.359143768552,-0.0652744261017,-0.380491606748,0.0866951344889,-0.219140309328,-0.156852588396,0.228867227934,0.337130635853,-0.291290779666,0.467796276557,0.901307343526,0.226306850166,-0.678103779389,-0.301766979529,0.259424419155,-0.900393234246,0.891322997675,-0.0782575010166,0.372918288177,0.0237476450633,1.18978834042,0.559507527038,0.863966697171,0.309924001562,0.213427489708,-0.190875487021,-0.351025187091,-0.318930819137,-0.339519158318,-0.563915175413,0.835162372017,1.18367931747,1.49679432146,1.04499649159,-0.0654536755353,0.524562414507,0.969279712871,0.0847983684688,0.600779609857,-0.742086997752,0.583594645127,0.664778531696,0.683158485135,-0.468184418637,0.320466196449,0.37083409988,0.536502606806,-1.26104229554,-0.975759322993,-0.234421678142,-1.13635473208,0.109454589059,0.394534429391,0.0339852746265,0.298986424795,0.345192732133,-0.714719545289,-0.0845889674297,0.589450341984,0.363347512561,0.511837430293,0.133548456392,-0.83574910394,0.226845475777,0.0706984011463,1.16974164375,0.149768277736,-0.903078594343,-0.582861194504,0.218983353654,0.34296556942,0.643625507281,0.704677946531,-0.198973603281,0.698486827394,0.273275344412,-0.735734537337,-0.433702896596,0.131728737662,-0.542943870546,0.998700680767,-0.156758760632,-0.457193681379,0.469336863727,0.778530531759,-0.597368232407,0.329214232839,0.624408307354,0.882430409722,-0.0816281399874,0.698394829084,0.737530233989,0.140968412244,-0.405112376818,0.607926947875,0.39675706487,-0.236691850527,-0.634819945918,-0.944142281808,0.393118427988,-0.44201523724,0.350615142296,0.12455151505,-0.509513662653,-0.648534778941,0.268364776595,-0.0066412692892,-0.163643955287,0.0774002112241,0.500045279662,0.337964744738,0.469662787105,0.0500920451503,-0.131246605823,-0.119403773544,0.356284249982,-0.444560413195,-0.436940860786,-0.018091093115,-0.699204126008,-0.0366209166602,0.313757804861,0.848498171203,0.201722579958,-0.649744309568,-0.506881527155,-0.391410598277,-0.0179783535485,-0.817695752273,-0.235369662985,0.631459005045,0.0768520496507,-0.200552361541,0.849977496192,-0.547057428865,-0.393163360907,0.946246494364,0.491096129326,0.161703722934,-0.673031785703,0.435446826757,0.330924993714,0.194674272076,-0.0903584532789,0.406176544491,-0.799472700754,-0.533629533457,0.291196110678,0.646167731862,-0.951576177559,-0.299583785513,-0.512455707138,0.809245527496,-0.673984728545,0.164527279727,0.412205211216,-0.336808064139,-0.834503814113,-0.195654201984,-0.408960978218,0.461390237876,0.449848398226,-0.223356883273,-0.36166519206,0.547106007777,-0.153310055763,-0.188852696043,0.321754013619,-0.563499554029,-0.681069923483,0.294007794977,0.629861938731,0.221258469527,0.793087021862,0.601500036149,-1.01663933507,-0.0628621036884,0.0592274365995,0.490393854398,-0.800006648084,-0.161063095572,0.817141109667,0.250911347786,0.0776211862811,0.61850874456,-0.339206237696,-0.113238215236,-0.724984276687,0.440558839895,0.22215265739,-0.0962922417347,0.902451972802,0.229000100284,0.185169519454,-0.465977502802,-0.0748026250189,0.300316044435,0.286157766794,0.827230359668,-0.662281048732,0.668145221835,-0.265626020159,0.843604934102,0.0624624691373,0.930790926188,0.259332985208,0.661348278595,-0.735849509564,0.747056299486,-0.6150212087,-0.142593001527,-0.400205808178,-0.0176886036532,0.663196893739,0.250767138471,0.704964551148,-0.47759660216,-0.470914076554,0.0778604487153,-1.16903420765,-0.805274233615,-0.243752483575,1.26527888313,0.292138116582,-1.20854349314,0.151770737545,0.16068659039,-0.607551126832,-0.232401396296,-0.779786529167,-0.368953847106,-0.965403499291,0.611743861506,0.749691806338,0.673028298529,0.497837392368,0.0811343007301,0.0903923640844,-0.0744644552023,0.0268761413356,-0.866565124714,0.924802334412,0.624735625538,0.297605507638,-1.18017113433,0.463350777554,0.681171742493,0.516785642057,-0.139157350434,-0.0769166504341,-0.0207172160946,-0.0184038672537,-0.401805376408,-0.946302908615,-0.0349415002294,-0.271197746847,0.862743664303,0.143269024413,0.0898910154489,-0.960636500176,-0.264696869345,-0.190852384866,0.388885651628,0.364928711818,0.240404169462,-0.71074726709,1.31641195515,-1.56938596591,-0.99303304432,-1.52430220588,0.342007258881,-1.60052589273,0.748008101681,-0.497479651207,-0.782819019573,0.806224191765,0.611554231726,-0.239728722991
-0.563233844214,0.522688944336,1.01579723685,0.388360413101,0.654594602969,-0.38906040442,0.189224883461,0.258194963119,-0.446234270136,-0.699379307398,0.87209486883,0.161965422695,-0.213650030564,-0.410943940601,-0.861665351721,-0.35269686026,0.704869244422,-0.453962402686,0.378141965602,-0.066341891073,-0.402752931902,-0.0268988546572,0.0169629464011,0.660917073335,-0.236817158468,-1.09674293557,0.961511122506,0.657462833695,-0.918800446128,-1.01873262467,0.740166922594,-0.432478763208,0.153326994196,-0.413527715973,-0.0864268088865,1.03618340888,0.0377701690522,-0.42125395255,-0.438292393535,-0.773914553089,-0.0271390905921,-0.834310282315,0.562891452535,0.484309330555,0.602905602115,-0.775153383228,-1.36430842322,0.526656679263,-0.532397689573,-0.280873677779,-0.499672579375,0.0290999520934,0.664673777569,1.14139007493,-0.720238018173,-0.391664665166,-0.852987362744,-0.251358453965,0.656596660881,-0.533899760022,-0.253428567233,-0.0964824966,-0.107580623575,-0.802811620908,0.527677210436,0.44866950971,0.215722016018,0.160309643245,-0.347959144146,-0.707103804579,-0.882357542817,0.880480838688,-0.841820573513,0.280109186321,-0.194593208962,0.398715020141,0.912298344546,0.291986859685,0.0784792556684,0.784725627984,1.05994900747,-0.84339920357,-0.00332789993447,1.14327966258,0.199667242398,0.0507634924219,0.940236761484,0.495450446304,-0.661387818031,-0.424410595451,-0.552176544849,0.707352507253,-0.116025633323,-0.811545822915,-0.0964870415665,0.950838801585,-0.620289146567,0.879932994654,-0.739346046264,-0.0199788452456,0.401573628492,-0.833530836366,0.952176004554,0.000613375249276,0.537160346341,-0.437246655842,-0.0674000277404,-0.490162512745,0.46453064856,-0.0724741838005,0.802671930333,-0.821632182458,0.415739510119,-0.31797955371,-0.521704996381,-0.46621417674,-0.39717514398,0.347143026218,-1.11611873936,-1.63731420017,-1.49653193531,-0.830843198182,-1.19452104826,-0.705000174966,0.621173804439,0.718889926266,0.0783595173333,-0.584793172275,0.587298556313,-0.0145267669678,-0.157209980165,-0.558204072976,-0.790217773147,0.44442885298,-0.665140874662,0.511826253529,-0.792738272908,0.620013369709,0.127194002614,0.0920179516168,0.492224691722,-0.346145197339,-0.864911769539,-0.298434876632,0.596382297019,0.0221693783784,0.0856196941623,-0.40718269688,0.55754290248,0.0198987481356,0.27628900513,-0.79095651587,-0.0619712332538,-0.450063673953,0.812326699333,0.251927991436,0.216999575466,-0.0632522236927,0.970335413313,1.0227121988,-0.0636279123433,-0.583629226627,-0.231105438843,-0.858232592795,0.859150419034,0.964697016679,0.199177219286,1.01715550586,0.236381379764,-0.102841874661,-0.241953262905,-0.399349445265,-0.321581525653,0.473732411743,-0.650615945198,0.840541108305,0.990345938029,-0.914950000152,-0.575139910454,-0.165719895991,0.658232298466,-0.180275188007,0.0845067706957,-0.156938392263,-0.378005572728,-0.0105901028621,0.816605918986,0.896046773601,-0.776079110218,0.499028459365,0.560868361717,0.494095253951,-0.338010867383,0.478293405705,-0.538271570223,0.0664933834549,0.357573805312,-0.437880492361,0.721220906996,-0.403788653564,0.750625573904,-0.0603411020308,0.747764444159,-0.635645975914,-0.184071942837,-0.245844581939,0.429651489774,0.470255319003,-0.139318130873,0.0506114827502,0.258924991993,0.339630003425,-0.276922297832,0.480263944856,-0.231922991556,-0.958875135923,0.939241963504,0.0823824270661,-0.836162699725,-0.430399829541,-0.264091487635,0.537168592033,0.486981113972,0.311156287113,0.498074723302,-0.444821385792,0.500157817489,-0.161820628929,0.459194554521,0.321791218153,0.934873197196,0.537156353645,-0.294326927961,-0.918656409759,0.214188454456,-0.643990398195,0.482468984512,0.698681530338,0.634278237855,-0.298075037084,-0.814435003887,-0.485675898526,0.786660621974,0.358878435189,-0.76365438406,-0.227088585883,0.297155187383,-0.507108965563,-0.00329072677464,-0.856650449702,-0.28632275174,-0.739521720723,1.01018325134,-0.955176306852,-0.0668456812329,0.00238203419399,1.0312949166,0.520157998654,0.36576125217,-0.524760491673,0.112867158822,-0.299754298873,-0.0174667204938,-0.442371983475,-0.68524393277,-0.0942936987702,-0.747439092504,0.378329214138,0.0935865089147,0.457927500842,-0.115501967921,-0.283669912086,-0.247168738438,-0.9076569516,0.727615513062,0.527579385029,0.431581951235,-1.00462050349,0.58561325911,0.76379666584,-0.349216592561,-0.0462413920148,0.62079114991,-0.653270703307,0.0286507782417,-0.355593108796,0.216025847432,-0.903084797808,-0.813049386947,-0.526802192976,-0.375919171839,-0.816589726286,0.465084467355,0.205667430245,-0.500203939955,-0.15932856165,-0.525439184437,0.123004965685,-0.0893124271255,0.493234069668,0.0149627958351,-0.0212644769736,-0.49235175531,-0.483261331857,0.166224110756,0.385282332132,-0.0386795893825,0.68045253762,-0.139301129016,-0.255297852931,-0.949796341665,-0.781816984676,-1.06217510255,1.08996762509,0.417433238423,-0.203951099017,-0.340668011503,1.18636837196,0.962783209607,0.35014112751,0.578417039504,-0.755647584645,0.642363925781,-0.0595000117277,-0.0603239894088,-1.78419751654,0.588442985295,0.85594400008,0.350004753988,0.422746609167,-0.557391868552,-0.011162031016,0.450426942453,-0.245488076435,-0.648688168981,-0.389104688622,0.963234931286
-0.565917894848,0.320610290316,-0.176749153721,-1.01044664803,0.79532941281,-0.13529454073,-0.569137011751,-0.332640798323,-0.553689234416,-0.21594828159,-0.408903253121,0.9739381494,-0.559247729006,-0.135292906421,-0.105793265391,-0.422350807683,0.783236356075,-0.0439715161979,-1.0119391228,-0.560846752069,-0.760231773605,-0.451232834671,-0.448309188331,0.984238757251,0.816508136026,0.407752060596,0.40195507298,1.08095767232,-0.375557969557,-0.707222625393,-0.801439502401,0.0836491875801,-0.383166387583,-0.156630144466,-0.876866233226,-0.486613118118,0.830280737673,-0.190142938442,0.414229936926,0.669990593318,-1.26124079399,0.472313217236,-0.335760498678,-0.221101075174,-0.0867158537807,-0.0396984330034,1.00756073948,-0.48574705702,0.419042307852,-0.182115732833,-0.388490975994,0.617952051851,-0.739648792926,-0.297793309056,0.0899894786977,-0.358446141452,0.527561740653,0.260138107053,-0.959241883374,-0.915759007557,-0.758389852019,0.137711613722,0.184668454393,0.661552926012,-0.00101359780844,0.654997397684,0.467768612552,0.269444007175,0.420694353761,0.784748036667,0.402469780879,-0.0865091219374,-0.560596615453,1.00533584026,-0.526701356805,0.708617616192,0.359871952595,0.180688924665,0.245230908028,0.49463232598,0.476807980923,-0.436894001995,0.136275648349,0.809144286374,-0.253998889929,-0.307034674171,0.204181077317,0.671308267049,0.260182833363,0.694933067808,-0.270527411256,0.601663310684,0.11417410374,-0.390604859154,0.0911590885676,-0.212532522798,0.487868105907,0.185468553595,-0.927973858482,0.669600345314,-0.275776229361,-0.765308311802,0.179487719864,0.106984677495,0.0791381574171,0.730409545084,-0.427196320953,0.700143946705,0.382985106962,-0.832351224408,0.0119220325265,-0.91306372845,-0.295672919726,0.99071681522,0.530224848402,0.291041370268,-0.841691661459,0.390600814361,0.716083731476,0.283305054131,0.241383700375,0.432396281386,-0.0777024363889,-0.964831576867,0.572203920711,-0.81065469697,1.02035131322,-0.874773406543,-0.12434386968,0.551527137578,-0.554959800003,-0.352800489782,-0.757484716821,0.131553914695,0.366400717176,0.625740503694,0.659962148935,-0.615068965513,0.63316173391,0.0131619188743,-0.967259224044,-0.166636751318,-1.03104299097,0.840089632324,-0.872172081838,0.953492500539,0.194622624889,0.233869109876,-0.768218609361,-1.18968935972,0.204879458926,0.215989595291,0.391940714217,0.955581254615,0.90034206028,-0.148724961974,-0.626979324877,1.00893627537,-0.147934630577,-0.175502606974,1.02501527512,-0.896654552251,0.891052280612,-0.64440047018,1.15425713457,0.0679620704444,-0.353111427802,0.0572568280261,0.787758603366,-0.665667998439,-0.888173671934,-0.0186383403629,0.713426904683,-0.599651330693,-0.505818647694,-0.504357902566,-0.26869523622,0.524169557777,0.0772843522835,0.326246143241,-0.085577927962,0.668441081933,-0.791684566581,0.736159412844,-0.609212310566,-0.8518326872,-0.851302060163,0.763012899624,0.77916703091,0.546366708884,0.0657628485011,1.0251158759,-0.00999608921493,1.12940746737,-0.401471503273,-0.485852722403,-0.635787637825,0.560591341793,-0.604813909999,-0.215868542403,0.16451417431,0.815468427265,-0.0432891408802,-0.212571330539,0.599927390325,0.23500246346,0.256696263832,-0.301899074591,0.759523775909,0.660792140752,-0.740337353044,0.767000521521,0.0801999998578,1.10257468803,-0.0249153377142,-0.121562421324,0.766623868367,-0.499612019661,0.25874666302,0.0115715367679,0.968048610296,0.772375808004,-0.676792803595,0.263202650728,-0.452150717739,0.974069255752,-0.236296208302,0.196308617402,0.545202068522,0.306037773806,0.179749072203,0.432674470353,0.129354191465,-1.1874746634,0.855647496711,0.156498976173,0.691747040096,0.28358504499,0.650123861061,0.791477386479,-0.765675860168,-0.273747375248,-1.06511937174,-0.603436906744,-0.787736321707,0.037685824414,-0.585538195049,-0.308221167579,0.588344735983,-0.0599122158614,0.868536999536,-0.478853123934,0.973908836861,-0.659998320767,0.0221958804428,0.868752685464,-0.398585888695,-0.238829613966,-0.294467328054,-0.629102965177,0.981018220327,1.05731504824,0.367241640323,-0.392033602522,-0.769620155371,-0.274981518502,0.0589203153195,0.457206678125,-0.0333878840993,-0.224287310639,-0.740495701183,-0.654978352955,0.246378897342,0.325827720973,-0.683597316444,-1.01646351232,0.89175461706,-0.258575634394,-0.124912006091,0.244372846855,-0.121009600703,-0.662393815912,-0.581056896023,-0.183951684821,-0.699385745787,-0.234712917501,-0.325591035748,-0.276523428516,0.580430721614,-0.165660837286,0.1189476321,0.146553212783,-0.59151584335,-0.522970056883,0.377995050395,-0.2774116573,0.397534189346,-0.0619338867544,-0.329639218991,0.565782358468,-1.01431206813,0.615967490761,-0.00373872357593,-0.505651786196,0.944314563539,-0.619719807182,-0.677984657086,0.00318892085663,-0.593435100816,0.197941881913,-0.759398291345,-0.00132843877976,-0.0733228164981,0.796851447875,-0.589242683121,0.239307242342,-0.495446887623,-0.0964234643542,-0.497693675774,0.48061769837,0.0838850908661,0.788125000277,-0.516621003267,0.239293194861,-1.32447824223,-0.637320026151,-0.292138976225,1.05622522788,-0.748482085655,0.243056370521,-1.11893414052,0.372281331435,-0.740787605081,0.961594358286,-0.0241007536864,-0.0960356135381,-0.938614811409
-0.914860567004,-0.250878613387,-0.348117152731,0.894447542453,0.466018487815,0.949031613356,0.900171661855,0.758120075505,0.38444225056,-0.528004794192,0.183809885603,-0.295839787206,0.499340972668,-0.0209880512725,0.483937322488,0.299709480141,-0.875828503637,-0.262265807609,-0.84370009351,-0.502228875058,0.819355908753,-0.7800421567,-0.48149480669,0.137349895527,0.672556828739,-0.320988548218,-0.2015460949,-1.21298689996,0.161532537068,1.0726004051,0.305184809892,0.804096665336,-0.254499784075,0.466572668259,0.174243188889,-0.610144939922,0.758019163059,0.0976603205273,0.652339005701,-0.348377847214,0.537999176101,-0.0692550547853,-0.753567917756,-0.428817872201,-0.205157276436,0.559712547636,0.568008979289,-0.00478043819268,-0.214558046512,0.537248224618,1.01868843208,0.614071232146,-0.100076640266,-1.1299683931,1.24058585992,-0.151830850996,-0.380280099577,-0.448627279241,0.598109482455,-0.480056821517,0.271898725993,-0.0646183910439,-2.51386312146,-0.0452868693544,-0.535666471166,-0.201963065028,-0.0592602965668,-0.380046603181,0.00861054938491,0.27345349883,0.675073978286,0.0728806021992,-0.514853093567,0.47888480472,-0.0596932107301,0.614304915772,-0.66216464507,-0.499846337215,-0.578902578489,0.228980893075,-0.00194949705922,0.353627195395,0.616825633631,0.0436816583469,1.09043697587,0.427918780522,0.445368260065,0.665305094587,1.16656474211,0.30940154622,-0.522726682737,-0.245228389189,-1.11111471067,0.0701382888307,0.569061095852,0.355533604932,0.317197024003,-0.728461287412,0.0501890918798,0.336733612776,-0.106534623488,-0.61323197332,0.989573857142,0.535200135444,0.191089552108,-0.901385643355,-0.625633695989,-0.978080308869,0.720691864666,-0.772087904633,1.06954476942,-0.311068543484,0.403968747708,-0.544011899026,-0.859455238924,0.432132500233,0.324678040449,-0.247683150281,0.352181862571,0.579094265386,0.087002702576,0.65811214474,-0.75279611643,-0.898153236957,0.650852230764,0.122526505678,-0.502090739468,0.0313018423902,-0.631149534257,0.788981542914,0.764835233189,-0.370269849905,0.796066500014,-0.811776081448,-0.81661713485,-0.273087475797,0.554898436608,-0.490784936701,-0.181451148292,-0.487044680595,-0.00633111593142,-0.827718747065,-0.975657251022,-0.365884260853,0.705601666111,0.366184372223,0.210459808457,0.340374465215,-0.0962494725837,0.473899113653,0.601401143272,-1.05376518878,-1.31973841693,0.540818477022,0.137884641334,0.377080354369,-0.317689167641,-0.706402633163,-0.536103175502,0.487304219031,1.02391727417,-0.354706803204,0.327028539134,-0.902743333175,-0.677501275634,0.262779422766,0.174559635069,0.235892548249,-0.193891654283,-0.162407731386,-0.240001443207,0.284470195892,0.327296598343,0.588736838437,-0.244129070545,-0.46307700668,0.523283514396,0.115404472277,-0.839335659622,-1.00647356987,0.379933327968,0.721297810016,-0.760090468391,0.617394111814,0.79077579194,0.798191910033,0.136909598559,0.298767358509,-0.166214170367,0.0173850206061,-0.220701847035,-0.0538302579461,1.11832090402,-0.0427038588927,0.325663483818,0.432851841566,0.448886794644,0.842607458892,0.0345147983714,-0.477398893904,0.400156373579,0.0195999792897,0.115518262564,-0.332338933952,0.00364420566585,-0.366114655695,0.500244912425,-0.212203655462,0.819098444794,-0.5450620657,-0.417659476627,0.161257951855,-0.0539167249059,0.891789342607,-0.392879504802,-0.540425291674,0.351904210227,0.319966878208,-0.800161517998,-0.548559144646,0.0608584839986,0.317628142081,-0.223886455499,-1.04831379461,-1.11062439808,-0.715615323009,-1.22210719006,-0.746448660848,-0.911148853455,-0.285748234979,-0.642403642912,0.228681298608,0.589759143128,-0.105318088344,-0.482953459967,-1.0030540454,-0.652222991032,-0.303142193829,0.292553870221,-0.984338321447,-0.545575654228,0.468036465988,-0.195277829675,0.245737516707,-0.818020783378,-0.0620820322143,0.79273817397,0.801822413358,0.756559845955,-0.624879327229,0.8724766627,0.593227595365,0.844982786865,-0.24402206747,-0.646604463291,-0.184725549501,-0.309077768818,-0.58479072242,0.509427142106,-0.206892764516,-0.392974043691,0.188790028136,0.366412396071,0.748077473054,-0.387846924548,0.312780585185,-0.819110395407,0.749606720824,-0.076790556622,0.0243868898767,-0.257939893985,-0.246669182276,0.435200001643,-0.405060573729,0.555738360056,0.264744576536,-0.471449094579,0.142926094897,-0.0406986946954,-0.831800455556,-0.213399214989,-0.229319834584,-0.214295634474,0.0932755063916,0.121712064931,0.630771604089,0.224154188697,-0.747059673945,0.185925391049,0.336854423784,-0.610369436929,0.547796141098,0.248611316611,1.05432396905,0.0809054437536,0.408848185239,0.378396617455,-0.123892144637,0.9278327722,0.929018361826,-0.457203140471,0.951648781931,0.278624295275,-0.52247138862,-0.319799053714,0.17282655934,-0.444962088512,-0.137332617876,-0.859265739794,0.0278332227051,0.574020039336,-0.288354879827,0.582042750448,0.0279202751542,-1.54308259417,0.348586357806,-0.320335952466,0.449016272503,0.379239009138,0.695361643418,-0.468442000807,-1.03525899871,0.28904960594,1.03800493198,0.880058034405,-0.603068389483,0.64680439662,-0.436306162607,0.957489821625,0.630979127995,-0.047323338868,-0.417710022938,-0.169636629128,0.477623704853,-0.100478847323,0.186956245124,0.596008989286
-0.162890861438,0.0190957973743,-0.53294077287,0.662283860951,-1.03543434631,0.0392428767338,0.694136365071,-0.390534720913,0.691672593046,0.300709940228,0.688930625057,-0.521311638704,-0.0326848054125,-0.844818047122,0.472081296562,0.854572087667,0.717102712673,-0.98011344479,0.288052005402,0.000942758126133,0.24387989827,0.245988162165,0.154072180276,-0.709888834364,0.412982356771,0.914489306388,0.188562612652,-1.18125506803,-0.542123781097,1.35060046176,0.00057375029667,0.382160622389,-0.676084694528,0.616436447525,0.568252075653,-0.773497297894,0.795154333359,0.241473084061,-0.22743975836,0.38532411594,0.129669332272,-0.507067377262,0.213326814224,-0.584625454008,-1.04201042155,0.915089654992,-0.369408502799,0.438465812846,0.400885189779,-0.0654133829208,-0.0964131441433,-0.210218462019,-0.383337905103,-0.596533773345,0.748179069823,-0.683408838265,0.931601777704,-0.316712234268,-0.428084992016,-0.317550185003,-0.422768666619,-0.141646298218,-1.02562757904,0.043552486604,0.381068471517,0.192191064124,-0.0105788271385,0.582022178704,0.612751687327,-0.408072518781,-0.145886869585,-1.06426010908,-0.598848700373,0.742782676865,-0.0278354659832,-0.703010211896,0.823178494522,-0.357624184841,-0.238154041602,0.742843569004,0.0631386982818,0.520414482722,-0.672210071642,-0.729292984719,0.896285513582,-0.889902903072,0.779427728367,-0.138065550174,-0.0980895369883,0.0463004366034,-0.114672873777,0.29075761243,0.495027435165,0.542073720351,-0.0792171484305,1.02494013298,-0.494707380738,-0.406752567472,0.806372662717,0.513920119082,0.0989966343588,-0.659513806656,-0.683113197673,-0.845557395295,0.320777930104,-0.249562341526,-0.228354267107,-1.13627809348,-0.0318845165933,0.274549528157,0.543055930009,0.0528111561145,-1.21080984212,-0.349195165703,0.890795187496,-0.43328627095,-0.0317248551781,-0.121680557484,0.714806375473,0.778319165664,0.287101987994,-0.15854351788,0.49396910699,0.05901776786,-0.175268264185,-0.146005608085,-0.00306545430321,0.260516513918,-0.122883946151,-0.373792787844,0.52228215411,-1.05402477244,0.296522802595,-0.875488368733,-1.19896232853,0.909883306991,-0.604442131391,0.740568405305,0.0441804302407,0.906952686479,-0.448007949644,0.36946286146,-0.736107008413,-1.39379254822,0.671568315471,-0.639336082564,-0.862932076305,0.466694907803,0.278001658896,0.100228240756,-0.632647131324,-0.0885564928612,-0.845725916444,-0.0834790292306,0.667819391213,0.199274285443,-0.0391090529001,-0.447991251665,0.255652583871,0.733831000428,-0.090584475537,0.0604820717708,0.503282920926,0.79615864426,-0.752419009336,0.721093949915,-0.350307545901,0.748334178791,0.946100840866,0.85805163987,-0.641973577655,0.678857062906,1.28462897466,0.666327806367,0.648120169946,-0.361340477351,0.261179435755,-0.797971837819,-0.588451953266,0.214544441701,-1.03246437866,-0.594809563463,0.0921917466943,0.149558081112,-0.0931433522377,-0.00581585896585,0.790359709308,-1.14005710957,-0.87482149443,0.738836320318,1.1059235433,-0.180137795154,0.833484919561,0.87217375283,0.555722505,0.060905941991,-0.0804742319055,0.129177876977,0.0482688033627,0.629367326288,-0.610497315002,-0.132793622023,0.903454844418,-0.133275850607,0.530821427707,-0.577553684275,-0.692134843594,-0.606417461731,-0.418181880119,-0.297923447911,1.01226824139,-0.604170750585,1.08143226817,0.324676049512,-0.842593448883,-1.08567955409,-0.235751162858,0.369755903922,0.0387982940479,-0.2860431955,0.0854115820059,-1.00154004048,-0.260721138725,-1.22738412638,-0.525202755319,0.689654991186,0.409855765119,-0.27103438002,0.0948613800179,-0.437639088119,-0.563124217287,0.838161512333,0.402403026365,-0.502242538709,-0.897396742415,0.881147717948,0.645949697022,0.1688158425,0.0320519137365,0.530850288125,-0.78248565963,1.18464808208,-0.354640549156,0.231967107009,-0.727011051591,-0.723357163635,0.0856941050263,0.387859907101,0.691132367232,0.390345516931,0.432479662617,-0.0519603846469,0.227533130678,-0.479385221507,-1.15060924884,0.790039469205,-0.810250200502,-0.252015354432,-0.518598838089,-0.575546335857,-0.109374245588,0.716368773525,-0.93332699658,0.833745559617,0.447593410435,-0.227383773261,0.223069673694,0.285515109145,-0.839270085194,-0.699517684772,-0.688490636547,-0.238907283793,0.483949650115,0.0842482157331,-0.485965308477,-0.154708033877,0.490605044053,0.948752883751,0.957710892238,0.0746077552993,-0.485770806087,-0.496209275245,0.380803555724,0.626948113498,0.462645123949,0.0638888594332,0.503760243105,0.630951055205,-0.240948351944,0.0721130023026,0.103972454361,0.209966719919,-0.461396177337,0.0688402126678,-0.0461489586171,-0.229686237962,-0.635777443503,-0.426966278039,0.368080642227,0.0734931965259,-0.806206038595,-0.143150286125,0.0147355328586,-0.590062444574,0.125388195644,-0.47296205357,-1.00795890637,-0.567444130626,-0.316262554296,0.316222761683,-0.262964691698,0.933475551719,0.383703236861,0.13857935969,-0.928694468105,0.759635354957,-0.429514903723,0.475152479523,-0.521774551165,0.0541675866948,-0.556263286986,-0.481869808183,-0.0354636242941,0.475867168844,-0.142660830343,2.16560434435,0.404202835292,-0.872458588865,-1.28580402185,0.923430054593,-1.44376219461,0.442943136522,-0.588609198799,-0.968600236656,0.0126034326805,0.4178261515,0.50111796871
-0.541354571278,0.788948385296,-0.056646668461,-0.432000521605,-0.698505475092,0.501731718392,-0.579496350121,-0.199579315483,-0.210537719913,-0.24910680551,-0.450741481429,-0.512568653428,0.644141872866,0.265140936229,0.336025350849,-0.00122044674705,-0.315186155275,-0.0131709092375,-0.318377427288,0.644057344013,0.737603259756,0.637861868785,-0.602131541297,0.178550958182,0.867581468281,0.626904612951,0.971385143588,0.531659590699,-0.39828159027,-0.174917561079,0.535039035551,0.797249780404,0.891924037644,0.642087447668,0.0530398048976,0.954825007453,0.233432098014,-0.366138434062,-0.0835149830518,0.328775035732,-0.404779106396,0.0232012864932,0.309901267558,-0.805829848006,0.583514457787,-0.436444945563,0.448000303252,-0.665063706264,-0.215800884307,-0.518790367331,-0.440743137598,0.913691263772,0.207720947533,0.522064139265,0.482615344838,-0.195947913145,-0.349774487733,0.715123864061,0.903296951619,0.926407876011,0.849480932143,-0.662326881443,0.90560831425,0.193250859094,-0.781675128846,0.171946870519,0.0697775075931,0.509097771956,0.151292747079,-0.320210136727,0.0979958291657,0.258919817509,0.0639010614635,0.806492974577,-0.452559614026,0.985257357175,0.824315159675,-0.832531753143,-0.736347771158,0.921018717797,0.907000855195,0.588168996013,0.982692813276,-0.00369963643052,0.817228106834,-0.801492899612,-0.336545618233,0.282265980614,-0.0736845645658,0.0347669986813,0.921378533761,0.508156853913,0.602396687752,-0.0981272168186,0.0703799380897,-0.74656340945,-0.791947977705,-0.117804732885,0.752935559009,-0.112377905485,0.434107973495,0.269066213981,-0.251357911906,0.982850645248,-0.896151512829,-0.727911741939,0.734420639573,-0.0068514340065,0.640356504213,-0.402036029903,-0.22296871886,0.939027944875,-0.131937890489,-0.532901308423,-0.561770325596,0.243644100206,-0.207880285492,-0.707696670737,0.992156791681,-0.776365031029,0.926283520559,-0.313750268732,-0.378160287709,0.245185389156,-0.0139473996463,-0.947937088612,0.311728095704,-0.423916163039,0.0282821745535,0.262468405266,-0.386629607209,-0.0667565403261,0.468832936364,0.537956386328,0.359079175795,0.890347469833,0.721906313315,0.220287665528,-0.299837771313,-0.601191779861,-0.497989494635,-0.838468317926,0.96836253313,0.677363494876,-0.0487723842806,-0.139841925526,-0.626838884392,0.821419328886,-0.856528501213,0.781132628309,0.577670924416,0.497495995941,-0.766841396023,0.239036840249,-0.596198756246,-0.725524524548,0.951307275108,-0.247299983131,-0.489560228485,-0.827952990594,0.466893080331,0.576139585808,0.695616727646,-0.136959473651,-0.420161638998,0.680383724056,-0.57198308354,0.165566323487,0.872255218093,0.767194057017,0.546968965986,0.468263830006,-0.0159499741732,0.787152016061,-0.0241046769938,-0.771667111071,0.553178057089,0.977501949922,0.705913129558,0.559201740239,0.209337005122,-0.73398482002,-0.0916328417364,0.255028459538,-0.649311707842,-0.868317452286,0.241384554336,0.0423093767844,0.922548901849,-0.458565569309,0.448246072769,0.772782720851,0.322706071062,0.126032165276,-0.0122376379522,-0.260724321009,-0.456276451943,-0.877160887359,-0.099893598193,-0.0524057427988,-0.331053160787,0.827054278805,0.850704034182,-0.839131890694,-0.567633132587,0.713342822432,-0.391127430542,-0.049399902684,-0.183075155804,0.266414506779,-0.5183657083,0.430444247735,-0.673399740397,0.846125144539,-0.0980181357542,-0.630300966139,-0.497555228493,0.323586686912,-0.205558007397,-0.0916956010628,-0.0878117718276,-0.283482915331,-0.84293058194,0.930312645851,0.9821691266,-0.369830308884,0.165771076284,0.540087337679,0.585540513221,0.491675703041,0.126627937401,-0.985902560586,0.625930330691,0.0522337383594,0.43888057834,-0.959146121031,0.676382761327,-0.30937186596,0.194974224163,0.497600326187,-0.342566833345,0.100703286405,0.0312652361232,-0.355595632355,0.626438822346,-0.698096203789,0.0741236136303,-0.369371273354,-0.485882987861,-0.459676947027,-0.00302387459249,-0.279090941002,-0.538936165422,0.463582380502,0.347477513344,-0.218238201803,-0.00225252069626,1.03345184993,0.237539257568,0.683322975779,0.432598769687,0.121424696106,-0.0851143987759,-0.162519982911,-0.0589928338678,0.183336350797,0.809856742558,-0.900621591095,-0.449810774522,-0.0800085815734,-0.355620262894,-0.182669109405,-0.139147280495,-0.239279386133,0.596767703248,0.072322768004,0.630195581713,-0.222456711018,-0.806628897074,0.0276686833596,-0.775986284456,0.0240376917798,0.708685185572,0.818444512946,0.444592746807,-0.723831343794,-0.90165430779,0.103303361247,-0.598234225236,0.453156268821,0.640680065355,0.283884693638,0.699963275825,0.546607417718,0.478578267648,-0.256794185053,0.844966687669,-0.710530369757,-0.246165363812,0.926533894279,0.825248670656,-0.548086877748,-0.678650300386,0.976591700749,0.956940164057,-0.7564695872,0.330005807561,-0.291977500592,0.425230673772,-0.953702794351,0.924934478116,0.831246443007,0.28617276298,0.900910941379,-0.740812718132,0.913935429593,0.601998330329,0.747910227775,-0.792264482532,-0.787870721965,-0.0625517145334,-0.580713001168,0.0619541138812,-0.189149595328,0.0444867173751,0.0106122409277,0.270564804599,-0.24712980017,-0.311993231051,-0.023605725113,0.311223708764,-0.190987374577,-0.104305106533,0.850140083054,-0.134223159353,0.737932418434,0.827312107528
-0.691371784336,0.585227665545,0.606289999741,0.151304449635,0.387086042112,0.631952595222,-0.485103992462,-0.490225273756,-0.390871510284,-0.384633468192,0.783581012431,-0.897411028314,0.663895991916,1.05375386012,0.649095442445,0.816800058672,0.142827471792,0.219381821077,1.04022416011,-0.241539349252,0.248138264272,-0.548599769575,-0.344382678688,-1.30091295863,-0.633657006504,0.762636189019,-0.971578906249,-0.726500032727,-0.475698225281,-0.664486410078,0.0320373049573,-0.287511447023,-1.11309834102,-0.175105474005,0.0654941701677,0.0501547949458,0.534647821426,0.796724384498,0.48779275338,0.392150197913,0.168603702841,0.235587170034,0.94787897414,-0.729308161308,-0.987277332948,-0.477232541326,-0.533807325905,-0.258247786593,0.146725196718,-0.952120263639,0.623061093586,-0.803586603489,-0.35233808877,-0.417720761603,-0.209672449158,-0.954721349098,0.561592071148,0.637136695417,0.402047797992,0.0469844945699,0.174665410408,-0.623294943403,-0.825726206605,-0.796294125257,-0.660324848383,-0.621122863,0.122878321272,-0.293262116929,0.743946210757,0.909996905308,0.834308386723,0.695307763012,0.237063973169,0.620864029478,0.640596731013,-0.278934938989,-0.766201484516,0.199539182423,0.604900028424,0.432927548572,-0.880284944843,-0.393206845592,1.23731257292,1.04178560171,1.14191965926,0.864398473194,0.4887023718,0.611152089299,-0.348914729963,0.607545541732,0.406670367384,-0.108447795748,-0.375208118117,-0.806335750898,-0.0586728731509,0.00373866857497,0.632973728932,0.744186892747,-0.152354465946,-0.0877913404857,-0.482693643493,-0.505562644515,-0.658577308565,0.6718109602,-1.03382356604,0.910424706131,0.181435872638,-0.0880593360532,0.0843934542573,0.409259254648,0.512644445882,-0.973793698785,-0.781600624084,0.54345654549,-0.00963425862019,-0.30798765958,-1.03200938458,-1.05048421311,0.0562990267862,0.276839870514,0.650269896337,-0.642850302661,0.96304102504,0.905178535091,0.0730139119399,-0.069769602075,-0.274781898873,0.551232768983,-0.477154184897,-0.800734034512,-0.345089279327,0.0896154283318,-0.108776343999,1.16586048957,0.0444663381313,0.127550863964,-0.195981659427,-0.380821392125,0.176570464457,-0.7864790195,-0.0708177186035,-0.338826250263,0.151214767454,0.521621985148,-1.02143449082,-0.388980540587,-1.14745823109,0.323590016004,0.198788046304,0.627223215655,0.180120526375,-0.577024547485,0.951372354835,0.0863968025974,0.455331704393,-0.337577466593,1.09342596676,0.969414437807,0.178354180277,-0.040508180756,-0.449676413549,1.04676709622,-0.17684993279,0.105086183095,0.244415546048,-0.429512247275,-0.812000061964,0.0421940575264,0.662330423471,-0.0395127166969,-0.689169252222,-0.0783029297265,0.391421989888,0.265229040112,0.122288040021,0.930645314056,0.768164798332,-0.608017757403,-0.00175205278698,-0.644329493427,-0.535461114664,0.875288387161,-0.74334428749,0.560782404705,-0.204424117854,-0.279976650573,-1.23721465745,-0.410533503959,0.151092944758,0.646540509691,-0.132763748851,-0.632532992975,-0.77057913942,-0.418967597817,0.669083266074,-0.53560957551,0.506154945612,0.911348787636,-0.640153519476,-0.871116656446,-0.434686256257,0.717959132517,-0.964243669474,1.00343853855,-0.445249497652,0.817281963661,-0.603117528868,0.488058528555,0.166883830074,0.691374539011,-0.826975043609,0.292813173735,-0.017833244082,0.0510479599641,-0.494247322234,-0.574359055838,0.346685995859,0.376126545358,0.749769278479,0.104478074583,-0.676596183934,-0.587460636304,0.32974411494,0.25753928776,-0.780302161003,-0.80018054174,0.781727185565,-1.03988482221,0.196368500912,0.486331566629,-0.558297461432,-0.464755529832,0.0678096490065,-0.665431187232,0.780156617236,0.122051779877,-0.394839283026,0.198368859195,-0.0487638090777,-1.11071400912,-0.686136896574,-0.34045733076,-0.793641060677,-0.502542368541,0.402302242016,0.622737518373,0.0576874485132,0.786201388256,0.845303386582,0.0440704525315,0.400240173982,-0.323759277383,-0.395196773988,-0.574138290987,0.382406272122,-0.720691587904,0.452628344038,0.131499577066,-0.8036093639,-1.29998086646,0.572998785298,0.388214659522,-0.368442889315,-0.103877475086,-0.850864575437,0.0839223135672,0.580004505486,0.15479160202,-0.76212483069,0.38330597775,-0.379883481623,0.416154323089,0.71368487395,0.455195639363,0.248639133474,-0.863482448377,-0.175641220529,0.539720355562,0.737075423931,-0.649857244427,-0.229622555177,0.814937108991,0.978102675232,0.607374721106,-0.837088715811,0.00667201362917,-0.562742679436,-0.290096130687,0.598393938272,-0.357570371815,-0.0231520380551,0.571843857918,0.548497402214,-0.362154882843,-0.89581879029,0.73652954226,-0.0392892498778,-0.951906905463,0.744794192634,-0.324185990277,0.192816543297,0.529969711641,0.258034626482,-0.643922865763,-0.689685514481,-0.930312201469,0.643521869646,0.0263669985797,0.666187349753,0.512374553375,0.593321314575,-0.730109837234,-0.319024635883,-0.14493605807,-0.627494864171,0.177178251928,0.291331459182,0.180370851259,0.540181403349,0.352061532398,-0.950113843074,0.3639471862,0.173931936574,-0.860720549514,-1.24888894057,1.29120294108,1.24065991276,0.344917330663,0.000339887730896,-1.24271529629,-1.24908787747,1.31487852684,-0.231754533278,-1.21179529492,0.433863090922,-1.33454441518,-0.431156101672
0.829536821796,-0.327580867953,0.126853004295,-0.262621270884,0.602834338639,-0.693012894836,0.0485552307952,-0.05354573804,-0.131008001011,0.814354282845,0.15260482391,0.153065793525,-0.148087579668,0.492648382157,0.686077171815,0.327491432373,0.913626180365,-0.935262406156,0.059813624746,-0.848664423069,-0.200817263067,0.505604094513,-0.895048582331,0.11224262005,0.0393049579475,1.02717668699,-0.373014796732,-1.06604838624,-0.266711055262,0.446825252808,0.379978147881,0.0338607146653,-0.577992503332,0.950673413832,-1.08013207271,0.38805204426,0.348759573397,0.751974907058,0.703109545642,0.170005977889,0.222616922794,-0.587266602949,0.85888242698,-0.16947149675,0.862026091418,-0.601773053785,-0.779613872999,0.16173950456,0.509043486057,-0.473807195329,0.826675872345,-0.259858520572,-0.542335564567,0.94392107116,-0.681780792721,0.229495512813,0.073474991935,0.673611449021,1.23906854526,0.135042598834,-0.646993589676,-0.61466838012,-0.352538044158,-0.275259648195,0.562133581949,-0.528844012722,0.728331982215,0.340489664084,0.949979002273,-0.690724880681,1.32389037837,0.0516383491905,-0.242966718192,-0.303253435942,0.788097469502,-0.462791843475,-0.210029565368,-0.624800018103,0.492367559193,0.95528453233,-1.08270882143,0.627287419626,0.0603949802227,-0.122066686567,-0.963145572555,-0.169161795236,-1.32446624557,-0.0402574850388,-1.18573005308,-0.956404544785,-1.07109250117,0.485302803428,-0.32020917941,-0.140072957538,-0.660300564272,-0.727859434698,0.279173255838,-0.492727506067,1.39023781924,0.282231172511,-0.401000511613,0.762129264703,0.189198797927,-0.426794956471,0.0291911569662,0.423574243189,0.0685010997543,-0.174204507273,0.546563532752,-0.523525428801,0.0362625324719,-0.887132015151,0.068999043008,0.952567085654,-0.653276304232,-0.285004301166,-0.608036681534,-0.0855791290237,0.225386646735,0.535130793925,-1.25789536822,-1.22734825,-0.019992752814,-0.401622313307,-1.13390449815,0.447730835222,-0.0840146407163,-0.55698254661,0.550232021209,-0.358178768644,0.19299042846,-0.700303795477,-0.495543381903,0.548353949955,-0.825868378446,-0.0766257527873,0.501415454133,0.171294181909,-0.170260545966,-0.22013521747,0.836135686228,-0.367369918368,-0.371705165913,0.0509133344777,0.211208019127,0.106518997744,0.463367734847,0.202820535879,0.336190638112,0.843860366611,0.9125479931,0.378813309878,0.215098522712,0.118553752005,1.17043507615,1.18731224729,-0.955210682573,0.694647129467,0.753146819053,0.318539094157,-0.340779444045,-0.268023350617,0.653138084288,0.120197873026,-0.398761209618,-0.775551919524,-0.897478927484,-0.540321172604,0.375564826296,-0.727353629822,0.240473886585,0.899101588245,1.12324558489,-0.362149984778,0.282906789226,0.482174432158,1.07437486457,0.708041677486,0.603816231786,0.284715015702,-0.971037149398,0.844599691581,0.69858722907,0.471709199507,-0.187041363509,-0.228084034223,0.176350789221,0.234999294311,-0.289102551356,-0.943431547418,0.598389826407,-0.0414563610347,-0.161358292257,-0.53353765435,0.314413303155,-0.851939521365,-0.730140470082,-0.0682394960385,-0.197088466396,-0.550120953536,-0.338134695925,1.07889001134,-0.0198030397252,-0.805146586751,-0.8697310129,0.327087457461,0.549830281118,0.344793132285,-0.404254208112,1.20287422088,-0.54024844515,-0.279310266603,-0.530895747597,0.754656579694,-0.461931103735,-0.0707146650472,-0.00190626197168,-1.22205511599,0.246203240995,0.0328490959336,0.0830588005257,0.264504530408,-0.406221183071,-0.635704796998,0.464688908876,0.101031218402,-0.275406649076,-1.2632360741,-0.0244380941867,-0.673564816186,0.408092912027,-0.173357925241,-1.26449132694,-0.20506759933,0.905163713955,0.674918232063,-0.660646338039,-0.322361865232,0.358427086143,0.991136356961,-0.392404625802,0.353739657163,0.217148331674,-0.00102374225744,0.0505290222625,-0.767693768469,-0.415975290325,-1.13214669763,-0.808023426701,-0.244640375668,-0.229363225008,0.595855432506,0.273395789042,0.480873421147,0.118194428791,-0.0957121792083,-0.734141173914,0.650183387129,0.586779034869,0.836311941427,0.237950167914,-0.661380058508,-0.114018724244,0.0228296396631,0.256326989492,-0.818593116702,-0.0203554860896,1.07576362112,-0.300528382847,0.525852654932,0.538584084868,0.656931030751,0.642309854409,-0.28414898463,0.314142211423,1.06019051425,-0.558521355583,0.534816523858,-0.31498948556,-0.319267405119,0.580449545719,0.205375149179,0.399796312821,-0.707149116849,0.316226238685,-0.300626013826,0.58454618128,0.261965781792,-0.0920705283117,-0.233293293088,-0.193241837032,0.293667612402,-0.510693660831,0.292907046598,-0.538798940202,-0.0779967376143,-0.439071470517,0.120562566034,0.752682932662,0.745110061886,-0.492763986467,0.0476813713179,0.450037940523,0.164757464705,0.000100062303397,0.500004148319,-0.25073082617,0.700933474736,1.19460688836,-0.70833587208,-0.610123763315,-0.853156886395,-0.896804572034,0.196479296298,-0.127776042133,0.182928883212,-0.109709011157,-0.374910392544,-0.0665920494148,0.513763589653,-0.903211921523,-0.809211882437,0.189490138603,-0.262500140655,0.0690115841991,-0.340964791649,-0.511185934482,0.263506517509,-0.539402778512,1.07723955828,0.616124647891,0.516612809543,0.563867729835,-0.293169022874,1.0092677832,0.370461502597,1.05992268121
-0.254478657001,-0.585559513924,0.853622569167,-0.16011002628,-0.6828010162,0.244079653618,-0.2867976236,0.770316375727,0.220709697198,-0.608995391271,1.00576264323,0.155168432851,0.782096935119,-0.848667058763,-0.408079812511,-0.172798435227,0.76155625945,-0.35603411639,-0.714623892884,0.12927434419,0.304507751596,-0.763624312751,-0.682247330719,0.106886168857,1.19539657148,-0.535621686474,-0.431968940333,1.08597964802,-0.216774715175,-0.066011238674,0.695843841807,0.186461196788,0.60648978332,0.11845828683,-0.106019282185,0.434894624819,0.100539914396,0.308467409202,-1.07641793737,0.320615684166,-0.53521945196,0.132838912624,0.639468598646,-0.921190787785,0.565133365822,0.428725505876,-0.836236709072,0.763424912874,0.211528712328,-1.04392062833,0.225908795699,0.239816565504,-0.840918150592,0.215580787735,1.80225597403,0.327442676237,-0.781040780809,-0.228542696408,-1.08720082365,0.722519055003,0.316114175058,0.582170864765,-1.2385996156,-0.163432917101,0.762194573798,-0.640861075876,0.569942095805,-0.451263613861,0.130486131382,0.0840232159205,0.866540138163,-0.157965390095,-0.398974987801,-0.257694010057,-0.000581271682598,0.317671085539,-0.369994545891,-0.603746002236,0.0630761630731,-0.721049501042,0.442998608887,1.01396192228,0.286092406761,-0.0527584035534,1.28974903826,0.631713147671,0.815117960808,0.770286570025,0.0885207779345,0.799805055263,0.179649173709,0.202937084385,-0.56895057211,0.421675133616,-1.07806454163,-0.00655085423326,-0.180604442798,0.022218927525,0.52481814085,0.905291388385,-0.408222285533,-0.574938640701,-0.0509827150903,0.497511249886,0.0971406662739,1.1162713965,-0.47544559848,0.0729605461022,-0.0914544392203,0.221549918587,0.574394343849,-0.378618082582,-0.424251320688,0.240761890886,-0.571164280384,-0.341551491051,0.561207921888,-0.803906954589,0.412250277505,-0.542786952637,-0.120977097817,-0.732238050084,-0.193767010308,-0.632412176034,-0.791328678447,0.0118984044815,0.234847389319,0.35201475052,0.0967896510754,-0.591571991704,0.551748698871,1.13039694079,0.631367091856,-0.095732291198,-0.867159165405,0.02955313808,-0.512211593961,0.31430043292,-0.702020317122,-0.0891521888537,0.644003977461,0.724857841294,-0.826433878306,0.142379776171,1.23884686595,-0.667410450895,-0.196268094725,0.653367644757,0.0700081055102,-0.560373139435,0.521018475749,-1.049028676,0.691364067582,0.532467405727,-0.870576074936,-0.231678761563,0.433835641709,-1.64692903718,-0.149888319777,0.473303171878,-0.45891589961,0.490567403018,0.0784027946574,-0.18653355002,0.0652370428337,0.558985719879,-0.473292087774,0.00768425544969,-0.248090522161,-0.464639696365,0.75647592253,-0.338772767846,-0.218140946394,-0.074744636448,-0.577226470607,-0.0225370313279,-0.512009030823,-0.231505144671,0.367393224992,-0.708802057116,-0.770981070577,0.811444019493,0.688321829848,0.159838615439,0.380818971067,-0.805248565967,-0.528343342594,0.413111448172,0.7286600831,-0.646773895139,0.662069218198,0.270619526355,-0.423481076511,-0.837173540153,0.421950531912,0.729551814415,-0.549055877359,-0.0408834625026,0.505361628952,0.76419595313,-0.389508082088,-0.00350651755735,0.768862486415,-0.328032540663,0.943685756344,0.26070759695,0.366743085853,0.494564921036,0.734439498865,-0.0690489633436,0.484438015023,0.16075501352,-0.653463662186,0.606122932866,-1.23536480121,0.360190465077,-0.300116914115,0.511864889907,-0.170937606384,1.15372973563,0.550547315437,0.181886491783,-0.52644324808,-0.573327706866,-0.464756352408,0.380217718274,0.0579113237996,0.168988726436,-0.616859745855,-0.661017942133,0.429789723157,-0.416393517884,0.488180358664,0.134290234073,0.403716225772,1.19168335081,-0.319320563737,-0.0346777316113,-1.0649531324,-0.860428304888,0.754376583354,0.769773864415,-0.294717097743,0.102696625094,0.753787811104,-0.453775652089,-0.618528189109,0.124144812223,0.562673178167,0.594116052643,-0.0684560682162,0.554439279732,0.0167120192607,0.0676779263919,-0.481772495469,0.639355313119,0.22300811403,-0.175581518116,0.172628182859,0.0457569223114,-0.930072616744,0.380404849048,0.324905155418,-0.521149567245,0.802025154251,0.74194655439,0.117841509352,0.332509256632,-0.945488009825,-0.246592579737,-0.223061035652,0.159322656191,0.673563262569,-0.181760856758,-0.217788357047,-0.349203096271,0.0652828476142,0.0397464533245,0.573943904069,0.700137785594,-0.549307993553,-0.942066337066,0.366089659197,0.339271769384,-0.226942155312,-0.336954653575,-0.859615087526,-0.801519823587,0.0946772402598,-0.316250801374,-0.747866832997,0.247762968152,-0.607331662953,-0.625825884895,0.0568460944221,0.640867597725,-0.622953851657,0.91879147193,0.0655528587691,0.194850720618,0.721530592981,0.721708518632,-0.562496418002,-0.00114256603288,-0.665650359784,-1.21694842832,-0.678205456175,0.0894828438735,0.274408903008,0.56767717714,-0.186056638701,0.371136490733,-0.00340395322029,0.212060602972,-0.591702497554,-0.0900701397366,-0.728803390384,-0.701289692925,-0.799048431597,-0.326294930849,0.370814035961,-0.665698269982,-1.19335441659,1.00831745655,-0.405547992505,-0.968942720911,1.24467377158,1.50025672408,-1.40076977127,0.627142025557,-0.329021412433,1.02853859986,-2.05243417816,0.398472519917,1.4421491621,0.591299425846,0.700940015846
0.370551509167,-0.186006549416,0.454073955239,-0.0870655411632,-0.47272710607,-0.880180574402,0.362602549858,-1.10142521405,0.243475522942,1.06048373328,-0.891771163789,0.877377898136,0.200546960259,0.138556147866,0.988463569523,-0.428951930371,-0.064460614907,0.226051782951,-0.269000148529,0.486201423916,-0.497719544063,-0.941828287741,-0.646714847156,-0.289234637441,-0.430348324089,0.468160009222,0.238775305025,1.05036303774,0.373689661786,0.577969735583,-0.0199751410928,-0.49478970109,-0.182155782831,0.10738237224,-0.513678109818,1.14326054437,0.692184757612,-0.646298822824,0.294115695103,0.0670669183201,0.890768343661,0.0597426675149,-0.179135273093,-1.51167818267,0.755908461895,0.354756595091,-0.546159036309,-0.333448424372,0.257766871299,-0.939364899578,-0.362004910614,0.243005764029,-0.437803242489,-0.640205551825,-0.0248908798275,-0.225861650007,-0.780258501177,0.523541879886,-0.505456472299,0.667250231468,-0.0511603913962,-0.04662339719,-0.616704804308,1.36788286524,-0.777992776054,0.329544105029,-0.165936238804,0.21646956113,0.581430797072,0.936180068895,-1.04205735242,0.434194321199,-0.623532223122,-0.193730035101,0.00186220444165,-0.683585475098,-0.289160670972,-0.391520545134,-0.088858567548,0.764078320631,0.920884032856,-1.14623155556,0.116652416741,-1.15208109267,-0.636010870655,-0.808099819419,-0.220633811545,-0.469320250319,-0.426566798354,0.0821521362899,-0.296084032158,0.769892689213,-0.22583943583,-0.141777338009,0.714729999105,0.369793482307,0.836190992905,0.369326598595,-0.212755325737,-0.752837295978,0.939225253155,-0.0765049509504,-0.507422452739,-0.389528805268,1.11559577248,-0.46475793666,-0.185658480986,-0.313304649778,0.111087780392,-0.0313223865218,0.784010075665,0.235624328303,-0.273777393164,1.29124103571,-0.30298131362,1.0333523297,0.16220261928,0.726406097681,0.143310290011,0.293853019697,-0.756220374589,-0.832756357595,-0.650272635182,-0.727137432397,0.815586614797,0.286151219005,0.545399513958,0.949133752725,0.214691158476,-0.309053859464,-0.292668642773,0.589300267945,0.0910028636978,0.328059851626,-1.30584864683,0.415988992248,-0.189431570962,0.489290560878,0.799014849482,-0.257567988628,0.235844725331,0.937834898372,0.515367029563,0.272584255136,0.502728422415,-0.0858743171853,0.568157488975,0.800095287167,0.010271688491,-0.474767831275,0.312802281506,0.0448917710863,0.0237888889474,0.30574089338,-0.842282065839,0.671697974044,-0.773221901319,0.516087832666,-0.260592063517,-1.0943310132,0.805665171393,0.343422290279,-0.137823999187,-0.381160968472,-0.301059315616,-1.06147812965,0.340049409944,0.1392111928,-0.258784933409,-0.377063342393,-1.02672775257,0.201522864468,0.846579921131,-0.0338780272784,-0.966670152859,-0.196886920621,-0.141688946393,0.417672999303,0.452245239608,0.290145979262,0.256316444826,-0.0766605534798,-0.995353891144,1.08745041818,-0.584182215627,1.00974415946,0.776547727281,0.136379829211,-0.608937738028,-0.360506822889,0.494354166186,0.252460442363,-0.963047803331,0.233940134999,-0.926055295999,0.428799896902,1.51697658367,0.73807626194,-0.340938623694,-0.33497106949,-0.210635138298,0.0382830663744,-0.245170404314,-0.868270324279,0.0577034559804,-0.383756777484,0.645547526313,-0.190211284272,0.0250683081966,0.0927124299549,0.312977204312,0.389659389885,1.11732330973,-1.28986757626,-0.109197310299,0.435463599306,-0.431192211443,0.293041431714,0.42549809554,0.521320376928,-0.479356853225,-0.883192487511,1.21640829596,0.614345740238,0.267178147578,0.121273788549,-0.532301188852,-0.0520695068064,-0.423030763775,-0.301859527477,-0.226835510038,-0.36173756361,1.17549763459,0.475982573384,0.0205688007665,0.262159980013,-0.0497415350322,-0.771817935684,-0.00219964851318,0.807818112944,0.109115321211,-0.639783588744,0.266121552235,-0.530038603486,-0.848346940079,-0.924494546834,-0.339207999972,-0.364080611217,-1.04932113925,-1.19589836356,-0.850766354856,0.0330073854249,0.705760737516,0.474866763337,0.0967998806366,0.70395674805,0.0307234035894,0.660199599142,0.0553051534856,-0.976216972976,1.4357516547,-0.577604037221,-0.546811348088,0.276102693452,0.558365127212,0.736709629454,0.421338675769,-0.871019909412,-0.174018354373,1.24289373241,0.259599841468,0.424831691783,-0.968817954045,0.0717805484905,-0.697189294101,-0.261288901161,0.105964259038,-0.461090966872,-0.733552774439,-0.547818071244,0.909550080566,-0.107781206103,-0.519469477666,0.590497088321,0.121442180702,0.525180867973,0.468557223086,-0.80250337419,0.45581181205,-0.685386472062,-0.919295214916,-0.138514125312,0.704289120342,1.04529869761,-0.404633985983,0.535565075903,-0.463378832955,0.467384301268,0.528288581126,0.101946558616,-0.728855817682,0.0854738988288,0.236077954172,-0.446251183744,0.659355354203,0.704501345264,0.450441029961,0.857153847179,-0.403534928347,0.0526590529949,-0.393657324401,0.712726070526,0.277872267094,-0.457373541363,-0.113632915108,-0.953612784921,0.508527641758,0.337029340671,-0.585429894376,0.0788848418733,-0.288056972626,-0.215593961777,-0.119865390429,0.00904178647862,-0.0619047149641,-1.24381360172,-1.1280141158,1.87307524762,0.347842648657,0.101828564419,-0.743966258113,-0.203403174816,0.061445030745,-1.14153801787,0.79877807966,-0.27259952405,0.262151777826
-0.0183369925189,-0.562047765422,0.879616450044,0.590098009567,0.546385296801,0.310502243157,-0.10028720378,0.332163951122,-0.762206218314,-0.0874001293028,-1.04171351693,-0.8514118428,-0.80868851612,0.852177283508,0.435065843929,-0.749654634341,-0.869187394907,-0.215136674446,0.897164946996,-0.75434722609,-0.0679529371595,-0.207816288091,-0.292834182892,0.835934845085,0.307724653532,-0.824322791857,0.0474132063229,0.234804046543,-0.0347822288603,0.887298132038,0.866271699606,-0.682038140683,0.207775916788,-0.46480595046,-0.806197012909,0.0991656598061,-0.548544350883,0.0619976807298,0.625072171683,0.482660150171,-0.214938391517,-0.94918256531,0.0407418440951,0.734398913964,-0.413643068772,-0.247986779758,-0.221653710204,0.0619758118232,-0.238519427526,0.21840360622,0.158100105641,-0.198350928246,0.050504344353,0.508185910903,-0.650393892641,0.58365854863,-0.191243285862,0.311918590178,-0.570331584642,-0.668961944545,-0.134651238823,-0.37470408988,-0.448304378641,-0.73198438494,0.0799498496654,0.0489793924675,-0.460478701245,-0.227124635109,-0.877902653941,-0.612113748864,0.782022925915,-0.871662966816,1.02906187735,-0.570697879226,0.761413452021,-0.550718459615,0.310375301018,0.191625208175,-0.114969243453,-0.931725663237,0.0837354955182,0.966361090235,-0.466511043408,0.100140210076,0.120296528053,0.235230666999,-0.955040275072,-0.00336981012672,-0.839518502169,-0.434436088698,-0.185340629676,0.193958223102,0.435855170851,-0.584821193432,0.670072686525,-0.604005216302,0.125443577178,0.141394539564,-0.243362424509,0.216310994938,-0.665633441187,-0.909180562689,-0.209587916709,-0.38475529344,0.825277069459,0.511782420204,-0.108821042304,0.0237404591125,-0.585395895382,-0.553192975428,0.143697152348,0.591682659439,0.34508205559,0.758775891805,-0.122309998971,-0.78962228672,0.505323391246,0.137961593491,0.348152809534,0.710033429884,0.573272747066,-0.948870208216,-0.749056343356,0.559368254501,-0.847794122275,-0.324716957753,-0.151427049562,-0.501750280632,-0.579086807317,0.178393927687,0.565499259339,-0.154505616791,0.559955916437,-0.894160987979,0.0811800958214,-0.638646531515,0.105958557685,-0.874744848583,0.86089894154,-0.708138547109,-0.306963785617,-0.309020446482,-0.0997022790883,-0.104370625398,0.0718085188138,0.824507503655,-0.470652000173,-0.112814921343,0.119650239771,0.259245935364,0.476166604138,-0.689825186054,-0.697920020308,-0.530790313885,-1.01829477099,0.54125442033,-0.918785958139,-0.335726599961,0.347393798701,0.231602946594,-0.383921046181,-0.16719057137,0.324367875648,0.122711367156,-0.0323571744334,-0.982101023142,0.396219112046,-0.576335891938,-0.114463528812,-0.873304631193,0.140304119371,0.828897228159,0.972931860344,-0.686213548112,1.00319795826,-0.72440530117,-0.0354391458246,0.836220877436,-0.339535442926,0.385338487409,-0.545425264872,0.379103345978,0.505943195372,-0.505487056186,-0.584600641464,-0.525261565966,-0.91375649728,0.293527122859,-0.759566099365,0.664506339261,0.75589349869,-0.157706182502,0.046258895737,-0.269848732129,0.740121636915,-0.0992407348637,-0.918031292346,0.136162242431,-0.00898706498851,-0.905371581413,-0.327546588654,-0.828628004417,-0.352330148723,-0.389305369973,0.829982878757,-0.728890451746,-0.565030380155,1.01739489183,0.48587822262,0.390688797633,0.837322927441,-0.192324860213,-0.628301015017,-0.437681445451,-0.445224527418,-0.331393721905,0.600271869828,0.0206480930118,-0.967504002736,-0.680848818148,1.07592222594,0.121570071587,-0.521654003266,0.0309373648549,0.899853342072,-0.664706089106,0.630109248864,0.78363006046,0.548944563757,0.0933449507392,-0.609322214434,-0.61942202641,0.250174533939,-0.140524905778,0.083952796148,0.890231780911,0.108625176461,-0.220976430309,0.212289112908,0.301560038316,0.357749935165,0.258128770831,-0.262807232417,-0.828427298256,0.0270538268112,-0.713395865086,0.144835628237,0.0696325613492,-0.422984645036,0.339619191528,-0.647442987137,-0.949526390796,-0.0100610560368,-0.418842126071,-0.642581686951,-1.00357024411,0.722654694809,0.0563899082331,-1.06393592197,0.014745136457,-0.0808752512772,0.419145200051,0.330125728351,0.53475401302,0.232467091985,-0.0866870822762,-0.0445196118892,0.401295892028,0.569437057189,0.546751112471,0.578469227022,-0.533829374067,0.624700360348,0.365781192936,-0.147645695997,-0.0671411510424,-0.379358832623,-0.0986591492236,-0.253253169762,0.877176303103,-0.396080418506,0.964015166145,-0.995322593974,0.124526680628,-0.426504753024,-0.541878405981,-0.969957720496,0.471896077036,0.0655648895044,0.852152899452,0.83681450927,0.583442799307,0.060358641377,-0.037231252512,-0.0664869080764,0.533835410247,-0.356803756841,0.471471771018,-0.0862693769136,0.563657607036,-0.139626886026,-0.59805106894,0.525181588831,0.970092555761,0.0634148122611,0.203671176071,-0.386018418071,-0.00760275247706,0.0841524147377,0.45685021705,0.751804482743,-0.727519470358,-0.762644048336,-0.339089786755,0.966316994301,0.435720379281,0.865101276217,-0.974059400439,0.780589128635,-0.934652449244,-0.309052200806,-0.78622448183,-0.45845125554,-0.600326858993,0.421435519484,0.452123143417,-0.926613723781,-0.544078305078,-0.487108428492,0.153828194369,0.584998171142,-0.680354649019,-0.441328702372,0.589766714056,-0.867648758859,-0.165781133717,-0.772629269529
1.02430886927,-0.395066771123,-0.416598272478,-1.11020693887,-0.847682690818,0.6943482924,-0.196051722057,-0.203069979142,-1.01551630861,0.0334830853474,0.68046477879,-0.378917799302,-0.331565600542,0.276829007598,-0.951524691543,0.653076827166,0.359314515796,0.700955020214,-0.763055486496,1.17806774747,0.137367403109,0.721609353058,-0.354594408478,-0.387068390474,-0.454307991625,-0.192017945674,-0.849058016991,-0.766138280959,0.304403782913,0.640292646306,-0.526322308442,0.00511900996246,-0.608915569961,0.11389871428,-0.94301029306,0.139272346786,0.272783737425,0.30290425016,1.0742464929,-0.347467617774,-0.0218560136684,-0.140275831666,0.416106638654,-0.21757575351,-0.0342357810297,0.229486804443,-0.33703909303,-0.694972179937,-0.637437430025,0.471726085765,0.688073816803,-0.355724748723,0.343059385517,-0.565548194286,-0.563407825823,-0.257077263325,-0.311520880066,0.483048826157,0.765814404073,0.533811667906,-0.0989856557447,-0.363438511324,-0.0335109087862,0.470141181101,-0.885216336687,0.331293114629,0.392282739948,1.45888598111,-0.149566902641,0.447978418573,-0.89586013817,0.850395371043,0.788478639218,0.512288359067,0.746009013346,-0.197988452672,-0.0745491367725,-0.633896235704,-0.270462603432,0.550700529782,-0.166261955352,-0.604342155656,-0.553580587457,-0.0320951725293,0.282082275353,-0.817629494213,-0.817111208014,-0.379032079015,-0.847095307915,-0.583464114914,-0.296081707034,1.11168759309,-0.624443560303,0.0159181776866,-0.230867374864,-0.237563283565,0.359486875075,-0.327908234418,0.856391414264,1.125016461,-0.586322703067,1.05453659687,-0.446485220148,-0.14273174525,0.483585050561,-0.443488969726,0.723313363678,-0.0422354181903,-0.596175181143,-0.280439364528,-0.431603782081,-0.024477297183,-0.104532148763,-0.129116934339,0.570312398602,-0.462669386978,-0.104840203074,0.320387530366,-0.156372657559,-0.970847302495,-0.312810421769,-1.19063982669,-0.521797743084,0.0598948754989,-0.530943887916,-0.248707793346,0.628715707079,0.508622613909,0.0517209917322,0.56931157686,0.731623167476,-0.408933729484,-0.899263775075,0.209623706206,-0.823530163977,-0.548204027743,1.16173252767,-0.367294170776,0.32545975872,0.372518274366,-0.535442970611,-0.639918002609,0.946612306839,0.895909051915,-0.390716214518,-0.284049443197,-0.726650745176,-0.399534309267,1.26463334932,-0.485431424965,1.12439650693,-0.735464017105,0.870540890188,0.885431782897,-0.741136597963,0.897234291278,-0.784393532076,0.529531067006,-0.260048815004,0.344590579619,-1.16325713935,0.570656268817,0.280679930468,-0.832346744006,-0.0864863340306,0.331973261729,-0.287141128217,-1.03061388686,0.384866779076,0.282344838857,0.369721860399,0.83642368668,1.12040600903,-0.276339033829,0.19322552988,-0.0614751217318,-0.686219675225,0.209212802019,-0.0789379157198,-1.0505604059,-0.468996168474,-0.809342022763,-0.522865807399,0.0483252888384,-0.753579897153,0.640039797885,1.1502778145,0.338746539525,-0.0368880447379,0.484110281744,-0.310082075097,0.76026714853,0.185245698108,-0.3794467433,0.920328751312,-0.526261792602,0.602505463402,0.0560671153331,0.656442392441,-0.233581930133,0.646585025757,-0.101057362037,0.393357318023,-0.0969444364457,-0.0360134051408,-0.277492738032,-0.73188310309,0.698799255951,-0.71018924107,-0.450919262647,-0.0670131029701,0.635022911223,-0.834547467641,0.705055607557,-0.865346802978,-0.740288160355,0.507453136988,0.17402726392,-0.733052978281,-0.358034973428,-0.291034177042,0.114570916049,-0.527303930694,0.348802474619,-0.227549326782,-0.465364215754,-0.477047836484,-0.761961702499,-0.0931526489954,0.138495905018,-0.206142956805,0.167058488717,0.258982352434,-0.384897744159,-0.132601831855,0.664894180524,-0.0792728756176,0.32813804622,-0.0170991453905,0.38682375902,-0.361437685309,-0.430499462285,-0.0416665479731,-0.123800493958,-1.01825664893,0.183944319967,-0.428122211816,0.369683749675,0.269800669107,-0.712890391759,0.330436482967,-0.793691235758,0.330155342205,-0.00804627879598,-0.695863223444,0.075409261946,0.407108379864,0.702545475986,-0.327633123054,-0.734868177063,0.50596375012,0.145402138899,0.22249844434,0.990362380861,-0.31359282696,1.05860344586,0.809468950798,1.12167635906,-0.850258126068,-0.0266884748014,-0.477591159322,0.910975175799,0.650930330019,0.625426178423,0.626028853113,0.363538094241,0.466607512415,-0.643500554979,0.336105307796,-0.284938953381,-0.0267189978223,0.435729460988,0.668563133709,0.126446676207,0.62679681926,0.335986380668,-1.08315627584,0.441346363902,-1.30508458471,-0.364508113663,0.900352235645,0.926415883437,0.265732083307,0.537414677913,0.34948919116,-0.0047504411707,0.90389904861,-0.281456360919,1.04124878009,-0.528353740176,0.124014087692,0.225650249722,-0.706117503861,-0.357818651536,-0.578495893171,-0.952466715742,0.128597336204,0.350008723447,-0.852911490185,0.367664531599,0.174332774698,-0.0150404012487,-0.813438863644,0.0714843768508,-0.281644653262,0.778182172525,0.326461281077,0.464091039678,1.01755467609,0.232213588101,0.06981754894,-0.0436037753149,-0.172236943658,-0.341321305709,0.813916581716,0.113139441559,0.558619772587,-0.564617882579,1.24364910983,1.29989791618,0.491768568326,0.373151328031,0.0183531222938,-1.36791562296,-1.03248755054,0.720543610893,-1.08622560775
0.249736797545,0.841303191934,0.68840480417,0.196319164194,-0.178759497208,0.59697406872,0.818719002978,-0.488518603589,-1.15504211746,-0.100063126702,0.0137025649101,-0.196305028082,0.731494219028,-0.374625138944,0.607748035109,-0.240346375594,0.423504047225,0.0735238367145,-0.138558751473,0.00267148026981,0.538170584489,0.110654867554,0.345856472446,0.848142320152,0.804638974838,0.237126069015,-0.0606500812431,1.08913910376,0.235316707899,-0.120149987062,0.554777771728,0.117645753923,-0.488704410279,0.333615262572,-0.50740343489,-1.01729691802,0.579202352162,0.234711882267,-0.939608509961,-0.307920188763,-1.09464298487,0.762513460989,0.658463728996,-0.241189042607,-0.968841481726,0.641409771286,0.0518225244935,0.639611771201,-0.131348885203,0.108501670019,-0.542347811799,0.777957423686,0.343958325419,0.20690318863,0.0323593660534,0.459169166175,-0.666686262156,-0.0103083845325,0.744655772022,1.15171121534,0.589415874888,0.496600762805,0.240176432986,0.736524394707,-0.376337874705,-0.993507712521,-1.05868750666,-0.905962355974,-0.370349906099,-0.46447306751,0.38030837859,-0.25887290595,-0.719591222994,-0.217766583908,0.469479077597,0.275835482891,0.736965053379,-0.858989180405,0.457040024865,-0.41261501858,0.0678299367576,0.699967717833,0.442869758259,0.172005814627,0.666096784898,0.44138629798,0.578956038473,0.274097808984,0.329652855426,0.991669813042,1.20445316638,0.549761933881,-0.263085632938,0.634918173757,-0.764451515559,0.0778826523638,0.00856766058355,-1.03077260771,-0.619445758549,0.708553182485,0.733227304407,-0.154417296372,0.038183663358,-1.00928484582,-0.454089249465,-0.532099060275,-0.202413460204,-0.673065186703,0.640814660636,-0.650614730056,0.906453486238,0.209214350126,0.430751368263,-0.532676509244,-0.182656913906,-0.265643077095,0.24786389427,-0.813382955355,-0.489753260726,-1.23680933803,0.601051057168,-0.581086497439,-0.286148187652,-0.691670760052,-0.467289937719,-0.316249841803,-0.353784639941,-0.386286527141,-0.10333656365,1.02864120359,0.454194223631,-0.68573919212,-0.698089576604,0.744822205562,-0.192945945049,0.36366432289,-0.589052730586,-0.613531378011,0.497100079709,0.497000540679,-0.626075249236,0.550564406181,-0.443902039316,-0.348246782088,0.103892095807,-0.733811039183,0.754335897147,-0.643652768336,0.372348541789,1.09226101322,-0.363433731348,0.71855785006,0.304693826321,0.450900921652,-0.653135828929,-0.963853506189,-1.06909090557,-0.647693467562,-0.767147568881,-0.868046169316,-0.721787224008,-0.51449929267,-0.356964596416,0.314878044332,-0.113010808173,0.597722414857,-0.242162854249,-0.72759768107,-0.188816062773,-1.18513850254,0.936199805905,-0.207631353111,0.0841686401905,-0.947467218786,0.0431724210886,-0.943328761451,0.627635680687,0.307008606371,-0.0953013319861,-0.625904725124,0.127020517635,0.0269926028574,0.7958242856,0.279040482794,-0.743418469599,-0.363695157774,-0.709780965494,0.549550578368,0.016184018275,-0.291525735788,-0.584047057679,0.509374411622,-0.109551958069,-0.441775461803,0.511838288696,-0.49399158655,0.6258621509,0.531054560366,-0.781419134656,-0.0535396349329,0.00536953447733,0.0336043482038,-0.0839400888136,-0.0531557549855,0.157069915479,0.793574080209,0.116361986018,-0.0735821668941,0.985455117708,0.443862139273,-0.257603028845,0.259186803436,0.931225293882,-0.746603699857,0.451286549875,-0.0654923383884,-0.504298464111,0.20562412125,-0.388089935608,-0.194913665254,-0.530792224268,-0.266155128811,0.809960452065,0.382855459625,0.0405040235866,0.00750389321414,-0.0852386562327,-0.0393812328911,0.948587708469,0.373399097062,-0.515482334867,0.489902832781,0.145317237162,-0.191983735999,0.760382631903,-1.41468888898,-0.784036521353,-0.652481005535,-0.62071186125,-0.0286356195325,0.0978547317383,-0.835331892481,-0.319625601898,0.356593697023,0.999876532038,0.978314467604,-0.643517892775,-0.528745163616,0.191074648818,0.505752503677,-0.269147206898,0.842789635114,0.513552106864,0.560334878759,0.207711055394,-0.720814653556,0.15538317741,-0.160958151917,-0.499003287109,0.612292699537,0.202329559843,-0.723038647311,0.371100463493,0.574619064228,-0.150000927962,0.278618088188,0.336694793437,0.751175781312,-0.48216971059,-0.680587483355,0.737482070493,-0.028976248804,-0.529237198429,-0.189780735352,0.451449336849,-0.475092064222,-0.384680010067,-1.20477503752,0.335751221942,0.0649987078248,0.716975620026,-0.144480686226,0.104892136294,-0.33853817257,0.169745559233,0.389858606109,-0.936530361909,-0.555642823324,0.166621220998,0.190237701292,-0.579541475471,-0.255631375728,0.081623584546,0.0704046710178,-0.601628079683,-0.43054184759,-0.389185886848,-0.941274598615,0.126111663981,1.25001736501,-0.402131620165,0.0424375044072,0.37782206976,0.424308895311,-0.909569292321,-1.00104424019,0.752426648291,-0.283849060923,0.446417520924,0.474044904379,-0.842350092122,0.278009113846,-0.806922845935,-0.0944507908645,-0.543295671116,0.994210352651,-0.594886235493,0.0576922008034,-0.239014042035,0.380933893431,0.403854881488,-0.988883739701,-0.203163192449,-0.0270086474235,-0.794426846977,-1.15408422055,2.4512438244,-1.52310476794,0.842117005548,-0.368988777658,1.32482686366,0.912603142579,-0.914944293103,0.581522068586,-1.09178801359,0.0628660294189,0.15777066012
0.129199204255,0.594052627673,-0.10649591607,0.504397425323,0.182582561044,-0.41372577553,0.422119511921,-0.904640231294,-0.00444188996453,-1.47220695692,0.920502855292,-0.205837498398,-0.409780622204,-0.281073723646,-0.206486160096,-0.515019149383,-0.280545796175,1.00572688329,-0.282234382053,0.395395804812,0.0776775310184,0.744263700855,0.458675231607,-0.619232795121,0.660695099831,-0.0583895291311,-0.171158971947,-1.11043895659,-0.0984014338636,0.415712249618,-0.485970582405,-0.133803723427,0.0986154728062,0.165082106246,0.374934654999,-0.674289204522,-0.484326894535,-0.236681884363,-0.617726850287,0.486118822648,-0.571662459658,-0.655035432958,-0.435045694245,-0.414578455262,-1.03914669764,-0.360491148342,0.23865600909,0.389791233254,0.205373908852,0.430983973709,0.287570173625,-0.0495716701354,0.645707586994,0.961310766498,-1.1558493066,0.289731656984,-0.101074841116,-0.0532841996559,-0.416841406937,0.406778887945,0.757572598758,-0.994215419038,0.979468475971,-1.13097837587,-0.37833894109,0.405242995534,0.383302451896,0.729353362575,-0.607292756737,0.559037837697,0.379348346084,-0.140308441338,-0.617636646024,0.580928693588,-0.691443771232,-0.350962962184,-0.833597609247,0.0657437944198,-0.350891210628,-1.06461434171,-0.244396015498,-0.476472492454,0.0153511334124,0.576021497975,0.886096791633,0.524460970914,0.330796196806,-0.030810767986,0.814197372897,-0.506777542638,0.0361096055404,0.770219167259,-0.460169571424,0.972093649565,0.441988874411,0.628850116318,0.175776130357,-0.648647411683,-0.806330860786,-1.04036024714,0.438862006393,-0.385757454371,0.375011898721,0.232518497023,-0.540449324135,0.656695213687,0.723313592108,-0.589428135423,0.231954857597,-0.118162632046,0.501236108945,0.18266499397,0.285156580776,-0.233942918241,0.879250209938,-0.600029673216,-0.864962029353,0.469122294719,-0.43642746854,0.342039951573,-0.648822461867,-0.0079422050261,0.643951724567,-0.644161030749,0.939607535771,0.697594079451,0.0532406196107,0.382334733066,1.00364376553,1.00355987623,-0.768823738043,0.831179753348,0.796910975302,-0.565678034717,-0.652297850868,0.557123641339,0.500532211878,-0.255169074601,-0.204059468858,0.358845430273,-0.445797997681,-0.932592599876,-0.00338571549911,0.278830270547,0.0579268639628,-0.0676708212536,0.959409008806,0.0740009122199,-0.913861374322,-0.204394388095,-1.07027167851,0.19113773984,-0.263858690094,0.0917624784987,0.239149752356,0.156674838701,0.92186691758,0.821207359541,0.91738117231,0.247716610938,1.09155065887,0.511409579169,-0.415324579908,-0.595702616181,-0.0874455172509,-0.634233031577,-0.39912122061,0.886627322435,0.468054287849,0.452746184351,0.0608006493691,-0.813275824297,-0.781694313461,-0.733865771261,-0.270125281099,-0.0107539748969,0.900150056969,0.805531995817,-0.182760132527,0.17627477002,0.220993002405,-0.281801975309,-0.109843023408,-0.173198662401,1.12965118142,-0.781088127492,0.735778288679,-0.656119746313,-1.10981502033,-0.356145041126,0.496429638947,0.625597775538,1.01703904109,-0.0016344754902,-0.445178063567,-0.705953010548,-0.531422969572,0.0915969735947,-0.836272656923,-0.924928580916,0.641536625906,0.0303733535637,0.526870566719,-0.325780646147,-0.248010863343,-0.317081129657,-0.442889160897,0.564536995809,-0.706453411601,0.584347755958,-0.449314133507,-0.387909290148,0.0541083449102,0.48349739462,0.329055622043,0.89209331782,0.862100541149,-0.804049200549,-0.741561385047,0.578782055877,0.307050826804,-0.0828363884407,-0.239927958909,-0.161167963587,0.657732805663,0.463727589508,-0.304380476468,0.24602916813,0.469951227853,-0.0619708265722,1.0118521242,0.662203283028,0.558647242727,0.524250288054,-1.32068315247,-0.624490112624,-0.539746717944,-0.5154286639,0.317160290785,0.354819855222,-0.610377666932,-0.0334903032362,-0.75418753095,-1.41450723185,-1.16635403444,1.15220646081,-0.138124894739,-0.411103536967,-0.445423578119,0.153651237398,0.260842718106,0.134055314919,-0.0404417195356,0.306967673828,0.482162457801,0.254230799476,0.978478642596,0.909094655045,0.187900769607,0.275389609497,-0.550378458343,-0.169854660679,0.54569772316,0.140474996636,-0.612453918765,-0.748830962766,-0.506436855219,-0.563334392711,-0.469971890317,-0.586783368789,-0.384858251828,-0.716859263729,0.465528794793,-0.568548193037,0.354781927946,0.366190527286,1.0486375251,0.629907866059,-0.0288402986579,0.741966787732,0.273899141345,0.336896577068,0.0643419774667,-0.898694816817,-0.564503624478,0.254522824186,0.171444070936,-0.126658899879,-0.901766190274,0.553587147173,0.688333794593,-0.257467110851,1.09029464654,-0.348385737159,-0.513983204951,0.232543934936,-0.696268016126,-0.182587642596,-1.03750529749,0.72877602718,-0.687186650861,-0.624651573512,0.370243920193,0.628064404804,0.859175155203,-0.970146919862,0.343332265451,-0.498667374369,-0.872142589588,1.16331273077,0.715732706197,0.620603167837,0.616793663971,-0.131359845067,-0.562388296645,-0.32944370433,0.286890518963,0.424237943615,0.0731440248602,0.659050148038,0.244824232561,0.24223012817,1.26343396313,0.435340842846,0.258641669201,-0.141402595082,-0.438871034631,0.417452890914,0.914413714544,0.658727112812,-0.388926060399,0.490499099983,-0.744877753469,0.103120954914,-0.419532565719,0.0488936388101,0.573577971662
