0.984273560144,-0.108890910631,0.965891091555,-0.800970833681,-0.161874375885,0.439347239238,-0.9475233907,0.771871946027,-0.494020977544,1.02978474173,-0.222860869695,0.0163338045464,-0.301120986885,0.51120616328,0.969920154881,0.747072618496,0.781901677238,0.775055444671,-0.688596879825,-0.664380809485,0.581882385091,0.976635723436,-0.425561323376,0.849818610635,-0.950261062676,-0.0968820288759,-1.43937588579,-0.0214414834403,0.18731165476,0.367250731125,-0.24648961825,-0.54766370879,1.09428300339,-0.757109152998,0.426146480187,-1.27609867185,-0.0257824260221,0.181322639898,-0.650100495586,0.255926235039,-0.498397668323,-0.860854240276,-0.277945188362,0.663972340115,-0.195804374732,-0.709894449091,-0.370345138945,-1.00631958378,-0.403568690378,0.439742851555,-0.942513075188,0.511343259779,1.07931463557,-0.936595763399,0.434784927485,0.466836308023,-0.896524052938,0.682183357521,0.589303651424,-0.436458848686,0.108795582885,0.843819756271,-0.256977311276,0.516507285319,-0.346742983917,-0.717048567358,0.382537531963,-0.307045646754,-0.61426824069,-0.0561231095863,0.68141243953,-0.698013749537,1.15273017471,0.857714448389,-0.471451069908,-0.911600662799,0.0275372959191,-0.636171973813,-0.512143878632,0.591932169288,0.861576460753,-0.593516296769,0.326242797447,0.164606529887,-0.243983406503,0.717335711205,-0.788481574271,-0.631860167627,0.917387958746,0.222737857767,0.66676037256,-0.182853908263,0.0287025775316,-0.499608420929,0.640724860412,-0.68012338842,0.758177845076,-0.797198121758,-1.05465229416,-0.574093518726,-0.542424517157,0.785103078734,0.889419812426,0.830888237461,0.805025165918,-0.375211691534,-0.106837943546,0.509010419024,-0.717970893489,0.118451710276,-0.998637621541,-0.766441990561,-0.317624825767,0.650801161117,-0.737480113039,0.641242102638,0.0546227504073,0.34503733054,-0.699741421977,1.26137029689,1.41226689276,-0.164522545749,1.05900034823,1.26375103357,-0.804837765286,0.956832220485,-0.880660287254,0.396659622858,-0.0264923522931,0.574513603562,0.646199871687,0.711566899751,0.565900704264,0.445894855109,0.759009511054,-0.765709132992,0.585038864783,-0.981382227075,0.165694511546,-0.307206166877,-0.0802699149955,0.432580847183,0.167189588718,-0.660065591029,1.03874785725,0.916138716784,-0.601344951877,-0.0453973808241,-0.464828090545,0.466517455149,-1.17153258795,-1.0871859087,-0.740023304269,-0.249819804749,-0.33783824995,-0.577291468045,0.0693408799033,0.455137735301,0.349513774038,0.715309211778,-0.678961270601,-0.0993089659925,0.293076974116,-0.641181583888,0.438494633435,-0.626271439575,-0.232638279452,-0.346338406627,0.525621813423,0.0701635638926,0.095731193603,-0.136406046435,-0.295519150361,0.66271505346,-0.424547334802,0.871201889954,0.964394969671,-0.579428907493,-0.668137428177,-0.624841078112,-0.650753888312,0.410983202526,0.964848727351,0.585021340278,-0.522874639695,-0.228941701862,-0.495105689159,-0.986146049084,0.228070486267,0.716145866703,-0.858176712587,0.902606259313,-0.218664357155,0.525890462055,0.231186584386,0.337894550528,0.528619514934,0.680111978709,-0.0928037763467,-0.315405444706,0.801845106752,-0.650541692766,-0.0591613281833,0.226018806396,1.32510716673,-0.740643341805,0.215866287634,0.3447970439,0.485946411731,0.547072301482,-0.237363146449,0.388964039607,-0.1984806729,0.145832000239,0.185229952165,0.323225200201,-0.355087151992,-0.180167470971,-0.552012972357,0.0681477037344,-0.725654824325,-0.71329679204,-1.04482838792,-0.516777140038,-0.740564344588,0.251709745522,0.917950121945,-0.259966695267,-0.477474241203,0.385361931589,0.295169244058,0.340068397244,0.0348747305907,0.848614159557,1.17007394954,-0.680570827028,0.520615849887,0.0489030567743,-0.625026147426,0.727293511914,-0.1845764845,0.693256289157,0.495899306896,-0.189631408632,0.738970053694,0.418147154649,-0.383582619209,-0.635060761071,0.272286295432,-0.166776413115,-0.160493620455,0.207879709339,-0.635173118837,-0.681820485936,-0.578193748478,-0.165532743488,0.355471081215,0.0304193374158,-0.212635625521,-0.609032328322,-0.590842189067,-0.392301245497,0.157648993473,-0.834523667677,-0.347014755811,0.0920589422838,0.250500039162,-0.786064382833,-0.900097922812,-0.951684865559,0.873182934531,0.292333433339,0.25633369098,-0.12711672879,1.03973620849,0.271937031844,0.53604770569,-1.00170428832,-0.214390010856,-0.304955898413,1.11878788216,1.01430671543,0.392830737045,-0.47724079921,0.244842306232,0.445013955874,-0.047324298311,0.732697813051,0.536299003755,0.509735276458,-0.419285136441,-0.258345601895,0.645658668294,-0.789276756474,-0.768533967906,0.781193514688,-0.488103103405,-0.550497850189,-0.543777377056,0.949122337755,0.0870976640894,-0.640264583447,-0.101659019956,1.02101565429,0.286699314197,-0.879451278618,0.526249712782,-0.477838839046,-0.140549380518,-0.562957111183,0.205225462418,0.271984203293,0.532726865687,-0.0322870084761,0.961803064993,-0.00417453428716,-0.61390894149,-0.29915586108,0.744773621143,-0.165380755348,-0.648362874792,-0.713370339601,-0.517841950868,0.5015458068,0.0114572465641,-0.337282463363,-0.544885342733,0.334975101546,0.957929228246,0.00220516002718,-0.513261138589,-0.375127644952,0.550314746386,-0.528087371003,0.0750532731903,-0.555877945132,1.01220841461,0.362775996787,0.815183733418,0.872262100504,0.742792194918,-0.231984943662,0.568502890707,0.828998700457,-1.08999255064,0.00943232260075,0.424845558425,0.566179910274,0.697765469422,-0.112764911284,0.704509851645,0.636729097658,0.264690810192,0.344686078668,-0.107878874497,0.036774865728,0.117543500471,0.977189670339,0.0505172139565,0.525123208054,-0.0118425222942,0.253388055205,1.04258462887,-0.650869897389,0.784571218105,0.00576681058292,-0.816841457376,0.799275988532,-0.535944414335,0.177754822732,0.523276627567,0.434184277264,-0.425637066381,0.68570185549,0.605525749371,0.343075645756,-0.046215449285,-0.3142119436,-0.920640740119,0.781842398361,0.676519260932,-0.530858118016,-0.414798558935,0.576238635677,-0.412934781932,0.180296694818,0.172143189628,0.938004106076,0.562174038814,-0.889203651243,-1.01837329821,0.306491082184,-0.914325111736,-0.990883035202,-0.956021143764,0.587405079004,0.14893472147,-0.377226852514,-0.272626105562,0.167323665754,-0.451423955366,0.805366882515,-0.228429387473,0.187137856191,-0.144583427039,0.169391892489,0.766106228628,-0.50929708943,0.730065429411,-0.207211583923,0.714821591382,-0.250583700057,-0.0222277712195,-0.0280908623511,0.936059267618,0.152373427319,0.446299858689,0.813835270571,-0.840577443353,0.898979617348,-0.170269622912,-0.0589278911129,-0.14973289181,-1.05630530449,-0.012145890931,-0.322561846842,0.659789112248,-0.508170604825,-0.167021960102,0.152043084515,0.124651406608,-0.878019438936,0.397531265511,0.550691672775,1.01597539089,-0.154422363307,1.0950161379,0.956990006028,0.537596855864,-0.439071196827,-0.562596463143,-0.729002782857,0.4208384795,-0.775315467033,0.732742959996,0.542415183227,-0.422058141437,-0.606951090825,-0.732719661746,0.410481384197,0.921135483208,-0.558748279434,-0.20677296758,0.692012859824,-0.180169695558,-0.12135738818,1.3587677743,-0.844736225308,0.553871180349,0.576408961424,-0.754338538989,0.610805005468,0.0841756807697,-0.536898665951,0.829252143357,-0.920044773083,-0.256580528836,-0.675662427735,0.873657933321,-0.366654197103,-0.780110221687,-0.903806951751,0.419354407323,-0.764965594621,0.414257409774,-0.0295250963647,0.0976222094696,-0.794482809127,-0.0320749218166,0.60095586447,-0.382460813325,0.654900250464,0.585876525859,-0.0561463111398,-0.464580821731,-0.284558113685,-0.491606432278,0.661174967909,-0.697891778826,0.969668429411,-0.824064536043,-0.600168985202,0.293175143315,-0.325993201831,-0.756145178239,-1.04242474746,0.60296793577,-0.720727715986,0.682819055154,0.425777081398,0.635262192525,-0.431591193942,-0.648817166255,-0.947218758039,-0.387667364586,0.585875965796,-0.708170094226,0.728915254123,-0.211342320233,-0.859566108258,0.669095053849,-0.305425347792,0.710321716909,0.484899647072,-0.740614814246,-0.89916388278,-0.384670856071,1.22480965895,0.376919071543,0.227348625118,0.920355519642,0.52590792537,-0.600070940036,-0.782306809685,-0.960864663888,-0.33550225394,-0.32501890785,-0.0158837423926,-0.0180798704613,-0.714286346415,-0.190594218731,-0.908788391423,0.597482783545,-0.636016147507,0.711122085928,0.659215029151,0.294483027144,0.153273533191,-0.134527996682,-0.290346507492,-0.135988357834,0.362353896929,0.75331056765,-0.648998962272,0.0462755802873,0.754671132461,-1.00518322295,0.532591732029,1.01252316079,-0.772704112867,-0.759347245145,0.222698074401,0.668209418305,-0.390028900285,-0.415367861736,0.630667228155,-0.109380645096,0.126917852388,-0.458711054535,0.89268839517,-0.701070374827,-0.754762959112,0.27622824754,-0.124033860019,-0.584187680298,0.4679344733,0.440907131454,-0.893623327964,-0.254214902133,0.504586866781,-0.117647835325,-0.44555588161,-0.176628922109,-0.627401774634,-0.94327138769,-0.516601090916,-0.440486227766,-0.347866037791,0.133058282134,0.598740136812,-0.683152264879,0.0240753746236,-0.769710825981,0.573910686916,-0.093057026337,-0.932621964485,0.769775148379,0.431565228247,0.32957117445,-0.826748557497,0.697046058264,0.801225691242,-1.18156980223,-0.924480956012,0.258501164159,0.213616221748,0.0952576541024,-0.386915183153,-0.181531741467,1.10741972429,-0.461903403188,-0.360900665185,0.359725085008,0.335998104715,-0.864692625922,-0.730073282812,0.810120651601,0.946728501384,-0.00561361529651,0.777640106685,-0.320192725291,-0.349557623371,-0.150612049802,0.662383696399,0.124705007069,0.225068542975,-0.520815679067,-0.129897230244,0.714683335697,-0.839835312167,0.452999159608,0.676216250313,-0.969419010993,-0.77058091972,0.672805613205,0.632768468726,0.204631627173,-0.838429863636,0.838663362141,0.416370145294,0.0306476226831,-0.4353103262,-0.109491499757,0.998531156932,0.768934047211,0.4315152736,0.108693192152,0.425844763903,-0.0447521112972,0.634454326937,0.960078828999,-0.720991645029,-0.779591132488,0.911520781398,-0.165466207965,-0.860444969611,0.510884476944,0.510096200976,-0.172073566732,-0.138673619368,-0.387212811346,-0.181528246094,-0.336296988486,0.563101856195,0.571627571697,-1.03837032401,0.652377407582
-0.915638347137,-0.756557688725,-0.413775149186,-0.103493911141,0.972937369798,-0.908481581786,0.168547949391,-0.065886725415,-0.148031594595,0.579839594974,0.243130540406,0.464509163591,0.199859615197,0.577068631958,0.796959040337,0.0254810388672,-0.225447220024,0.891285354371,0.32911275777,0.831298316955,0.740637908647,0.35577420058,-0.706543007985,0.490603344283,-0.696348366423,0.473974298602,-0.834394352542,0.209127816879,-0.870748054768,0.0814842787923,0.814028173908,-1.12238252152,-0.0899351979844,-0.340872912504,0.66735449296,-0.500436818184,0.865760919899,0.386839792425,-0.423778425486,0.480552851679,-0.214381680379,0.76769316688,0.769452668552,-0.145076193125,-0.686536116387,0.941560873953,0.0829633390219,-0.565350119955,-0.0953236632436,-0.826333508539,-1.02831623113,-0.470680016064,-0.389621770643,-1.09879280752,0.497493613001,-0.0688661242856,-0.175880449306,-1.15320099798,0.250735742261,-0.99717788448,0.414771455438,-0.67748219914,-0.0996207292375,0.910482596926,-0.407683216064,-0.644899997343,-1.02051547383,1.05385279232,-0.0933659202345,-1.03584441939,-0.413650441427,-1.0401844959,0.424156494489,-0.379017162413,-0.287223594517,0.162286823683,0.10197276513,-0.904973296295,-0.994292544253,-0.845237248806,-0.11218483836,0.409184047599,-0.829777028901,-0.170323703247,0.190999831807,1.07934670993,-0.678331267517,0.470669491191,-0.153525710891,0.186227852325,0.316868975809,0.833238735183,-0.430543653403,-0.838903483673,-0.145526558549,-1.03986953182,0.131143893639,0.686810832965,-0.193501524466,0.877710893625,0.763976667702,0.122623259219,0.605622570031,0.371770168174,0.785722316387,0.0178715114084,0.112947158269,-0.0940614377807,0.878030887004,-0.448218864233,0.935295450613,0.108266132986,0.874110275612,-0.181749383888,1.0013902797,-0.952704614963,-0.0702507946915,0.110175409546,-0.329789454653,0.0281704648252,-0.870690147064,-0.667196615168,0.639052531387,-0.019766670459,0.717332695288,0.845361336966,0.193759660672,-0.260903087015,0.433991249227,-0.309044902333,0.40044754948,0.602299697763,0.249498774617,-0.836630875057,-0.499004857428,-0.325849091452,0.966406086729,-0.696801917063,0.329751500349,0.16018815515,0.579407393647,-0.642847291273,-1.2345727997,-0.0672194040961,0.0834627340145,-0.445765483574,0.285419157954,-0.820982988475,-0.552509320846,-0.684810391406,-1.15956477632,-0.0768479620023,-0.735390279284,0.596224194707,-0.429842568738,-0.9657459521,0.470307406113,-0.189672249978,-0.7146440563,0.504286635704,-0.193847907975,0.466298486064,-0.968656802702,-0.838699614301,-0.808442478232,0.988026272447,0.950892053613,-0.00846087970633,-0.0487803874424,0.704128780994,-0.425396155045,-0.534545746189,0.275531732277,-0.0206845224646,-0.344553286052,-0.904481776029,0.513447127388,0.757870003101,-0.596734007557,0.982788028068,-0.0750182962037,0.43369655155,-0.333754997513,-0.861065945852,-0.404420591981,0.458339424516,0.87759615271,-0.343436466519,0.856259511634,0.0331394947748,-0.485890284928,-0.525922348989,-0.653216524296,0.222747048917,0.383000542335,-0.45443337324,0.445020329415,0.98497240993,-0.221290422746,0.651426175629,0.29865269604,0.999359115632,0.680601479703,-0.0204046657856,-0.121452744822,-0.140099403878,0.87570179034,0.405888099319,0.772705562464,-0.853356796138,-0.258480750205,-0.0360416284103,-0.666978447075,0.736738108477,-0.194129619812,-0.720090856654,-0.40320926271,-0.0541424118984,-0.391213840553,-0.194442658376,-0.201985859935,-0.0615861599424,-0.626272074392,0.821072030539,-0.324917493133,-0.586880717068,-0.618041090325,-0.308967489406,0.994286961445,-0.604942005675,0.808325844935,-0.177212253692,-0.0723931763334,0.867235418466,0.853909344992,1.20962184732,-0.806972046361,-0.515740197331,-0.290712691696,0.591648046827,-0.507180014359,-0.929327792793,-0.564311742164,0.428598415329,-0.85534887136,-0.788586448399,0.15841955074,0.226558683356,-0.662488230957,0.704887420684,0.358290709326,0.470438199232,0.369109058997,0.467682214363,0.681202345274,0.196076068304,-0.811592595542,-0.844046058634,0.719983295294,-0.109267488392,0.706301740809,-1.04794792642,-0.797607059206,0.266840860816,-0.639324621995,-0.976797129178,0.408466789319,0.477592086779,0.160100341899,-0.796404394583,0.660244781756,-0.72425665527,0.865955406658,-1.20688040883,0.223905565735,0.24608221882,0.611640585249,0.0429335545724,-0.298064494163,-0.677240340715,0.928971837097,-1.03224040205,0.0459634138527,0.829223223303,-0.224692575467,-0.630206481174,-0.157987182122,0.653332131863,0.943033368168,0.574015073878,-0.236801655022,-1.19728663896,-0.448294666127,-0.360723384855,-0.164063292821,0.565799151326,-0.988707156101,0.778983639589,0.302825049377,-0.787223291056,-0.400660959324,-0.958093281824,0.204576979229,0.548165088831,-1.14176111725,0.542723329341,0.504407352176,-0.465460736894,-0.185467046012,-0.233111862311,-0.0748810335935,-0.262852042971,0.00717932088494,0.248810812598,-0.0965020486689,0.541477085981,0.238171392584,-0.750239813566,-0.659344404686,0.9111727344,0.493845634674,-0.573195744477,0.179729645945,0.834460397113,0.687865974572,0.581798961943,0.629602190323,-0.197012667436,-0.241842156341,0.105766040728,0.26179336318,0.541473555951,0.928676308123,-0.472221363732,0.658415205641,0.100664176418,-0.0462467218695,-0.25437831001,-0.0583975352463,-0.602217727226,1.05793101852,0.22107464004,-0.108009628267,-0.0344952201407,-0.370653610539,-0.0780193694016,0.505220211524,-0.0120167605823,-0.316746277031,-0.130431446462,0.921805826418,0.637548514285,-0.285351550281,0.574766465188,0.44282284933,-0.797777343409,0.869995349228,-0.200088284454,-0.126028065653,0.191259680413,0.518949280107,0.848410397127,-0.406778729854,0.444399994984,0.303005823222,-0.55585046463,0.800874676841,-0.503679744079,0.704248266947,-0.109782274958,-0.0663217296426,0.498722140991,0.703481514918,0.219933655421,0.987059562185,0.70383634927,0.53856656805,-0.209546941956,-0.227433491324,0.826209987299,-1.06792061542,0.448908513014,-0.396684783807,0.30956539911,-0.496809331427,0.319246843652,-0.776204206898,-0.223137182353,-0.199022271592,0.0206325731338,-0.622273187472,-0.791760965675,0.317308437421,-1.02860472727,-0.0453770498651,-0.526917756799,-0.471794034569,0.563264030061,-0.250962824215,-0.06940746262,0.239070103181,-0.506182089261,-0.645287887545,-0.649400218245,-0.337418867836,0.612797411262,-0.606739907972,1.05843537204,-0.573412719104,-0.28396829665,0.23425599279,-0.519531577209,0.487056924139,0.242940489876,0.971721602848,-0.366483164332,1.18527325833,0.801156696121,1.00420019317,-0.296964842785,-0.288782101946,0.0174421446612,0.296246612711,-0.285289421619,0.174135955158,-0.996455604564,-0.248764923859,-0.201636938107,0.478604985491,0.44866394569,0.976033917556,0.261248029374,-0.310005641642,0.83948653439,-0.723946623953,-0.874638415513,-0.91506512661,0.757095991192,-0.477303772815,-0.385194238994,-0.761685056496,-0.393337096265,0.832825481137,-0.187043464934,-0.813409709001,0.153584071551,0.584194953749,0.268558185392,0.273612047106,0.509491287006,-0.219321657088,-0.971922316722,0.0834523581755,0.607340928254,0.230421351289,0.963761307939,0.0889761632692,-0.069013304366,0.459081481468,0.377713217808,-0.967160146242,-0.708057978005,0.643425371087,0.292829050341,0.811867412549,-0.998587559182,-0.0829539571429,-1.03630866303,-0.00523169570378,0.960128884143,0.454164267855,0.156196912636,0.380108223387,-0.105421449103,-0.570796626541,0.273465835599,-0.166172461908,0.387892999439,0.646474670722,-1.11469546979,-0.772537167597,-0.417332334804,0.0942133611023,-0.812899067138,0.478097768395,0.371107800804,0.447014346833,-0.418857348957,0.735435081956,0.0371788181266,-0.641769421283,-0.576811452293,-0.791601665791,0.395188075498,0.998322863886,0.916437807643,-0.751198049134,0.674952691103,0.476056818152,-0.657572589456,0.539575499628,0.0819560868808,0.250293274156,0.822331708668,0.125746857216,0.70505255743,-0.597626451591,-0.976731009478,-0.303740670808,0.398814208477,0.798795233387,0.112276499778,0.123237572208,0.195091196043,0.059891674914,0.466055664221,-0.118028137479,0.280059902998,-0.484344762379,0.793984232636,-0.539536691168,0.167556084331,0.0606125128611,-0.937132005724,0.0453498897826,0.810243021527,0.628057768797,-0.000677866904217,-0.164098033035,-0.312381838627,0.397910477132,0.546707660219,-0.823884719917,-0.330360279974,-0.522129265915,-0.896325951642,0.414405457729,-1.10818896349,-0.736456871549,0.722460866434,0.0176585955232,0.138101415285,-0.607562376196,0.791964971176,-0.0511543689679,0.678298462937,0.345055585439,-0.285030999629,0.0254029642198,0.216618068876,0.126371751557,-0.828029493048,-0.517010029177,-0.305402116501,-0.702127090994,-0.145228590331,-0.211398660547,0.00759096365374,0.789684579351,0.25611370777,-0.893078193705,0.68954884457,0.772686411321,1.10708801927,0.135575261044,0.793517899463,-0.200959751599,0.480500445485,0.152529310018,0.152078301481,-0.786952717791,-0.750829961937,-0.902061293418,-0.188830127673,-0.0120795404738,-0.692493767942,0.17531069166,-0.355890924184,0.785703739208,-0.570004931321,-0.202657017785,0.928447680879,-0.500445124889,0.700553667221,-0.303189389318,-0.543373739721,0.149622728159,0.869753387028,0.574896834924,-0.891767011497,0.668073456528,-0.187241378457,-0.675765200965,-0.212644431043,-0.751306796656,0.253403979363,-1.00716325237,-0.901427675539,-0.91208129606,-0.279242752138,0.383232791453,0.503481776153,-0.676516007913,0.472293244091,-0.72180512008,-1.03003855989,0.375934188046,-0.00219163069954,-0.197352719403,-0.413542012178,0.741479435831,0.898935574938,0.369755265081,0.23372119003,-0.219831907071,-0.24798094023,-0.559927694932,0.293483104391,-1.07158658951,0.77523096634,-0.809974770288,0.445395158815,0.505743238864,-1.02085546114,0.649432025455,-0.972966585987,0.344919548621,-0.807035574687,0.376765098786,0.562630973823,0.186464251876,-0.586815148774,0.371498374205,-0.245579329777,0.290417703627,0.00807021729022,-0.00759184279214,0.483356941076,0.589809670637,0.547515801964,0.665953672211,0.527850229667,-0.159209913378,0.87876494441,-0.0906306782736,-0.867715294053,0.0339844359694,-0.821793641947,-0.112463908108,-1.04020649644,0.642691088558,1.40714606117,-0.937053017763,-0.062569336894,0.21417779646,0.987161796449,-0.935722118109
1.37106071215,0.287378390037,0.247753469728,0.080682969087,0.0787967622854,-0.659357631846,0.490076643242,0.660215099999,0.312045190684,0.795066896705,0.622059453859,-0.30663700877,0.612164869416,-0.718622653101,-0.160287593279,0.737455166253,-1.13962430161,0.488973838048,-1.09334291407,0.482949677175,0.576057645647,0.882957847513,0.581488966162,-0.338803379024,-0.398466595308,-0.349278940587,0.222665039793,-0.994961049713,-0.860147882982,-0.781734668316,-0.203763097366,0.798886023971,0.101364059786,0.0808303845725,-0.49341686054,-1.24042749435,-0.888586353526,0.00358412126461,0.233779530346,-0.0704687823338,1.0605380032,0.305985644842,0.351919507911,-0.262062391354,-0.819665423386,0.120871097531,-1.12203536021,-0.371381054971,-0.72309219741,0.642592260151,-0.667881520764,0.512648668936,-0.763302625516,1.12142011357,-1.38146741775,-1.01048213585,-0.461996153395,0.211459253401,0.0934207058213,-1.0913627182,0.381994509089,0.0826188795223,1.62478521244,0.717937815934,-0.98020484964,-0.510427367424,-0.555714582085,-0.105281164236,-0.287339072705,-0.0486878963332,0.904305124352,1.55956494126,0.138559796823,-0.697239333515,-0.225725050866,-0.179151487276,0.610027851757,0.57269793435,0.653701243665,0.0883679115753,0.0587790988847,0.120390376322,-0.332753980273,-1.06710937675,0.800853341921,0.361477773476,-0.298488698817,-1.25437837929,-0.694271549026,-0.744862037976,0.83997627191,-0.300460473465,-0.0629074352598,-0.146177902518,1.02119797459,-0.686537482501,0.667953059762,1.00267963413,0.579457169262,-0.897934772648,0.711016628953,-0.12108560564,-0.0515455980733,-0.302594491449,0.749873749098,-0.815829596233,0.403362421246,-0.791465670196,-0.397892061839,-0.746855721502,-0.0638650448818,-0.0725532810528,-0.472882965501,0.87715653035,0.173417810514,0.715871772282,-0.569801243696,-0.914378467649,0.765010759343,-0.677586245289,0.0642078802346,0.515902610313,0.678380502953,0.463562600599,-1.05134007652,0.00730513492845,-0.714781449666,0.687931895338,0.122466104692,-0.420466851415,-0.000489956997989,0.833367708149,0.58211077358,0.555212347269,0.518177832387,0.585637834245,-1.06356124443,0.477112060449,0.66078601,0.366669773439,-0.0650131443431,0.115997776678,0.12059405566,-0.0286616266266,0.769354950121,0.243729570506,0.331031718795,0.307870919019,-0.68122233439,0.37467948827,0.185156375313,1.33820492448,-0.218552934245,0.0847943010998,-0.267701878664,0.729767038897,-0.0465951421032,0.522666833792,0.898922184526,-0.823119943699,0.0967847189245,-0.733130255929,1.39474408595,-0.846948643238,-0.380013802812,0.126230828681,-0.570911820359,-0.79633906738,-0.0546382541436,0.0222361291994,0.61785856166,-0.248126010043,0.0681348311495,0.837269060887,-0.328946594758,-0.543033449709,-0.176644315962,-0.389643928369,-0.429075847058,-0.596237315649,-0.386198283431,-0.90792238567,-0.876050647177,-0.673338544546,1.04427358218,-0.27079882791,1.10419234849,-0.132270148889,-0.284363616316,-0.202770843115,-0.469415859986,0.180504202011,-0.816181539797,-0.825287783278,0.298742841653,0.270278274561,0.276656221015,-1.32021228865,-0.834389485511,-0.602712847615,-0.355638462412,0.232236757686,0.269591943261,-0.330535258476,-0.01879919727,-0.852248005371,-0.0222924471709,-0.613024613659,-1.05559543694,0.877970005063,-0.630025316781,0.97460856755,0.380181819925,-0.851302083147,0.539237347762,0.057494346874,-0.919266385138,-0.937263020526,0.5586740406,-0.421515674496,0.426366222655,0.674722377023,0.792962575136,0.0888814247061,0.594869451248,0.43044100232,-0.581395070181,0.32689455743,-0.633858590565,-0.688794638188,0.760035006443,0.402982955255,0.439205027318,0.654175827867,0.0589707206512,0.114934141732,1.20047009847,0.218868524929,0.232077875537,0.664777060914,-0.751735175884,-1.0360100843,0.0659674314398,-0.314826431446,-0.30884307199,-0.208783974785,-0.497719676304,-0.369604995246,-0.973214739378,0.905468209494,-1.14759374482,1.28149532276,-0.681305373431,-0.108174494313,-0.844732306815,-0.238819510296,0.297285831363,-0.609203597026,0.416341673368,-0.539329072984,-0.11173564497,-0.0776860786016,0.0572750362443,-0.0906929677541,-0.648512634276,0.694285590532,-0.566615514761,-0.0979201263443,0.786985758523,1.04438207968,-0.531095089394,0.167781894468,0.860347905125,0.907741252919,0.238674274873,0.241447628646,0.6286852916,0.119355602507,-0.634422324957,-0.402352074699,0.522691940397,-0.807142062643,0.411160672318,-0.0227579828228,0.228444099726,0.816538124826,-1.29331059101,-0.961004717514,-0.390203748389,-0.359126484237,0.453386997,0.194652065853,-0.802817035314,-0.934658296548,0.23532939694,-0.186644804226,-0.350079123478,-0.577585042696,-0.904003029355,0.555836950276,0.702315220178,0.491670498559,1.0982566592,0.8921488072,0.304562788272,0.0329780434179,-1.19713030809,1.56022165617,-0.669858946771,0.619516108429,0.482394155444,-0.0761129306837,0.364664090375,1.34381075001,-0.104399742432,1.57785283341,0.29134110399,-0.327030814123,-0.59262130302,0.776402296252,0.138348489185,0.352566751264,0.980508274489,0.324165252992,0.425862461081,0.494875279461,-0.0550826854471,-0.211583568817,-0.00122793313941,0.675953817669,0.491365157453,-0.656630091988,0.508291610478,-0.00224509964285,0.615470674197,0.31095156936,-0.533797714716,0.650077507484,-0.500258849172,-1.19978523408,0.251084058931,-0.53908001802,0.241865633366,-0.17137993893,0.771975339452,-0.344948731796,0.78906766903,0.533816936854,1.07914416138,0.760571802567,1.01454568372,0.70070683428,0.512804888852,-0.208713397368,-0.422369221989,-0.260866460253,0.266802607835,-0.805995284753,0.0805685217093,0.228867334171,-0.202846177326,0.748681477092,0.0374391220623,-0.667167957926,-0.907090160318,0.391199377773,-0.671666481078,0.955901394123,0.837497024067,-0.804411960822,-0.878565087495,0.599393190457,-0.548595512445,0.818415126504,-0.238620346096,0.366233384525,-0.434248302779,0.602749368993,-0.0974259539475,-0.393867801072,0.174359405454,-0.972040097492,-0.00986599729275,-0.657626628039,-0.703990475374,0.425624057522,1.1445554817,-0.460086814985,-0.358401912084,0.490006489427,0.93075622554,0.252755853729,-0.751083900001,-0.945110216576,0.523254606412,0.118970551561,0.23835920159,-0.556799418658,0.54398314091,-0.541369429349,0.948753506689,-0.373987017251,-0.344527347998,0.21254077475,1.08333856477,-0.817508175513,0.388623335159,-0.583853367153,-0.605704023406,-0.788286420386,-0.604413300956,-0.325952037964,-0.752050480555,0.593928907878,1.06148026954,-0.153914012682,-0.0641405051522,0.814523311771,-0.460039923508,0.771475508472,0.604371963178,-0.317604228949,0.332388419525,-0.156527433005,0.461707029756,-0.617423510731,-0.379197662198,-0.589065914566,0.927091782154,1.01195802427,0.415187655242,-0.312144672824,-0.599504136704,0.842442995021,0.64971294138,-0.360133283917,-0.556117171943,-0.0374661645714,0.0996174339295,0.163180231241,-0.994714158067,-0.959006579958,-0.441039033116,0.543675952305,-0.765680481624,0.75631716653,-0.793512888012,-0.159122427109,0.41557450581,-0.0131984967742,0.702331299476,0.695950591703,-0.406411982586,0.56907167941,0.8534513718,0.776665768448,0.546896452371,-0.78254192528,-1.30234669813,-0.260632220114,-0.571800082593,-0.389029140761,0.666229192137,0.514049857495,0.662171998232,-0.510580557718,1.03135033321,0.507019918604,0.393567971747,-0.862004289608,-0.304991017782,0.724454662533,0.394032654109,-0.494881163901,-0.289870041734,0.0727701204059,0.907921021957,-0.832982932314,-0.22613798034,0.214499476258,-0.40045432527,-0.0471308687157,0.702646854775,-0.531804335913,-0.538571424924,0.875850118852,0.172954947775,0.669143238424,-0.988826896262,0.467714159752,-0.244994019034,-0.0557205893173,0.374965172343,0.892346362879,-0.0620808721229,-0.262184383676,-0.250334544389,0.987740311775,0.250778499629,0.372678602551,-0.208772863005,0.803973919654,0.793817365727,-0.697571437485,-0.684043765561,-0.705468718248,-0.533144860444,0.630086347398,-0.352652308164,0.0710167574825,1.07761092353,-0.691592027904,-0.00227816785686,0.496611249721,0.0749802408506,-0.807729043511,0.692578509559,-0.00596769028156,-0.0174281394569,0.575573487941,-0.346810086308,-1.02638678206,0.470928063662,-0.901294668777,0.253104312156,-0.138122373387,-0.418133129797,-0.0966970776995,-0.0890595055484,-0.240217629377,0.417249136956,-0.4862316009,-0.66138353501,-0.228330450074,-0.522299871495,0.766060639734,0.746362367886,-0.914007835037,1.20761160923,0.577666253102,-0.871359903964,-0.82743140703,-0.761671776776,0.854487893523,-0.559206401568,0.251105381137,-0.0311593670761,0.106580699461,0.2627046619,-0.634952158399,-0.366906477894,0.925787998361,-0.136774078436,0.256607421508,0.0666387913666,0.734894815593,-0.0426441273712,-0.727295272184,-0.691833458062,-0.546789182021,0.768409783844,0.192614157076,-0.29005497131,-0.821526423902,0.516923659333,-0.428225654356,-0.333495929642,0.800810680277,0.826405911851,0.220760624909,0.036981808889,0.688509764138,0.426226891504,0.832174392941,-0.728681935861,0.775636401906,0.760167916643,0.457668723345,-0.248320280722,0.188716161029,-0.759599780462,-0.71178237941,0.475685977469,-0.827564689629,0.263284818466,-0.243769788327,-0.732294707553,-0.929411349233,-0.0395562712122,-0.912783985969,-0.0780864908662,-0.841428417054,-0.11664799145,-0.886759297295,0.717206760395,0.606227554513,0.215961849626,0.269525707379,-0.302068210386,0.849162104016,-0.210638568841,-0.157095918151,-1.0159399919,0.875864465527,0.183708529315,-0.422692984586,0.959373161272,0.627208276625,-0.17461305995,0.377431919176,0.139500372683,0.499054968817,-1.19589172515,-0.136021331085,0.433074185167,-0.887857166827,0.137714589635,0.0343266185174,-0.977058584465,-0.0962530240415,1.09950218718,-0.179841261432,0.798618212325,-0.517780438056,-0.78170115587,0.402018644363,-0.441083467659,0.757571722713,1.57672234534,0.599694150791,0.455949349375,0.457785026526,0.920602182596,-0.775895702302,-0.264117925582,0.654412138821,-0.262799521002,1.17463450157,0.587953352342,0.734274415015,-0.283085400041,0.67213456825,-0.447950386578,-0.5460789756,-0.763381447783,0.934042396914,0.823389926024,-0.932101714586,0.192753302655,-1.05868777651,0.11421464531,-0.495083672233,-1.14288274639,0.70865546753,0.606881341493,0.873193312249,0.0156935783231
-0.99711183534,-0.12166798488,-0.533098795095,0.278900381068,0.768973251628,0.536368915431,-0.97787240633,-0.42373421309,-1.31572319948,-0.469240735866,-0.242117065889,0.261745349176,0.496203297981,-0.524547288508,0.281647843065,0.0395311884589,-0.734180499318,-0.270533135939,-0.628789069566,0.864225220743,-0.884343338039,-0.991457901103,-0.00923296452991,-0.145840266436,1.08212812245,1.12919612549,-2.08066713239,-0.0645518675554,-0.736362031738,-0.247672155317,0.309739382083,-0.853303958862,0.674746049259,0.125371328707,0.738577952491,-0.63559056584,0.534252958772,0.242838139525,-0.191201089651,0.205480079204,0.771838053759,0.749528642475,0.482512686866,1.07670944158,0.64404055075,0.272048826438,-0.648164421601,0.610301898441,-0.605861915096,-1.32494003933,-0.352534457655,-0.0846536197084,0.500067568315,1.19836181393,0.168657040698,-0.25042937889,-0.975482002341,-0.630379818319,-1.09476718043,-0.72995061786,-0.714316069034,0.451938675844,1.20543091135,-0.661607840419,0.212339873478,1.1812965866,0.986189290952,-0.725977111459,-0.239053364709,0.571247769651,-0.315918115989,1.11816514709,0.912587537868,0.809405489563,-0.317855090437,0.921220601933,1.02698749704,0.954358273221,-0.911810643527,0.6974010543,-0.455450377418,0.213998442901,-0.398767740149,-0.507494081707,-0.0868903666554,-0.037570519085,0.431229630681,-1.2248204508,-0.0988489205754,-0.20266077138,-0.343799240409,0.0202280789549,0.025356030569,-0.129382969033,0.314661042292,0.68983568763,-0.634450062812,-0.260243819411,-1.07234746825,-0.0889380900035,0.102072462633,0.0538855477639,-0.369762920605,0.584386157089,0.32566738099,-0.601202257147,-1.55492574163,0.474778688291,-0.125717678656,-0.145347406614,0.705372788531,0.420280169016,0.179054785435,1.10201920475,0.45989150499,-0.96251477767,0.214613195857,-0.497514036044,0.490877195157,-0.48156252108,0.656822578411,1.11089257742,0.824420479413,1.33418001147,0.705225287522,0.759887186445,0.629234837326,0.704035410389,0.489642311348,0.435696318944,0.063982657693,0.0325250536107,0.234697727916,-0.00939956829125,0.12271881975,0.755847678072,0.108013162931,0.445847914474,0.27588465508,0.10947508681,-1.0182339343,-0.724064259169,-0.560179188016,0.510230950167,-0.115701527282,0.636978879345,0.461803500823,-0.700384052042,0.714374342748,-0.00226016577353,-1.09676760052,0.563473281004,0.103501456227,0.988053437907,-0.232773793155,0.0646190187304,1.33046452567,0.163851382862,0.474469076835,-0.224090634441,0.515376403784,0.172300866925,-0.368111712067,-0.355898818924,-0.627489073857,-0.705823062976,0.542891657653,-0.705551092125,0.756878971644,-1.0613965015,-0.579842437731,0.836698062677,-0.888979880671,-0.0414222892891,-0.762361463215,-0.438911373915,-1.00354152109,0.522212800918,-0.752801995966,-1.15764519813,-0.380070063777,-0.277905692143,-0.694345186334,-0.646963005043,0.275628081701,1.01820478927,-1.08012147368,-0.881570685748,-0.274303853214,0.836971857014,-0.0636313818041,0.699357642576,-0.667544694803,-0.480078892031,0.839926875772,0.0370610232232,-0.578999205854,0.149263444161,0.415924559271,-0.59120469782,-0.53320859061,-0.314950555975,-1.00881347656,-0.843367845181,-0.183535685277,0.611962290966,0.0687230518701,0.421319461475,-0.415338391638,-0.219814688596,0.238484482419,-0.127417481838,0.950636400105,0.0479795872141,0.148604198318,1.10860596826,-0.152490124672,0.642526660809,-0.202607866597,-0.546574226458,0.329406543874,0.813483306241,-0.188066590198,0.72807172998,0.453884173848,-0.368680967004,1.04763421256,0.88694772356,-0.291281674991,0.773852834341,0.109504348109,-0.814666631611,-0.436251798058,-0.457108553964,0.188769493427,0.795413942174,1.1536208404,0.804532682679,0.54957261234,-0.00670733711588,-0.826373945117,0.521404151274,-0.461375949444,0.600284573798,-0.261722022391,0.711502669479,-0.158809979138,-0.944509126561,-0.16858915166,0.597996528065,-0.71018784584,0.392987949645,0.538350689209,-0.387446782105,0.59381674307,-0.152336362994,1.0070595334,-0.763323235298,0.620942382265,1.00149017932,-1.01401050775,0.82865219248,0.498402178962,0.183450297414,0.794656776462,-0.852471514578,-0.925418760302,0.317169987386,-1.01889440651,0.196412119675,-0.416279142819,-0.186242248435,-0.179326230466,-0.436899689346,0.276616854138,-0.585785226104,0.095754710012,-1.07765782157,-1.12767052607,-0.435757720882,0.729874554573,0.0136166982419,0.177757162852,-0.184854769305,0.854539996407,0.457508690589,-1.01057647967,-0.622794050657,0.877728570951,0.417386773585,0.0550307408077,-0.0431249406629,0.148277749767,0.13888547095,0.576410085092,0.836067045364,0.136092574403,-0.622183856562,-0.0617113347986,0.959987863265,0.137075350476,0.162086104714,-0.408329958895,-1.0190754853,0.165611284806,0.450729802566,0.984320415766,0.314904984363,0.0311724901716,0.148250409602,1.18871450935,0.511929054708,0.256611016305,-0.267744276268,-0.656201453067,-0.50679253967,0.974047182152,0.0467863949942,-0.403886279628,-0.6668339321,0.586407949332,0.326261286864,-0.480882499451,0.437043728748,-0.705323961814,0.789849556722,0.620902162627,0.613465791547,0.628742648473,0.237776787375,-0.598029180717,-0.371775840371,-0.301610336197,-0.37400720496,0.784020856495,0.992933995243,-0.264542609017,0.891765781732,0.580983329964,-1.25791086218,0.39652183974,-0.725514758322,-0.656577722143,-0.551676357735,-0.101906289054,-0.30791945894,-0.312228875614,0.0441240731755,0.284016173236,0.562409297803,0.347528324554,-0.742771073766,0.372605120209,-0.172060565651,-0.806250574545,-0.16243035802,-0.234017021794,-0.349413839056,0.908486342135,-0.710774593833,0.866769577012,-0.207365938435,0.251931434649,-0.861841934428,0.851912926616,0.477520715006,-0.729245343478,0.616388007592,-1.03172600483,0.0489957869514,0.282930889514,-0.744715874219,0.24419801069,0.00273935570803,-0.705310263028,0.0539479363344,0.712456966041,0.530560998726,-0.853804424147,0.0872426379858,0.544039534042,0.918558948033,-0.246834634727,-0.595273531293,0.628341898306,-0.843097822456,0.0459497159906,0.827690624773,-0.0361088965612,-0.678973662701,1.03800758857,-0.422328008973,0.337510078703,0.90799470732,-0.168443180065,0.0717597920395,-0.201899072573,0.201338562043,0.934154975961,-0.619430216427,-0.0386815198877,0.199489085953,0.382424580102,0.795999248866,0.72837883524,0.667944536257,-0.773038860314,-0.280071516348,0.758464231734,0.646434780619,-0.664810748962,-0.227613033133,-1.29837021083,-0.16045726583,-0.591204763508,-0.869983726069,0.104067998571,0.546344302661,-1.04946918125,0.104952529404,0.0703986527221,-1.23959068316,-0.715792843915,0.76236988602,-0.486686014914,0.0130455360577,-0.792077622376,-0.558728173455,0.638230113337,0.265852720208,-1.87033812186,-0.989039533031,-0.414904923572,-0.118358509936,-0.100444039049,0.203740842455,0.480353832573,0.763076268724,-0.624148470039,-0.696440170285,-0.576189531639,-0.864375929621,0.0969849813591,-0.549439833625,0.803698889697,0.0082955868139,0.161793182527,0.431916984113,0.865985793037,0.295732798566,-0.945247777813,-0.637531880116,-0.599873538051,0.686762799332,-0.29104673266,-0.0802871681329,-0.363213208119,0.858953594429,-0.192823822824,-0.147176207936,0.100781981836,-0.600233230076,0.884919781868,0.576767634744,0.753536728691,0.626224897506,-0.126360405421,-0.451017080836,0.35765732423,1.04464755776,0.637479441511,0.534782374825,-0.775242110119,-0.754738900715,0.797608672402,0.407024218899,0.292223631616,0.218227660253,-0.811565154641,-0.0516699216342,0.905917851855,0.706698832796,-0.112080775954,-0.181753520509,0.653422602832,-0.246245374747,-0.442253884532,0.295073403217,0.528699161563,-0.0463180234777,-0.223118814455,0.475490513999,-0.311832969245,-0.0397268773441,-1.25784130894,0.351901163666,-0.250852878118,-0.0294714678139,-0.226683634855,0.210278289187,0.418368145541,-0.859058783195,-0.0897681709203,0.43920124751,0.174181634933,0.805392626078,-0.659356783484,-0.416389146119,-1.01433660456,-0.787257954664,-0.608932234827,-0.201602969099,-0.880977578471,0.825285333097,-0.381161569416,1.15796449638,-0.0164148447378,-0.439021822765,-0.701466389999,-0.33880990897,0.234988009413,0.790284878011,-0.28583898247,0.975004017371,0.194490830808,-0.606877903812,-0.1160688646,0.970534880036,0.273107514297,0.558035337293,0.305986023174,0.736284995142,-0.645190110639,0.588433557785,0.0437554589683,1.04047382272,-0.876932644893,-0.647343312249,0.155279990605,0.464081232997,0.590766949106,0.783411061166,-0.777877249246,-0.92928846483,0.440059364738,0.266565259195,0.980645222358,-0.432352082765,1.05666862648,0.23336481961,0.54781367947,1.16357125237,1.13169745826,0.811980223932,-0.351468306627,0.260153171854,0.816181489291,1.04750219393,-0.545241308838,-0.183061126567,0.762157219732,0.176011914774,-0.783049029857,-0.225286495293,-0.834281039785,-0.235355643831,0.144052893737,-0.0817378763791,-0.337997162548,-0.18086448345,0.104514052176,-0.466788096458,-0.8254226557,0.665058749849,0.0256827596173,-0.516939492078,-0.377504716862,0.80572435327,-0.369936206345,-0.573821933122,-0.66136323976,-0.458106163939,-0.335953720538,-1.61789198692,-0.957723175095,-0.185677013638,-0.541522781243,-0.846226197648,0.341849074734,0.431700617456,0.827934132497,0.205301406832,-1.16173614639,-0.461557307716,0.529751188602,0.0239354202778,0.328388883692,-0.0877590385154,-0.867575894688,0.332992243282,1.30592841578,-1.34633029605,0.851478521993,-0.534022632244,0.51181837525,-0.823959187748,0.610295159098,0.691776340953,0.137182752112,-0.429564782231,0.735359778128,-0.407108681088,0.449242769624,-0.160400692553,0.787191923217,-0.705785927301,-0.726134076278,-0.587498940184,0.359121044151,0.7136683353,0.646554329973,-0.888318407968,-0.0264942180049,-0.15645214444,-0.63046630429,0.430064635564,0.158771964699,-0.923538722807,0.216045361963,-0.121687685063,0.726737357025,1.17523435867,1.17825515088,0.509270849117,-0.449241749191,0.1369779335,-0.430954435553,0.23536986753,0.299199224458,0.0791783475488,1.02622884074,-0.837775055693,-0.388486782008,0.424141951204,-0.429183721416,0.473332675741,0.212745050305,-0.188522674038,0.181929811927,0.498782570142,-0.714487495073,-0.857336367565,-0.421525138473,-1.31495142722,0.229316032832,-0.250635694876,-0.111044145996
0.733626896342,-0.307696433978,0.768365715971,0.121029774319,-0.998802644449,0.859919649452,0.913457584961,-0.470821202095,-0.67501169328,0.513109336087,-0.533031296832,0.0346529238919,-0.123316890052,0.116459858028,-0.75121280024,-0.408831206853,0.855038707047,-1.00019204139,-0.638118971036,-0.527888100157,-0.665450723594,-0.694886045293,-0.942814071078,-0.0780296231258,-0.529241995829,0.178918322943,0.69209970419,0.688965387957,-0.193026544111,-0.169584036223,0.210719268006,-0.693682674876,0.265930088115,0.437464422985,0.926995359298,-0.398161686485,0.746190676644,-0.302000499945,-0.879231802479,0.641976704069,-0.714200198474,0.245626825885,0.457134400143,0.55029089604,0.549186321795,-0.948413340304,0.383693795042,0.946259826415,-0.219328767412,-0.545990154109,-0.622932901215,0.280797924304,1.01249497557,0.467983763552,0.73750759427,-0.325657790193,0.906074118679,-0.396914445839,-0.138338788947,-0.027612879564,-0.225264642087,-0.55180865704,-0.917132956393,-0.804294583035,-0.718034905966,-0.198095523666,0.723435222892,0.820243559786,0.876259697045,0.938690657271,-0.729712998682,0.5573873463,0.773381109421,0.380662720994,-0.26664550406,1.01578949825,-0.278783986362,0.232768928796,0.491628715073,-0.60309894627,0.0342184847648,0.84727279696,0.881236489684,0.980030120967,-0.275291631715,0.0791338515278,-0.493718724767,-0.416897762519,0.188872640537,-0.744023837787,0.150559595108,0.183392939177,-0.312557361898,0.00292365674445,-0.584272878219,0.416566049474,0.00705732953196,0.598957046322,0.640670321188,0.460891949325,0.0771849598585,-0.353558438464,0.236738630882,-0.592886845218,0.541131791297,0.71083232732,0.816052238578,-0.767781382557,-0.806036648423,-0.210362241687,-0.692056030535,-0.829232614582,-0.306001122538,0.218315374414,-0.480818219922,-0.77138871625,-0.187694390226,-0.965698622695,0.258503095705,-0.227009662852,-1.01703177229,-0.954040490638,-1.26482525387,-0.79306567645,-0.640569669091,-0.249320565993,0.714227361753,0.291894547046,0.013214326695,-0.514325968375,-0.871670305868,0.555009184,0.776813409162,-0.57217181563,1.08994734353,-0.520188005875,-0.541063826545,-0.392201247383,-0.0242819021322,0.611968721609,-0.391006306397,-0.977572443205,0.264750068103,-0.0335413751749,-0.88226223912,0.604771332304,0.0797579100796,0.131531003099,0.881804247924,0.33945251338,-0.857046167768,0.520112667569,-0.693555069882,0.653766542292,-0.510111553859,-0.0450140823254,0.511365715766,0.391692174183,1.05523733221,0.574631616992,-0.256663562023,-0.22460146916,-0.653145078636,0.11791785516,0.367706145649,-0.888631885268,0.85865387519,-0.668465878507,-0.133349502456,0.30979159581,0.512335814822,-0.916688673689,0.167560918432,0.0370984224201,-0.667996147648,-0.074155189836,-0.317850398629,-0.876428878266,1.13090981097,-0.812632713452,0.951211989354,0.416243840157,0.848869906108,0.137700489249,-0.508382647747,-0.511827356575,-0.406291096269,0.658463203133,0.0600301728485,0.0854838576778,0.0615159120304,-0.949437284847,-0.0565117414874,0.428289136649,0.985643580412,-0.0621747104051,-0.283663256509,-0.692519764826,-0.596803474307,-0.126823003682,-0.1889675688,-0.260738920647,0.503915196553,-0.925057869582,-0.340006827867,-0.478148133805,-0.851528876149,-0.618322927989,-0.879170021542,0.500031237674,0.135039095202,-0.650835085989,0.82270630044,-0.733491047586,0.76147834062,0.983886349102,-0.119748147938,-0.18892376085,0.0216579018107,0.0581589031548,1.20927675477,-1.41247316358,0.95556936327,1.01576683914,-0.673303021796,-0.454984865619,-0.761888982175,-0.0734274809287,0.0273566666467,0.876169489121,1.04954539555,-1.2282035472,1.217484006,-0.19244944295,0.139857985467,-0.766235038456,1.19047443702,-0.488739583965,0.77645814827,0.433198648944,0.131857537002,-0.350992955272,-0.264052093582,0.310386298299,-0.681619230987,-0.693937947025,-0.769903863905,-0.0717891256884,-0.928458963063,-0.324633582689,0.400983255001,0.50705366621,0.688240794648,-0.388529853985,-0.768053801937,-0.318411941623,-0.88369841122,0.122685902625,0.28578936451,0.789248629142,0.922159280436,0.44083514147,-0.472695237177,-0.610928683407,-0.675233233506,-0.31184273513,0.5698548119,1.29832107898,-0.234807278585,-0.194002661869,0.0984122018233,0.761196888003,0.121737014124,-0.065376146907,-0.759944485078,-0.361347729958,-0.995900812757,0.181611441723,0.209089389376,-0.817599952871,-0.0982974894322,-0.0667552088897,-0.335109696072,-0.266270343161,-0.609809485472,0.0281933473726,-0.345521744929,0.275352403389,0.81487657846,0.670564904874,-0.251252757631,0.464027740357,-0.182205153558,-0.775044917593,0.782966150219,0.432075277145,-0.13322381217,-0.867963009916,-0.962387345902,0.88591229785,-0.51511048843,0.380894028545,-0.813576873524,-0.171431559536,0.121750222181,-0.713616068117,0.648746744721,0.213012566207,-0.140222782993,0.566058806335,0.524516071038,0.0490529192808,-0.40707281585,0.360346292888,0.90796723865,-0.150299926183,-0.36952741283,0.460625213879,0.910630612443,-0.711539462977,-0.00894399560869,-0.305808594078,-0.591075807326,0.777979124041,-0.672301588011,-0.211908475343,-0.493983268418,0.986758021003,-0.896122644526,-0.546418588786,-0.124406579726,0.804207972879,0.826146933954,-0.491515474546,0.221225476802,0.167386833861,-0.282595030831,0.985582840505,0.205837253881,0.613937489603,-0.135912291713,-0.745284588269,-0.427840252346,0.496729560059,0.134536409138,-1.02942813882,-0.693656641354,-0.894729104253,-0.238316762344,0.51687461416,-0.133302759306,-0.0377228795697,0.757651165867,-0.0240664992994,-0.386880443781,-0.681455939466,0.835017007202,-0.336055958604,-0.622417024297,-0.517817412323,-0.376548223099,-0.280227342694,0.20919380401,0.664822870119,0.78844943341,0.111409586992,0.235587653309,-0.730802433631,0.45372253993,0.619454388713,-0.420612171795,0.829381066643,-0.906560008278,-0.705241586722,-0.892322931893,-0.096875142628,0.521299628667,-1.00812281578,0.0296341185166,0.189986670492,-0.213197257273,-0.242339859841,0.559090963185,0.11421482465,0.502240343109,0.791287292939,-0.527168074867,0.0758786607112,0.239680449214,0.192726769913,0.0104177905322,0.172083471303,-0.149333388429,0.162839369251,0.848061715173,0.515701100061,0.94162742078,-0.600905415951,0.907187971931,-0.346504166666,0.356986416767,-0.162352762359,-0.410148118222,1.07574661876,0.832256268528,0.828122023848,-0.360715512824,0.296024305927,0.134713076629,0.547229668802,-0.0713992124068,1.01793815915,-0.34814030207,-0.0861781873178,0.217078481165,1.03024127722,-0.224528631396,0.520394656664,0.310961571734,0.226327987371,-0.0595816745326,0.847435061243,-0.190180739095,0.821890766458,-0.206910895081,-0.801617114865,-0.884720181419,0.433221559961,0.896231823305,0.835132879542,-0.983948972703,-0.674535634885,-0.0113648746413,0.772553734173,-0.019195852786,0.147162416155,0.633966868791,1.02473668055,0.222491391208,-0.927983118393,0.406190540106,-0.523376522414,-0.454725466927,0.623068310697,0.0234151394517,-0.494620474464,-0.259239256547,-0.626965487552,-0.213597307211,-0.219921635411,-0.766045995293,0.688375941871,0.557732999729,-0.862026606029,0.0488818351924,-1.01201501986,-0.875660387847,0.500424751461,0.20842443592,0.838242406907,-0.413683029133,0.747974289271,0.214869183753,0.969439240155,-0.392816111428,0.390380694792,-0.0536156724763,0.123159907845,-0.66773757718,0.392455859804,0.773510591309,-0.469074390465,-0.917178756232,-0.728434627126,-0.154727302825,0.928530098727,0.255444964191,0.226680265892,1.01737537395,0.0521200311187,-0.259583582313,1.1233642293,-0.841376192153,-0.457772088086,-0.781002805909,0.512596496326,0.100147457855,-0.598981357423,-0.130747433801,0.56110262773,-0.893335812644,0.193131656813,-0.765475824794,0.446572054362,-0.0601547353522,-0.0373033041111,0.242347752409,-0.341222949965,0.327222827711,0.988907106354,0.227296401406,0.202671487746,-0.63118560308,0.303548217491,-0.956218222513,-0.208802981839,0.261399590202,-1.01943113636,0.171898867837,-0.103062631675,0.308189119036,-0.457206582507,0.436771817334,-0.9849581135,-0.607514499714,0.139090357758,0.353169110473,0.298091822105,-0.450949979982,-0.745878291078,-0.838874946524,-0.0935283361397,-0.893741221689,0.155167655115,-0.311713597521,0.0480524482045,0.264300445322,0.171713704257,0.0953869306743,-0.712507754178,-0.917564898819,0.81649808868,0.0204188154774,-0.917203802186,0.454606648941,-0.0161423255149,-0.474093328245,-0.18491206319,-0.825677864843,-0.219192064044,0.454971213886,0.231097925201,0.227846191464,0.223711997322,-0.554594135536,0.263169101841,0.919443890871,0.61321950057,0.368542669558,0.162428198976,0.450541556328,1.05941317136,0.99012306161,-0.403241157744,-0.262914598957,-0.347269134469,0.157864351875,-0.710381971367,-0.539333476875,0.776031571457,0.292761585546,0.712172762421,1.09186998225,0.577245602222,0.657961937632,-0.544101211718,-0.269963868074,0.250237266908,0.605540896498,0.0327950871213,-0.71849838824,-0.695735700769,0.131816332563,-0.328509008454,-0.58901930617,-0.821178530209,-0.428059537609,-0.305370471173,0.0225648163316,-0.872046253023,-0.422066097845,-0.526987057623,-0.0836955663086,0.91141074481,0.109045942195,-0.846278740593,0.533539863428,-0.0101459418708,-1.02936696877,0.254482644095,-0.858880267335,-0.431988756034,0.150711795387,-0.394887315428,-0.287864916728,-0.455161899714,-0.656919215303,-0.468744115695,-0.508095272549,-0.273743212533,-1.04434663729,-0.739902881132,-0.465843198356,-0.840146702491,-0.0210101814233,0.880872483724,0.687086608538,0.23940396416,-0.859155374647,-0.568096093714,-0.234569527359,1.01466066193,0.775879478099,-0.108066194282,-0.0616847123313,0.623417698331,0.0468315900051,0.64128386797,-0.0646107158354,0.0800494266323,-0.379100412618,0.333664028766,0.90235216288,0.692960257752,0.576586467262,0.309917834791,-0.0787042504517,0.014599352043,0.569622962814,-0.585804585398,0.814412849662,0.574628735805,0.314539163606,0.345901569665,0.629310584213,0.124528627258,0.346412337868,-0.783622653148,-0.854657335359,0.606813410219,0.183532144272,-0.0507355756747,0.7531439628,0.47960056676,0.853553361113,-0.517526398252,-0.0610299781351,0.379646598757,0.062986344265,0.330523580243,0.970645764269,0.350798070678,-0.192049544532,0.518671473202,0.0701323057222,-0.683163135073,0.272998169931
-0.281303577011,-0.0168528615832,0.439772803421,0.597413471125,-0.343620276285,-1.10064548686,-0.865452228582,-0.411721238621,0.326102590821,-0.471474566295,-0.0594322783658,0.751883447904,0.171912621684,0.571423168932,-0.796684839099,-0.540746411798,0.106550199138,-1.05558822003,-0.101321309374,-0.68053498622,-0.422281580444,-0.751739476585,0.480116481571,0.754239478868,-0.524511628798,-0.361616575152,0.227803624615,0.63318177629,0.9050048677,0.3831103508,0.468734150532,-0.0245375449689,-0.647402660639,0.189160441307,0.0832043382529,-0.24422847664,0.670677984244,0.362595662459,0.39977002686,-0.284507761665,0.374415793593,0.628071835533,-1.08074616498,-0.173733692937,0.999178068405,-0.687455758817,-0.360580719476,0.981525068867,-0.938894743134,-0.197464842179,0.806641412942,0.587622378142,-0.689247612082,1.26346150877,-0.534062774258,0.0993547349723,-0.837053028865,0.874680170364,-0.517376626899,1.04137477546,0.964327995206,-0.692404987745,0.922932480055,-0.00192585377126,0.99889084315,-0.577096506511,0.868710245278,1.00933091956,-0.439734200126,0.131201324454,0.742853906338,0.983587415439,-1.11772863635,-0.0195024713222,1.05337327291,0.237628200276,0.299795639814,0.647381304704,-0.505838581317,0.355360653307,-0.540727085931,-1.27369935226,-0.945873109055,-0.883174006823,-0.856901519421,-1.04994455075,0.00469843433779,-0.101303914134,-0.174750419124,0.768620893276,0.325842754159,0.658240476262,-0.228831028357,0.372834468747,0.0491490714,-0.0283042073872,-0.453546424396,-1.04054149195,-1.26371574917,0.0857456115504,0.0676839557455,-0.289153455379,0.313943879092,0.546347082967,0.844122660672,0.24963945651,0.225245988989,-0.237172248712,-0.027452198528,-0.9454441589,1.17833435904,0.65104911946,0.410416090942,-0.487175194565,-0.15914542479,-0.403611755384,-0.275514944136,-0.349636823951,0.14515910298,-0.70016667984,-0.0287273419693,0.470455576689,0.0650004814995,-0.49556633573,1.44035866636,1.51571521861,0.423826759686,0.934796042897,-0.839734944212,0.829663455773,-0.58862837641,-0.513011458478,-1.19516809791,-0.589332951033,-0.760445747916,0.233968729161,0.125057433743,0.819751060543,-0.449664177531,0.232803179521,1.34860342488,1.04879920242,0.314655025185,0.803817575489,0.323167048307,0.316703717224,0.581795543949,1.03801726562,0.725336752542,-0.75199697482,0.748868266902,0.196432882606,-0.765805926012,0.154496654262,-0.136044933356,1.02707414059,-0.231738020474,0.8832331387,0.970333835834,1.11599369338,-0.0926997128495,0.593056194175,0.746699248065,-0.0928125039542,-0.175426969853,-0.490009210417,-0.467834546194,-0.185394139108,-1.30646721448,-1.29271946488,0.424534959421,-0.237351671477,0.119784634909,-0.189932185874,-0.158951916965,-0.684198636319,-0.817510412578,-0.227451984984,-0.697094243875,-0.876498667532,0.195051064027,0.0987126383676,0.111752327284,-0.572871766901,-0.734152408664,-0.268811134225,0.402276567157,0.355423867723,-1.27016419519,0.276651159231,-0.453255205896,-0.327862431279,-0.455159262818,0.0749182242379,0.537378541947,0.224518079766,1.48592518649,0.250474927477,0.30021007344,-0.413298862491,0.419602924445,0.203688423648,1.3025934604,-1.16022714175,-0.959009710017,0.164695849408,0.281237548961,-0.638585778049,0.202947618842,-0.113211495325,-0.490569709596,0.0664123294174,1.50245111286,0.101264602452,-0.345275757221,1.0300878582,-0.874806611894,-0.551705363869,0.904577353874,-0.153831051903,0.665636314513,-0.587526156616,0.391571499834,0.216202484772,-0.370184001127,0.13348733364,-0.270279676094,0.0276609163394,0.943378049839,1.00595439559,0.987142671764,0.527212273547,1.26234980361,-0.155822347349,-1.38320819158,0.614078509823,-0.386512583922,1.1134086435,-0.680204873437,0.434422530136,-0.000387363888032,-0.107517180751,-0.33004205241,-0.683343334755,-0.669911401212,-0.591238526588,-0.620344226685,-1.0016197158,-0.896820862959,-1.06902694596,0.0233673750315,-0.743329436984,0.786749299833,0.936023218199,-0.22422667244,-0.678856131919,-0.520233755714,-0.318569424769,-0.743274934011,-0.939937462478,0.144326954163,0.0150188956418,-0.328743697014,-0.508961775544,-0.00490658661362,0.200186358468,-0.452289414993,-0.401504184438,-0.309866926206,-0.565783234122,-0.0577193783357,-0.646665711453,-0.0601263767387,-0.182109651278,0.810631247847,0.568837162174,0.832093634345,-0.12839843313,-0.395633812199,0.383621111324,-0.890412808033,-0.397442881262,-0.0546430944664,0.196551149606,-0.467964465885,-0.0234945166957,0.863447834899,0.12640336281,0.232255332674,0.7454160354,0.614146880769,-0.672402439085,0.919931795317,1.00419282794,-0.351228203778,-0.261206207433,-0.324927379238,0.0677251351496,0.696898399733,0.641427443518,-0.335822202549,0.437727450401,-1.11934849283,-0.244272397256,1.18256764268,-0.916081590879,0.281643334122,0.0539560161305,0.0072169190566,0.0640641166189,0.566472457449,0.466028288974,1.04763191653,-0.143363803205,-0.568881447856,-0.383030659324,-0.848249317791,0.223704013766,0.498181243853,-0.0221225356146,0.907143651726,-0.503693958764,-0.797176620941,-0.235607144999,-0.41066623034,-0.68264488354,-0.926750613296,0.392022297028,0.554555290107,0.817347807786,-0.286632943675,-0.805837666267,0.738608116649,-0.398140949433,-1.16113937605,0.252780272484,-1.12674124878,0.124514996615,0.63518295885,-1.20580859985,0.414097933553,0.554442998105,0.267808915792,-0.542733876396,-0.76773603566,-0.181852342467,0.0835581250156,0.0264088697279,-1.05794261369,0.461728848062,-0.985596350792,0.420753438016,-0.285321430898,-0.766540651414,0.416488933239,0.784358227113,-0.592055704308,-0.749390065258,0.0566996260494,-0.473456210138,0.10801567057,0.238699348164,-0.365185185217,-0.792513370568,0.995763040131,0.601022582507,-0.744461244256,-0.0434302532064,-0.522522036649,-0.0559818885699,-0.42911607672,0.300192458473,-0.0848369359003,-0.350063931508,0.606349211123,1.02353723875,0.0688121902811,1.20045009259,-0.18710554703,-0.591181698407,1.05980527464,0.892534211256,0.803059419655,0.685703999291,0.0979067521157,0.806275077133,0.262735933927,-0.207780187337,0.402755933674,0.336093715912,-0.238974838704,1.01945265944,-0.500499760515,0.645843793682,0.700190866903,0.983582655847,0.228971409511,-0.17537133469,-0.753269799449,1.08452036025,0.297861890743,0.839369759486,-0.31878164516,-0.482687911892,-0.892055411938,-0.426716492629,0.441118164027,-0.478045116651,-0.33226821018,-0.501855851391,-0.919511709141,-0.233996465226,-0.583250119435,0.843254674505,0.625453840464,-0.0782147903746,0.0643051651914,0.171491734092,0.0469369473185,0.126325838477,-0.391844261,-0.493519080153,0.0698719262247,0.885537026626,1.01564234977,0.901918508246,-0.152983107564,-0.607221101623,0.371416018183,-0.565226710532,-0.162635414476,0.142287937076,0.38198964677,0.309046541807,0.512937213111,0.0195715023691,0.383646852296,-0.562177913238,-0.599432177671,0.776891707458,0.430318678956,0.444112345456,0.444490112303,0.725394479723,0.115441586928,0.932244306357,0.801147000805,-0.826332884992,1.11070634484,0.607648662074,0.825337491214,-0.180800500744,0.126019604132,0.93757779348,0.834298686186,0.298867777957,-1.05907539694,1.58546662427,0.986280472128,-0.727846228072,0.271116281326,0.895912272431,0.28177802649,-0.413626374348,0.195582038024,0.213262722915,-0.442614158098,0.186105070998,0.0155441632206,0.864789696213,-0.810889737628,1.08988015922,0.387032882077,-0.272683163146,0.962492066306,-0.132171988608,0.977501944671,-0.863201407672,0.464573724075,0.140744303447,0.0602965648959,-0.33431574765,0.10657062249,-0.714985092303,0.679453827206,-0.426018320349,-0.147240384023,0.0575504663728,0.417870952571,-0.414566200746,0.332863172674,-0.306593214796,0.601962002355,-0.996446117935,-1.2819821352,0.6653198884,-0.0102585011642,1.01544757355,0.160463511856,-0.281161651333,0.0915188618184,-0.433275874954,0.51534607897,-0.697929978248,-0.4957605976,0.102099962474,-0.495064756961,0.75711816964,-0.770578661857,-0.244147861234,-0.334989150019,-0.53654063397,-1.0419834188,-0.350300289244,0.162339885229,0.701239423161,-0.414820995947,0.00119570742322,0.930072762123,1.02960747121,-0.188793926723,0.20368293229,-0.634498803417,0.490372200534,0.778724071164,-0.120057965067,0.27033601736,-0.522623388799,0.750150745199,-0.293870687997,-0.88019837112,-0.449754737835,0.0330897461279,-0.23511487555,0.716890618625,-0.468278069531,-0.188364682285,-0.165026278741,0.478776094409,-0.167893321568,-0.0861588874606,0.981810027904,-0.673787278824,-0.0243595988197,0.651015006066,1.12245547957,1.1423941083,-0.0041570474088,0.325202332465,-1.14734169807,0.806728134767,-0.0988944650793,-0.466577821944,-0.443026197192,0.126968531588,0.0352116999617,0.228440012775,0.076633823043,-0.390544758306,0.138964135026,-0.568995060308,0.140795181727,0.998810629594,-0.238690255488,0.335362957495,0.249206928012,-0.21836268258,-0.949622600055,-0.327468249371,-0.394731807168,-0.0500651159787,0.896103132375,-1.01597962165,-0.500708100409,-1.14237665907,0.262729367034,0.24341631293,0.351903697868,-0.782502130367,-0.706095254454,0.883874010731,-0.971271348324,-0.463115611198,-0.0686623974917,0.768583443551,0.633697667848,0.817788326747,0.968262154776,-0.0313458285938,0.7939173243,1.00012451901,-1.00142235455,0.104026211034,-0.224322094112,0.90361086438,0.198270048944,0.0538675365489,0.502024682332,0.213581416874,-0.823660468709,-0.887057520584,0.646659689785,1.48367278246,-0.238750042515,-0.887229390083,0.868372812239,0.983924275226,0.204706189635,-0.733125587372,-0.156133953428,1.01206114295,0.128069340703,-0.485438588475,0.618174669983,-0.597687188765,0.306125337999,1.17529492485,0.475915986521,1.00428448246,0.847421361341,-0.31275072075,-0.316750137691,-0.771603649457,0.363877914405,0.635113807342,1.11849489291,-0.838900960957,-0.714826984746,-0.473143557286,0.866117202518,-1.08255146916,-0.333308247439,0.812617358641,-0.128444699664,1.12395177153,0.0548846757679,-0.512485238673,0.827718132372,0.552407472494,0.231688306775,0.590476963311,0.806966549046,-0.637858031532,0.87417171482,-0.822205297814,0.291395849732,0.318650952703,-0.262941610958,0.34893908767,-0.554423457175,-1.07394127528,0.546905475136,0.663556022532,0.0043123049279,-0.360909189519,-0.635446159459,-0.384358626571
0.463468877761,1.02870521316,0.172993681702,0.340885025684,-0.552575185337,-0.295392373274,0.862046730057,-0.064063516015,0.102474765337,0.0661752181742,-0.602665556135,0.213498607861,-0.494819355432,0.395595679722,-0.335496419022,1.02215609749,0.153722380226,-0.466752492186,-0.207563137051,0.571043228098,0.260195168635,-0.537495666487,0.996997069432,-0.41054295255,0.994230997208,0.737538477066,0.994216963551,-0.58174257567,0.479429025854,-0.768147673994,-1.06403721861,0.323050834295,-0.530540805313,0.44209397037,-0.103215280418,0.369765043611,0.578172535436,0.635875280755,-0.744804824611,0.490338008292,0.624130794331,-0.798693997349,-1.00441010027,0.500523725594,-0.610205417817,0.294434747104,0.835750183487,-0.265161253555,0.633658226287,0.782817546158,0.897546957111,0.391038306332,-0.209062501516,-1.01646415756,0.18665770154,0.841480418191,-0.0594914639854,-0.256037489329,0.201830830516,0.61074811644,-0.970615707727,0.0832030508389,-1.28406187457,0.589915354332,-0.857682771921,0.380188462348,-0.721618834221,0.349175302779,0.0125723500288,-0.826832167734,-0.0620044744712,0.0909569830103,-0.810128918215,-0.142418270094,-0.574998416152,-0.628076140307,0.30412206897,0.374680956996,0.0918615174774,-0.848174186156,-0.869982085706,-0.759567023468,0.0792503537309,-0.457592716,0.618587561413,1.12790390872,-0.0968631685546,-0.687132833243,-0.0482718238011,-0.110918101102,-0.55999651391,0.824070813066,1.09646789464,-0.630986194926,-0.640108371688,0.608943682038,0.0362458205201,0.681938482523,0.153792582549,0.787889552032,-0.822382565206,-0.657188535499,0.863761225613,0.583070797574,0.808274277967,-0.564532121869,0.151135933076,0.583827428015,0.0463785307882,0.515702890923,0.857629942048,-0.670440366384,-0.804244562468,0.422274595772,0.389298053399,0.335866336724,-0.339821382192,-0.191959232802,-0.610176345473,0.427059002518,0.246135368688,-0.926906658792,0.399994433971,-0.553968433847,0.618923909117,-0.300342992503,0.688501337729,1.01812677031,-0.705870741455,0.990023581647,-0.620838200307,0.804189567251,-0.243358578675,-0.753401453947,-0.750993870333,0.339402293221,1.06665062023,0.160045303357,0.0512167753969,-0.224911902273,0.13353199995,0.519386935268,-0.0513889331005,-0.878700407282,-0.44635880468,0.785561859137,1.26080580271,0.596645438349,0.408795898623,1.06656263795,0.645255391221,-0.0433638685664,-0.685601099347,-1.26845523013,-0.52808992036,-0.0615416606292,-0.816731475535,0.825683480715,0.912811865737,-0.600093110669,-1.04230350206,-1.12036035169,-1.22597987684,-0.399982978644,-0.22015988099,0.988783395012,-0.263758861231,-0.616245396613,0.802515785656,0.833974124364,-0.65874286997,-0.401257780665,-0.493620612376,-0.86284252673,-0.616677169745,0.993939244304,0.898765781324,0.504601640636,0.309983108473,-0.215767330422,0.341073246195,-0.15765805306,-0.927203314635,0.732705522329,1.16847544331,0.573655821298,-0.130328784189,-0.124109379815,0.340687797223,-0.944391973323,-0.708820844293,-0.411217901837,-0.541801911973,-0.980959770292,-0.766592662199,-0.308480879833,0.865306418047,0.0511931462555,-0.143151701641,-0.781202902995,-0.0208021697006,-0.400448356766,0.332892164001,0.385816238153,-0.258663115799,0.720004140828,0.450216838072,-0.165050352637,-0.279619015375,0.788742091762,0.383223093094,-0.0354333785559,-0.577177728618,-0.646491678841,-0.314099518283,-0.567046856073,0.0764506958777,0.0276775949508,-0.0430421824897,0.243022264946,0.859279124981,0.458741775217,0.118117069237,0.0233446340612,0.461196480888,-0.804044824785,0.371266900858,0.133529735546,0.820040851349,0.841921972165,0.0976413090538,-0.705024477041,-1.23514704036,-0.840500453792,-0.0665100097872,-0.651572684543,-0.632715559699,-0.653021857462,0.688713458498,0.0750516141816,-0.931519097459,-0.292807958241,-0.675991654972,0.26751758763,0.524606512186,0.000381377784598,0.873779040422,1.27966823331,-0.470992255837,0.940297614195,-0.0350342597901,0.808751858044,-0.584251978591,-0.304459156289,-0.250687940364,0.649940210358,0.984540470455,0.728875225866,0.602346619833,0.547666350717,-0.487835126102,0.681536214394,0.755689340166,-0.0182452346527,-0.349572965091,-0.652795791196,0.475988820709,0.704867540104,0.790061623283,1.04117179702,-0.354438256311,0.840975937416,-0.0475059547221,0.622216921032,0.0179256491946,-0.813044758409,-0.731221053761,-0.2050866899,0.285955614662,0.386660393556,0.366490345981,0.556590806558,-0.141010708489,0.684925182813,0.941627221556,-0.635944561429,-0.153504042288,-0.954897968686,0.906230574057,0.340238177115,0.544349814488,0.568800662649,0.513674735914,-0.465176682426,-0.390763963544,0.443411385849,-1.0904994918,-0.7650374663,-0.0421342233398,-0.597760731167,-0.449071561774,-0.424643009118,-0.69836111393,-0.569458378867,0.200885491107,0.656652101624,0.263346226152,-0.828417257739,-0.391883120616,0.0453427848999,-0.214557568137,-1.04073086538,-0.858067272237,0.732337325774,-1.35555087018,-0.426591204511,0.63146277321,-0.0565920360309,0.065152960169,-0.267722773282,-0.592838932368,-0.640231816463,0.275345753872,-0.883191263911,0.49859928391,0.738938795318,-0.757864136318,0.0119263758681,0.700444378998,0.98481180683,-0.56618828872,-0.920835904902,0.609344198072,-0.704590124265,0.658011084362,-0.142761253469,0.393017187689,0.975874538279,1.1992588182,0.756092884616,0.919295712496,-0.400525094578,-0.215685604245,0.271865348823,0.451289408736,-0.00337930692176,-0.0767755149357,-0.682723447526,-0.118234554299,0.207710906168,-0.156195135759,-0.835796418298,0.588443871937,-0.133700424596,0.666532645527,0.112420425449,-0.0611145779201,-0.0198247208032,0.491307182939,-0.592311119995,-0.29763016177,-0.19418879111,0.69223023464,0.914451320913,-0.982584828602,0.411668207531,0.159918935425,-0.17288332145,-0.579090597273,-0.0580457985277,0.686283309571,0.416832971332,0.556839507304,0.411391482567,0.770009596274,-0.126082128525,-0.478060384937,0.679936158467,0.616024238143,0.504482125854,0.927404709388,-0.252740721607,0.0771578069375,-0.627391512514,-0.0423966734389,-0.499274114012,-0.0029855989276,-0.648905739506,0.788868936875,-0.842002930188,-0.543644240628,0.69245274413,0.284316356014,0.434994577674,-0.877166817728,0.574638737107,0.618381650131,0.657052016664,-0.795538517304,-0.512859277175,0.17932547177,-0.494778464556,-0.20402562139,0.351526651119,0.206770403835,-0.417738971542,0.384142730584,0.26475368836,-0.837630664112,0.256347152426,0.239193602425,-0.364625493414,0.0616563467862,-0.834565867178,-0.277470720711,-0.117869540772,0.394404262172,-0.330638007357,-0.456163895877,0.378404564252,0.451945730288,0.457751643059,0.0383519909423,0.558719270046,-0.695695637541,0.294573175792,-0.562893032793,1.1329891468,-0.216969967731,0.682066044532,0.702948476408,-0.490632311268,0.801977993567,-0.76948960507,0.132094276896,-0.476948641091,-0.211843861176,-0.731611696284,0.0959241979253,-0.721383673217,-0.508607834088,0.310687939889,-0.241577946816,0.825022433668,-0.205446552509,-0.453283719348,0.942865443558,0.609184475962,0.413052082711,-0.612774645674,0.083900879488,-0.954145693748,0.107404600467,-0.852337704885,0.772301855746,0.393905358572,0.793123450964,-0.430190682422,-0.654795590015,0.376397598721,-0.130107951038,0.625170525245,-0.758907409579,0.0829067409064,0.229929524893,-0.0117528708554,0.0138049733113,-0.196473464217,-0.725021763893,0.938370297648,0.104088347672,0.826755834157,1.07716505507,0.312214103026,-0.326434293297,-0.559176300279,-0.838993422612,0.0346439265215,-0.641122743205,0.586906116758,0.0982363550239,-0.0752556026772,-0.744713315495,0.344007733845,-1.11894069444,0.494162490735,-0.900531720214,0.66079127964,0.481016513377,0.400521148688,1.03010360276,0.126610555015,0.0292906253963,-0.0368836621955,0.748785163414,0.742690050293,-0.256698567411,-0.0693233249506,0.242807423391,-0.325432937952,0.368286112757,0.427442469869,-0.447865709947,0.70728230461,-0.0963033051368,0.402999524067,0.218734642164,0.0839114170153,0.235404610276,-0.519905986026,0.912933160077,0.899820504709,-0.179823127342,0.148627830306,-0.632939979476,-0.359834680228,-0.804203872899,0.0658149267589,-0.288455091477,-0.662699122712,-0.51283047625,0.621281587146,-0.813559922007,0.188888571922,0.71541678694,0.0823211230648,0.440960314164,-0.59365240399,-0.242223324948,0.838814778597,0.687957763943,0.285218258975,0.0687289442597,0.95590599444,0.0763215935515,-0.444524300496,-0.0969102889228,-1.06351499237,0.0254651079865,-0.194747511051,-0.0456540270861,0.916400128838,0.363556483917,0.508282419346,1.17889538993,1.10276621134,0.730303418284,-0.28940051342,-0.110251618341,0.435675680108,-0.635379451692,0.373499511806,0.440439930056,0.218498011771,0.986542077334,-0.565778649534,-0.742393911896,-0.917468905697,-0.894439766157,0.557841073307,0.41802254138,0.632734319404,-0.00746958738632,-0.31296486864,-0.871901270588,-0.399681769948,0.83797521883,-0.130429197929,-0.0342509627146,-0.118985112225,0.0942099209891,1.23469568234,0.790258886961,-0.347961556889,-0.61382290689,-0.703071333756,-0.730742845517,0.989428561343,0.555540724589,1.13547456518,-0.507581319249,-0.75759374708,1.10233899226,-0.295859892477,0.391971943232,0.382058338048,1.00698886361,0.226460410201,-0.474370594823,0.715055898391,1.06912413805,-0.3413712665,-0.636046637263,0.846716351003,-0.165510655234,-0.962681851384,-0.956751322154,-0.744367621746,-0.493688339577,-0.206796278403,0.272308144717,1.05071620337,0.807662521062,0.0169880376466,0.445944123035,-0.388023207226,0.0298360003848,0.542258501201,-0.775353885969,0.358289283831,-0.510296504091,-0.747162493388,0.661176224912,0.010625961475,-0.172187982469,0.222438622025,-0.291486457542,0.649314439985,-0.178277520626,-0.291309713378,-0.0463308548755,0.863688212989,0.49695705492,0.997573594655,-0.503903131116,-0.535975263246,-0.589459281884,0.386006792588,-0.892072285723,0.727889412033,0.574615895369,-0.645622467455,-0.589299426079,0.652642399542,-0.696523948183,-0.00953337088339,0.446461407705,-0.501579437294,-0.604194514828,-0.448129955502,-0.0947394040612,0.641171756505,0.174983486898,-0.480978700494,-0.473517788172,-0.314128487739,-0.270614503657,-0.320093662268,0.286735352044,0.170434086244,-0.347868576732,-0.089716607587,0.789168860518,-0.970105483526,0.365578365805,-0.569161094113,0.53824746515
