-0.858693163093,-0.259621940774,1.94510394072,-0.902080578354,-1.00138606327,-0.947230462372,-0.868639440038,1.68370240198
-0.66952117679,-0.0423914799345,-1.39276800311,-1.212206677,-0.28682151842,-0.0427116717388,1.36883697049,3.0146197343
-1.13933481169,-0.102981162962,-0.537073179697,-0.752870341985,0.203401869333,1.04788388342,2.39698075577,-1.02757501308
-0.49421417442,-0.133729389961,-1.32373235997,-1.4922179022,-0.783300137586,2.00122621121,-1.72874218656,-0.293678322803
1.62323986092,2.26200120889,-0.612637822574,-0.2473572689,-0.917577057375,-0.646544745286,1.05846996052,0.470508194178
-0.037055883357,1.07150152684,-0.260985997937,-1.07375004477,2.73125434098,-0.186475570782,-0.385128524976,-0.839749070135
-0.508662745272,-0.468816346814,1.78673442673,1.82725984944,-0.765887933664,-0.311590978023,-0.15957316378,-0.513594053661
2.18592277644,-1.13918826837,-0.243717595522,1.20005437569,0.425728247819,0.386629017066,-1.0410400642,0.733715914924
-0.619586090797,0.0613232357988,-0.781874503229,2.10760828214,-0.869095406504,1.11135813029,-0.152076990867,0.371517717694
