1.34734602366,0.21987193596,-0.82977951615,-0.073832966886,-0.175403183271,-0.773772320096,-0.926470727998,-0.109843468758,2.21427265577,-1.56717277993,-0.422590401625,0.446609385886,-0.440633836788,1.28674548655,0.454364440047,-0.229110919594,0.730810781752,1.77624059526,-0.580475435143,-0.343187812824,0.879734947334,-0.421340286564,0.436079017004,0.783215277596,-0.451638133523,1.3393094486,1.12194549004,-0.915246874198,-0.816548591111,0.211866643526,-0.562213725483,1.32586919341,0.368938091041,0.292658701125,0.300081700762,-0.226232655051,-1.04757317465,-1.70384698389,-1.07188491212,-0.157234966141,-0.769964806177,0.402832238937,-0.0368276993309,-0.500643646002,1.16156957313,-1.83818406134,0.841634621756,-0.184155812122,-0.946041871174,4.40364506533,-0.420471881184,-0.685009673649,0.405636314958,0.596806158294,-0.465902866245,0.653969744904,-0.240247619321,1.57428535766,1.72046734851,1.31415683836,-0.553519964723,0.536160691037,-0.747500336513,-1.00062016214,-0.577676046129,2.57514613197,0.932501325228,1.82082376964,1.35139288737,2.0943137867,-0.00328587566934,-0.621121809247,-1.45865192442,-0.878915585404,-0.403594889073,-1.27340284207,-0.674048160364,-1.19579050992,-1.01666592004,0.337835416275,-1.21171626333
-1.60470309677,-1.01965631374,-0.666264243076,1.19868948136,1.07204198078,0.964794501516,0.993145479885,0.452966545384,-1.15198403316,-1.15004338185,-0.423581204475,-0.379342806119,-1.03997187035,1.17126836197,-0.0519429372986,-0.837792561736,-1.58487881301,0.222369314814,-1.70921349607,-1.03371264214,-0.0813001946633,0.178655970196,2.48234636582,0.445791168191,-1.73959151899,-0.0267110206033,-1.06259877027,-0.367632386701,-0.86539094627,-0.573840648758,0.355767015458,1.85100006928,-0.820163939464,0.314648962983,0.542753406791,-0.0783334114849,-1.39423358255,0.535270826817,0.53355458199,0.0772154422357,-0.156439427787,-0.325935627809,-0.8672748585,1.01918396012,0.0583342871184,-1.26565947877,1.8179432029,0.841513971622,0.496207219872,-1.23750087473,0.195648806526,0.566099204307,1.27948064344,-0.210362185949,-1.16703509287,1.65290396249,-0.0388898160001,-0.192457107181,0.371813343498,-1.29535935898,0.139371057635,0.990083880415,-0.731144017682,-1.04243090866,-0.175927463615,-0.547070882341,-0.946315995094,0.289347740418,-0.496238354653,-0.499962165223,1.45731476704,-1.0125027374,0.420542395549,-0.622321979971,-0.48306816693,0.474040842112,0.327175229632,0.0319106958211,-0.685625107197,-0.548272821759,-0.420619486998
0.0581930006046,-1.0744651556,-2.62753508807,-1.67455124167,-1.8944295535,-1.06247437945,-1.7783655415,-0.490207489683,0.726787624273,-0.162860146732,-0.238964371696,0.159543529435,0.207185763512,-0.604368147334,-0.147982827814,0.122827305429,0.546637243424,-0.468560056601,-0.252726542949,0.686595003204,0.435747256721,0.025099994479,-0.605689059404,0.666333135366,0.762694151641,0.104297223635,0.305149992867,-0.425942307154,0.159902445764,0.0698174483647,0.467795072812,0.028687451988,1.03830722927,0.589138259704,0.552795761732,0.373303487808,0.435823565605,-0.114415604599,0.907124296706,0.495100539551,0.336613982577,0.663780916407,0.81642498088,-0.131984321665,1.55671569909,-0.337764214455,-0.213911674247,-1.19968006949,0.365745949973,-1.52026360713,0.623081406352,-0.564701946556,0.359682278923,1.44218826948,0.614360875929,0.40573894709,-0.801937124779,-0.340759351687,-0.152072188355,0.470650338576,-0.10139803837,-0.231653350715,1.5922633449,0.666856889905,-0.112113343351,-0.803520265267,-0.474297644896,-0.633348036373,-0.721123271674,-0.69273960908,-0.235944682915,2.02393022527,0.0600690007066,-1.65796990646,-1.22650944522,-1.99573250718,-1.3148314922,-1.42466588135,-0.288524817705,-0.895453210236,0.54629038993
2.14756106443,-1.76087430473,-1.56671497011,-1.43745826798,-1.29616745098,-1.96344417671,-1.1523642876,-0.474729040832,3.12052582416,-0.142131559842,0.855296165581,-0.141636885401,-0.197380252073,-0.146563407251,-0.43707774248,-0.537950041684,0.172533756736,2.14525280594,-0.359541495177,0.877299516009,0.628249588893,0.226789499931,0.510085200716,0.99476138079,0.156615400052,0.185722061515,0.73211861038,-0.731387030119,-0.021532129021,0.286832124106,1.54779226968,-0.397351387977,-0.132763725831,-0.377974501903,-0.899076624866,1.6286694104,-0.28141730595,-0.993606435479,-1.17031641124,-0.863781721574,-0.00709005248048,-1.12804252328,-0.905097065561,-1.71431763578,0.0882961633601,-0.265352831636,-0.75365860468,0.740631387536,-0.905877775765,0.576815172988,-0.904807335031,0.635720084724,0.471769103769,0.858585851108,-0.792103189204,0.161631420837,-0.92976891871,-0.558200266863,0.699000667039,0.711727664873,-0.0636924579702,0.320382751571,0.458809967569,-0.440316338633,-0.500216611815,-0.818820327811,-0.291709256591,1.92879118742,-0.615324137192,-1.11342045185,-0.916158460133,0.188420905539,-1.16509224065,-0.182915824747,0.218596813859,-0.566213722883,1.39408767251,-0.268649431766,-0.754160697257,-0.0683769557785,0.142127972939
1.01822316459,0.09389173618,-0.931678763132,-0.932367149922,-0.688693203639,-0.436893666985,-0.505844749925,-0.640014558579,1.56422845292,1.08989951864,0.990193564716,0.624154967616,-0.372052254579,0.0762697662622,1.15655788374,0.538171995017,0.489390896451,-0.760883685996,0.0331142747952,0.767843541634,0.711383188878,-0.130303632602,-0.280348241465,0.989132787452,0.666056889246,-1.21820224277,-1.07943083445,0.3725267152,-0.410190520072,-0.432567072515,1.62918467489,-0.311793236566,1.35125556979,-0.0630339660797,0.0093842768527,-1.6580661252,-0.508685259907,0.0406033498401,0.650848203846,-0.247643770686,-0.519604002835,-0.0584371250411,-0.529102260481,-1.51900155344,-1.65164777972,-1.79595361112,0.10985650194,-0.774142205908,1.86651123926,0.0662853607164,0.518199079428,-0.752866618974,-0.199821253326,-0.957276410414,0.179552669073,-0.752479061746,0.182855092814,0.467167293678,-0.143645259362,0.635408614093,0.328103342892,0.290114537341,-1.03592012401,0.17126596885,1.07421546431,-0.458324696633,1.1886351537,-0.277904392813,1.10329729044,0.125771405076,0.847339640751,-1.61639255523,0.966988922672,-0.311410588262,0.778702745324,-2.15808329527,-1.66800192247,-1.06813215643,0.203298506358,1.09811075209,-0.836029984909
0.689258747953,0.454791993053,0.728481701914,0.589341585759,0.706548723207,1.17650232506,0.297936613367,-0.342352361611,-0.607043847417,-0.191605895328,0.419650508691,-0.412414056491,-0.229274394592,-0.896969609959,-0.733077138937,-0.371113538644,0.151957851828,-0.0513656883032,0.000462380196274,-0.594747361424,-0.753764010336,0.677735666622,-0.880748612077,-0.538742260553,-0.361421803288,-0.10994122465,1.23648131324,0.876706876959,-0.673039051659,0.312260624392,-0.449143286771,-1.03977385562,0.794441083568,-0.615142019999,-0.914834243787,1.38028994509,-0.196913800154,-1.4704137727,-0.800219942385,-0.701967712009,-1.40499085783,-0.72573323178,-0.431395493714,-0.830916669889,0.698066415525,0.170040863496,-0.221165289428,-0.62491410846,-0.122161436523,-0.20250575775,0.278259414653,0.195975143927,-1.46564072753,0.378410238667,0.718515446295,-0.0576883355095,0.138112855618,-0.352334315451,0.347120687769,0.0108288590672,0.205590826574,0.139976312696,-0.160986304359,-0.000631615088507,0.410850291038,-1.5594027696,-0.722346994358,-1.24733354012,0.721178118888,-0.988169800504,0.669028529341,-0.576788167942,-0.118198313897,1.97128416238,1.48118966749,0.0408229933808,-0.0561144997521,0.674708298586,0.621252980108,-0.014446017927,-0.818129532191
0.247510155783,-0.385922049261,-0.344224878927,1.47085586347,-0.361920187909,-0.624065128008,0.069915749413,1.01508368107,1.28239268719,0.362875386447,-0.191063328743,-0.50261727795,-0.280365603377,0.150826255355,-0.530768548575,0.683190599315,-0.156078490661,-3.14974369197,0.796185895425,0.136322955622,-0.628206805503,-0.843223505542,0.122769637631,0.403139555129,-0.696550066855,-0.124366403726,-1.74408615881,0.181808629084,0.311643764749,0.122519821086,-1.07645198907,0.271912623018,0.609274012703,0.789312546045,-0.570574860891,-3.7324752864,0.246219947581,0.49924769292,-0.999257793611,-1.92143300094,-0.335409291801,-1.22572979813,-1.80437647945,0.114285001,-3.03999048086,0.946568593553,-0.711169610211,-1.54152407526,0.328066291671,-0.985610849683,-0.809368796885,0.566630536363,2.88497365246,-1.73000760708,0.583374204282,0.265197436123,0.860837021605,-1.52608484973,-2.10696169936,-0.0211587883916,-0.258494598103,0.626023846718,-1.90811628076,0.492274875551,1.68134210223,0.729808413553,-1.32232251471,-0.489283557871,-1.96993705637,0.171512302538,-0.466956411494,-1.70501740408,-0.322355291185,0.899430117785,1.44332569465,2.15133399843,0.875764324945,0.104889978148,-0.0975183239223,0.585705565277,0.341886437611
-0.0899077783086,1.35254773105,0.332735967655,0.299097182682,0.688761430158,-0.42807869991,-0.795277382058,0.861190394236,0.418710457821,0.478958073396,-0.28256072706,0.418131803666,-0.56613895641,0.255877857419,-1.08540576602,-0.68429827335,-1.44839405026,-0.514463015477,0.76349308222,-0.991823275531,-0.636814450786,0.345978982857,-0.682357991985,-0.0391909683779,-0.732983026462,-0.0339869811896,0.147394057589,0.168989888682,-0.417764835506,-0.0430637393598,-0.926071506244,-1.03812285382,-0.278359329653,0.22613482007,0.844051921102,-0.139190917759,-0.656332468816,2.85627352994,2.9910758671,3.35161062127,1.77129284364,1.71910451631,2.39444876603,0.993346233105,-0.507760176021,-0.912580603812,0.247682439778,-0.597969213674,-2.30395118988,-0.218700403305,-0.492596309093,0.0588844026034,-1.65252094673,-0.467228495861,-1.07558145896,0.280069846091,-0.994289687179,0.00335213627933,-0.159617097174,0.054149318643,-1.3057258542,-0.600929130697,-0.607436035228,-0.520753523827,-0.118730150977,0.0439360494997,-0.109192918292,0.590075124272,-0.16490364759,-0.565801101844,0.152289057418,-0.57920783269,0.0995649044638,-0.270594626065,0.0149663017062,-0.445315053884,-1.16373481453,-0.315681381382,-0.263390762086,0.608285638296,-0.563142249234
